{"classifier":{"brain":{"sizes":[152,76,2],"layers":[{"0":{},"1":{},"2":{},"3":{},"4":{},"5":{},"6":{},"7":{},"8":{},"9":{},"10":{},"11":{},"12":{},"13":{},"14":{},"15":{},"16":{},"17":{},"18":{},"19":{},"20":{},"21":{},"22":{},"23":{},"24":{},"25":{},"26":{},"27":{},"28":{},"29":{},"30":{},"31":{},"32":{},"33":{},"34":{},"35":{},"36":{},"37":{},"38":{},"39":{},"40":{},"41":{},"42":{},"43":{},"44":{},"45":{},"46":{},"47":{},"48":{},"49":{},"50":{},"51":{},"52":{},"53":{},"54":{},"55":{},"56":{},"57":{},"58":{},"59":{},"60":{},"61":{},"62":{},"63":{},"64":{},"65":{},"66":{},"67":{},"68":{},"69":{},"70":{},"71":{},"72":{},"73":{},"74":{},"75":{},"76":{},"77":{},"78":{},"79":{},"80":{},"81":{},"82":{},"83":{},"84":{},"85":{},"86":{},"87":{},"88":{},"89":{},"90":{},"91":{},"92":{},"93":{},"94":{},"95":{},"96":{},"97":{},"98":{},"99":{},"100":{},"101":{},"102":{},"103":{},"104":{},"105":{},"106":{},"107":{},"108":{},"109":{},"110":{},"111":{},"112":{},"113":{},"114":{},"115":{},"116":{},"117":{},"118":{},"119":{},"120":{},"121":{},"122":{},"123":{},"124":{},"125":{},"126":{},"127":{},"128":{},"129":{},"130":{},"131":{},"132":{},"133":{},"134":{},"135":{},"136":{},"137":{},"138":{},"139":{},"140":{},"141":{},"142":{},"143":{},"144":{},"145":{},"146":{},"147":{},"148":{},"149":{},"150":{},"151":{}},{"0":{"bias":0.06379448622465134,"weights":{"0":0.15459416806697845,"1":-0.08609908074140549,"2":-0.2369575947523117,"3":0.19392982125282288,"4":0.10864316672086716,"5":0.2876499891281128,"6":-0.1773509383201599,"7":-0.373845636844635,"8":-0.049534156918525696,"9":-0.005306529346853495,"10":-0.06074313074350357,"11":-0.10925750434398651,"12":0.13120967149734497,"13":0.1942531317472458,"14":0.21924957633018494,"15":-0.009046508930623531,"16":0.20726172626018524,"17":0.20151835680007935,"18":0.0005912380293011665,"19":0.07601163536310196,"20":0.29005029797554016,"21":0.16296176612377167,"22":-0.009295578114688396,"23":0.16963320970535278,"24":0.20593731105327606,"25":0.04074107110500336,"26":0.10763039439916611,"27":-0.25647321343421936,"28":-0.26884132623672485,"29":0.06081250682473183,"30":-0.13667866587638855,"31":-0.19205306470394135,"32":-0.048732515424489975,"33":-0.2723863422870636,"34":0.006145658437162638,"35":-0.021422427147626877,"36":-0.0035136789083480835,"37":-0.1307595670223236,"38":-0.0717272162437439,"39":-0.18791566789150238,"40":-0.08017382025718689,"41":-0.2157495617866516,"42":0.1663246601819992,"43":0.1615348756313324,"44":0.09960135817527771,"45":0.28666043281555176,"46":0.06327863782644272,"47":-0.24600490927696228,"48":-0.010504583828151226,"49":-0.0398494116961956,"50":0.1546333134174347,"51":-0.01476322766393423,"52":0.057462144643068314,"53":0.014067096635699272,"54":-0.047487761825323105,"55":-0.14099688827991486,"56":-0.0391920804977417,"57":0.0827307477593422,"58":-0.03612174466252327,"59":0.02569522149860859,"60":0.1662161648273468,"61":0.045175861567258835,"62":-0.14899608492851257,"63":-0.06377805024385452,"64":0.08844394981861115,"65":-0.12377822399139404,"66":-0.14535199105739594,"67":-0.22798225283622742,"68":-0.005838021636009216,"69":0.10322703421115875,"70":-0.11262212693691254,"71":-0.17425163090229034,"72":0.053175829350948334,"73":0.09897846728563309,"74":0.10264453291893005,"75":0.04700569435954094,"76":-0.005609347950667143,"77":-0.2315552681684494,"78":-0.0872417688369751,"79":-0.11863291263580322,"80":0.057279378175735474,"81":0.06087012588977814,"82":0.12228686362504959,"83":0.36144179105758667,"84":0.09066972136497498,"85":0.1873738020658493,"86":0.13130180537700653,"87":-0.010012459009885788,"88":0.22254540026187897,"89":0.03343162685632706,"90":0.10506756603717804,"91":0.1719372719526291,"92":-0.09930357336997986,"93":-0.059102047234773636,"94":0.06894417852163315,"95":-0.2980644702911377,"96":0.15978218615055084,"97":0.11852708458900452,"98":0.04776903614401817,"99":-0.11585719883441925,"100":-0.17413492500782013,"101":0.012438550591468811,"102":0.09816990047693253,"103":-0.0737248882651329,"104":-0.08006441593170166,"105":0.09724125266075134,"106":0.013360702432692051,"107":-0.06891777366399765,"108":-0.2348729521036148,"109":-0.17435117065906525,"110":-0.23641565442085266,"111":-0.074480339884758,"112":0.12943333387374878,"113":-0.25171059370040894,"114":-0.1456698328256607,"115":-0.259921133518219,"116":0.08290215581655502,"117":0.07681272178888321,"118":0.040757130831480026,"119":-0.025882411748170853,"120":0.20893748104572296,"121":-0.25853201746940613,"122":-0.02272355742752552,"123":0.061555780470371246,"124":0.2478221207857132,"125":0.030946511775255203,"126":-0.13938583433628082,"127":0.1259022206068039,"128":-0.16352732479572296,"129":-0.13453257083892822,"130":-0.19037185609340668,"131":-0.025153834372758865,"132":-0.17727325856685638,"133":-0.0451173298060894,"134":-0.09024053812026978,"135":-0.020489323884248734,"136":0.2369832992553711,"137":0.11230584979057312,"138":0.14699633419513702,"139":-0.0569574236869812,"140":-0.0076680793426930904,"141":-0.09997254610061646,"142":0.035507917404174805,"143":-0.02925453893840313,"144":-0.049524907022714615,"145":-0.030253002420067787,"146":0.009504967369139194,"147":0.2246832400560379,"148":-0.03401559963822365,"149":-0.08958553522825241,"150":0.024091696366667747,"151":-0.3809334933757782}},"1":{"bias":-0.11083096265792847,"weights":{"0":-0.20440441370010376,"1":0.23910608887672424,"2":0.05328962206840515,"3":-0.17497263848781586,"4":-0.2704099416732788,"5":-0.08213905245065689,"6":0.016807928681373596,"7":0.46264511346817017,"8":0.19022785127162933,"9":0.22875924408435822,"10":-0.07353056222200394,"11":-0.18032889068126678,"12":0.031049951910972595,"13":-0.16092458367347717,"14":-0.20940019190311432,"15":0.06094305217266083,"16":-0.039462704211473465,"17":0.06675387918949127,"18":-0.051344405859708786,"19":0.04482899233698845,"20":-0.393085777759552,"21":0.05537109076976776,"22":-0.18717454373836517,"23":-0.4650881886482239,"24":-0.2794242203235626,"25":0.14928264915943146,"26":0.07699472457170486,"27":0.1661577820777893,"28":0.23174519836902618,"29":0.19706666469573975,"30":0.08470770716667175,"31":0.008044089190661907,"32":0.16627655923366547,"33":0.04972745105624199,"34":0.19758962094783783,"35":-0.008636116050183773,"36":-0.08913782238960266,"37":0.0669550821185112,"38":0.0358770526945591,"39":0.3050542175769806,"40":-0.08995375037193298,"41":-0.05235527455806732,"42":-0.33919110894203186,"43":-0.08775656670331955,"44":0.015356305055320263,"45":-0.4787816107273102,"46":0.2760010063648224,"47":0.18028314411640167,"48":-0.0907301977276802,"49":0.09408000856637955,"50":-0.0812779888510704,"51":0.21500293910503387,"52":0.012455019168555737,"53":0.06546514481306076,"54":0.13044416904449463,"55":0.20880112051963806,"56":-0.07317598164081573,"57":0.051181964576244354,"58":0.097557432949543,"59":0.07978515326976776,"60":-0.22001048922538757,"61":-0.2539816200733185,"62":0.01679071970283985,"63":0.18776871263980865,"64":0.19643579423427582,"65":0.11623966693878174,"66":0.10592175275087357,"67":0.23918689787387848,"68":0.1127668097615242,"69":0.1763273924589157,"70":0.23005034029483795,"71":0.1072930097579956,"72":-0.3094136118888855,"73":0.12872745096683502,"74":0.31785348057746887,"75":0.21659329533576965,"76":0.13898865878582,"77":0.10290422290563583,"78":-0.11743201315402985,"79":0.15202292799949646,"80":0.36241498589515686,"81":-0.047604016959667206,"82":-0.377815306186676,"83":-0.16976633667945862,"84":-0.18528275191783905,"85":-0.0180667731910944,"86":0.024984290823340416,"87":-0.3209313154220581,"88":-0.1831236183643341,"89":-0.11091562360525131,"90":-0.09441874176263809,"91":-0.25339454412460327,"92":0.11270565539598465,"93":-0.09349454194307327,"94":0.00642594788223505,"95":0.2977987825870514,"96":0.15432752668857574,"97":-0.16984263062477112,"98":-0.20537486672401428,"99":-0.022047409787774086,"100":-0.18776053190231323,"101":-0.15580762922763824,"102":-0.18547214567661285,"103":-0.10613591969013214,"104":0.0911877453327179,"105":0.03525962308049202,"106":0.270403653383255,"107":0.19121263921260834,"108":-0.12131021171808243,"109":0.11103024333715439,"110":0.17845530807971954,"111":-0.005374959670007229,"112":-0.09192566573619843,"113":0.41603609919548035,"114":0.03845318779349327,"115":0.07136925309896469,"116":-0.06617420166730881,"117":0.11977775394916534,"118":-0.13142071664333344,"119":-0.22916024923324585,"120":-0.02831525169312954,"121":0.3614216446876526,"122":0.376443475484848,"123":-0.17720292508602142,"124":-0.13712532818317413,"125":-0.36225518584251404,"126":-0.01883998140692711,"127":0.11710026860237122,"128":0.15664324164390564,"129":0.09992630779743195,"130":-0.05475042387843132,"131":0.26522958278656006,"132":0.008152824826538563,"133":0.26207640767097473,"134":0.03506706655025482,"135":-0.07370848208665848,"136":-0.29140546917915344,"137":-0.13624311983585358,"138":-0.10545875132083893,"139":-0.25116509199142456,"140":-0.23104506731033325,"141":0.00961446762084961,"142":-0.06273142993450165,"143":0.22535862028598785,"144":-0.053916361182928085,"145":0.07587846368551254,"146":0.20975224673748016,"147":0.07671478390693665,"148":-0.0005079322145320475,"149":-0.09189170598983765,"150":-0.10207653045654297,"151":0.27900978922843933}},"2":{"bias":-0.012789052911102772,"weights":{"0":-0.03541328385472298,"1":0.1746116429567337,"2":-0.06818318367004395,"3":0.06270952522754669,"4":-0.1073179841041565,"5":0.09419825673103333,"6":0.056688342243433,"7":0.18059054017066956,"8":-0.1632334142923355,"9":-0.16253134608268738,"10":-0.1892547756433487,"11":-0.18573719263076782,"12":-0.049557507038116455,"13":0.17622341215610504,"14":0.031073642894625664,"15":-0.17897015810012817,"16":-0.14250822365283966,"17":0.15754258632659912,"18":-0.04918801411986351,"19":0.14892695844173431,"20":-0.20561935007572174,"21":0.16958469152450562,"22":-0.022360222414135933,"23":-0.05431484803557396,"24":0.030182793736457825,"25":0.16911636292934418,"26":0.1226167231798172,"27":-0.02788003906607628,"28":-0.14527924358844757,"29":0.005933551117777824,"30":-0.10410448908805847,"31":-0.05538775399327278,"32":-0.11364631354808807,"33":0.01704009249806404,"34":0.061753932386636734,"35":0.11832404881715775,"36":-0.009295097552239895,"37":-0.1658681482076645,"38":0.017909444868564606,"39":0.011759846471250057,"40":-0.006834752392023802,"41":0.1248917356133461,"42":-0.07262194901704788,"43":-0.14123846590518951,"44":-0.011432941071689129,"45":0.04808814451098442,"46":-0.19160030782222748,"47":0.0012801276752725244,"48":0.06367825716733932,"49":-0.11510694772005081,"50":-0.04443255811929703,"51":0.13545475900173187,"52":-0.06490694731473923,"53":-0.03790684789419174,"54":-0.013265726156532764,"55":0.13015036284923553,"56":0.16216647624969482,"57":-0.0323750376701355,"58":-0.20922696590423584,"59":-0.16235525906085968,"60":-0.10440163314342499,"61":0.18448060750961304,"62":0.15547992289066315,"63":0.20142635703086853,"64":-0.023145781829953194,"65":0.11198911815881729,"66":-0.04824981093406677,"67":0.17996221780776978,"68":0.19251607358455658,"69":0.004632007330656052,"70":-0.01689728908240795,"71":-0.07626663893461227,"72":-0.10684064775705338,"73":0.05493265390396118,"74":-0.18251095712184906,"75":0.19835320115089417,"76":-0.16506706178188324,"77":-0.10609295964241028,"78":0.07422084361314774,"79":0.08740400522947311,"80":0.16149640083312988,"81":0.030246520414948463,"82":-0.031704697757959366,"83":0.10230199992656708,"84":-0.189554825425148,"85":0.1378306895494461,"86":0.10784547030925751,"87":-0.099916972219944,"88":0.11648231744766235,"89":0.08833295106887817,"90":-0.08918403834104538,"91":-0.031833749264478683,"92":-0.018756020814180374,"93":0.10385195165872574,"94":-0.03317457437515259,"95":-0.18857823312282562,"96":0.14744098484516144,"97":-0.12149064987897873,"98":-0.18281018733978271,"99":0.05004991218447685,"100":0.14070335030555725,"101":-0.024753306061029434,"102":0.05384569242596626,"103":-0.12831011414527893,"104":0.15186558663845062,"105":-0.1669350117444992,"106":0.017591318115592003,"107":0.036483410745859146,"108":0.08360465615987778,"109":0.17193986475467682,"110":-0.06313459575176239,"111":0.18393023312091827,"112":0.02371855452656746,"113":0.1870414763689041,"114":0.16159744560718536,"115":-0.015688322484493256,"116":-0.1285671442747116,"117":0.037466373294591904,"118":-0.09748127311468124,"119":-0.18171009421348572,"120":0.16696083545684814,"121":-0.004838854074478149,"122":0.08450613170862198,"123":-0.03375127911567688,"124":-0.17869679629802704,"125":0.0830899178981781,"126":0.04298040643334389,"127":0.1545632928609848,"128":0.11356572806835175,"129":0.018525226041674614,"130":-0.17100901901721954,"131":-0.004320195410400629,"132":0.09702177345752716,"133":-0.05183198302984238,"134":-0.02504623495042324,"135":-0.11993318051099777,"136":0.16549208760261536,"137":0.17911893129348755,"138":-0.05177311226725578,"139":0.016181254759430885,"140":0.17533522844314575,"141":0.16725005209445953,"142":-0.04045542702078819,"143":0.10896716266870499,"144":0.06651569157838821,"145":-0.025316942483186722,"146":0.09861097484827042,"147":0.003962482325732708,"148":0.008314760401844978,"149":0.11912432312965393,"150":0.16882292926311493,"151":-0.07658947259187698}},"3":{"bias":0.0508798323571682,"weights":{"0":-0.12403388321399689,"1":-0.20599417388439178,"2":-0.07968536019325256,"3":0.18438765406608582,"4":-0.05866628512740135,"5":-0.05596233159303665,"6":-0.054824959486722946,"7":-0.22391590476036072,"8":-0.1774180829524994,"9":-0.1254279762506485,"10":-0.145527645945549,"11":-0.16056138277053833,"12":-0.08759453147649765,"13":-0.06468517333269119,"14":-0.13877642154693604,"15":-0.019106615334749222,"16":0.16853022575378418,"17":-0.16932879388332367,"18":0.08601464331150055,"19":0.03152089938521385,"20":0.12500157952308655,"21":-0.08016302436590195,"22":0.12331575155258179,"23":0.2206479161977768,"24":0.07709971070289612,"25":-0.07147584855556488,"26":-0.03246772289276123,"27":-0.09373585879802704,"28":-0.13726839423179626,"29":-0.18744654953479767,"30":-0.1911228448152542,"31":0.024428552016615868,"32":-0.14979612827301025,"33":-0.1886289119720459,"34":-0.10073193907737732,"35":0.07130264490842819,"36":0.16989652812480927,"37":0.013175935484468937,"38":0.06030440330505371,"39":-0.16263580322265625,"40":-0.051206789910793304,"41":-0.012378162704408169,"42":-0.12192528694868088,"43":0.014005880802869797,"44":0.02495415508747101,"45":0.034004922956228256,"46":0.09591733664274216,"47":0.14389218389987946,"48":-0.16500425338745117,"49":0.13387832045555115,"50":-0.16705861687660217,"51":-0.2102275788784027,"52":-0.0699310377240181,"53":0.06400645524263382,"54":-0.14794786274433136,"55":0.07429751008749008,"56":0.17778119444847107,"57":0.20011547207832336,"58":-0.08071347326040268,"59":-0.07763943821191788,"60":-0.048772018402814865,"61":0.1836857795715332,"62":-0.11847902834415436,"63":0.021217437461018562,"64":-0.14542533457279205,"65":0.15873658657073975,"66":-0.21188487112522125,"67":0.07090821862220764,"68":0.027389293536543846,"69":-0.14650040864944458,"70":0.0032333850394934416,"71":0.03364470228552818,"72":-0.13799621164798737,"73":0.09575515240430832,"74":-0.23135869204998016,"75":0.07344906777143478,"76":0.1692505031824112,"77":0.13495978713035583,"78":-0.16361258924007416,"79":-0.22691354155540466,"80":0.019270896911621094,"81":0.00566774932667613,"82":0.057243503630161285,"83":0.2652890682220459,"84":0.020888105034828186,"85":0.19470202922821045,"86":0.21510598063468933,"87":-0.05896132439374924,"88":-0.15481580793857574,"89":-0.09419409930706024,"90":-0.11447152495384216,"91":0.10243251919746399,"92":-0.14366339147090912,"93":0.01919242925941944,"94":-0.13501520454883575,"95":-0.14670541882514954,"96":0.0948367640376091,"97":-0.05617539957165718,"98":0.15869875252246857,"99":-0.0436578169465065,"100":-0.06587406992912292,"101":0.09002767503261566,"102":0.14830300211906433,"103":0.05321819335222244,"104":-0.05508143827319145,"105":-0.20048514008522034,"106":0.148687481880188,"107":-0.06003105640411377,"108":-0.010410564951598644,"109":-0.2081371694803238,"110":0.11095353215932846,"111":-0.19091683626174927,"112":-0.07427050918340683,"113":0.013976071961224079,"114":-0.147487074136734,"115":-0.10276486724615097,"116":0.08663530647754669,"117":-0.07304632663726807,"118":0.03160668909549713,"119":0.01595703884959221,"120":-0.03579138591885567,"121":0.002450694562867284,"122":-0.23786494135856628,"123":0.013700698502361774,"124":-0.10702566057443619,"125":-0.14848588407039642,"126":0.05138961225748062,"127":0.14425484836101532,"128":0.08394677191972733,"129":0.06798505783081055,"130":-0.013781837187707424,"131":-0.009706749580800533,"132":-0.058869343250989914,"133":0.028417902067303658,"134":-0.22216099500656128,"135":-0.10246928036212921,"136":-0.05955001339316368,"137":-0.15557968616485596,"138":-0.01104185450822115,"139":-0.15468630194664001,"140":0.1111258715391159,"141":0.22816231846809387,"142":0.10792330652475357,"143":-0.14862430095672607,"144":-0.1945817619562149,"145":-0.14485415816307068,"146":-0.038138072937726974,"147":0.18134717643260956,"148":-0.09439071267843246,"149":0.1342936009168625,"150":0.20581765472888947,"151":-0.2899104058742523}},"4":{"bias":0.010335860773921013,"weights":{"0":0.1603979617357254,"1":0.1121632307767868,"2":0.13755647838115692,"3":0.07139953225851059,"4":0.04870453476905823,"5":-0.06717023998498917,"6":0.16888520121574402,"7":0.2347043752670288,"8":-0.19562962651252747,"9":0.2188068926334381,"10":0.11680546402931213,"11":-0.16059088706970215,"12":-0.050322066992521286,"13":-0.034897301346063614,"14":0.04424086958169937,"15":-0.2049960196018219,"16":0.1433606743812561,"17":-0.20715904235839844,"18":-0.030948147177696228,"19":-0.16034233570098877,"20":-0.06836570054292679,"21":-0.003994826693087816,"22":-0.029657531529664993,"23":-0.17835964262485504,"24":0.08379428088665009,"25":0.02717859484255314,"26":0.00914745032787323,"27":0.2036617249250412,"28":-0.03572797775268555,"29":0.20311766862869263,"30":0.10540863871574402,"31":0.21637730300426483,"32":-0.11952584236860275,"33":-0.0004357014549896121,"34":0.018030043691396713,"35":-0.08588710427284241,"36":0.02538648247718811,"37":0.21900112926959991,"38":-0.16394031047821045,"39":0.03886913135647774,"40":0.18115279078483582,"41":-0.0687723159790039,"42":-0.22105100750923157,"43":0.0599183589220047,"44":-0.1433343142271042,"45":-0.15827010571956635,"46":-0.002143573947250843,"47":0.16069874167442322,"48":0.12437300384044647,"49":0.17559729516506195,"50":0.179443821310997,"51":0.15129517018795013,"52":-0.08209837228059769,"53":0.0755796954035759,"54":0.1602669060230255,"55":-0.03868203982710838,"56":-0.21838219463825226,"57":-0.10690509527921677,"58":-0.1451353281736374,"59":-0.10440628230571747,"60":0.0058431969955563545,"61":-0.16720549762248993,"62":-0.17686527967453003,"63":0.17133425176143646,"64":-0.10845988988876343,"65":0.026268571615219116,"66":0.15060676634311676,"67":-0.1457957625389099,"68":0.19773326814174652,"69":-0.127780020236969,"70":0.003927338402718306,"71":0.14681102335453033,"72":0.058034125715494156,"73":0.07900423556566238,"74":-0.08774314075708389,"75":-0.04907338693737984,"76":-0.11772092431783676,"77":-0.13671544194221497,"78":0.1648169457912445,"79":0.22447064518928528,"80":-0.07457978278398514,"81":-0.2656628489494324,"82":-0.23926548659801483,"83":0.04174832999706268,"84":-0.01958109252154827,"85":0.09772635996341705,"86":0.1523013859987259,"87":0.006821541115641594,"88":-0.1321692019701004,"89":0.14691738784313202,"90":0.12662015855312347,"91":0.10594362020492554,"92":0.12419136613607407,"93":-0.0320524126291275,"94":-0.06289172172546387,"95":-0.09675037860870361,"96":0.061637524515390396,"97":0.15973018109798431,"98":-0.152738556265831,"99":-0.010705321095883846,"100":0.09688171744346619,"101":-0.18382175266742706,"102":0.18107089400291443,"103":-0.14250992238521576,"104":-0.006286404095590115,"105":0.011143055744469166,"106":-0.1313294619321823,"107":-0.14069178700447083,"108":0.20122502744197845,"109":-0.0594697967171669,"110":0.001499286969192326,"111":0.0790758728981018,"112":-0.10593019425868988,"113":-0.06487708538770676,"114":-0.05180716887116432,"115":0.24903778731822968,"116":0.09903109073638916,"117":-0.0060827601701021194,"118":-0.07816652953624725,"119":-0.19805344939231873,"120":-0.17360623180866241,"121":-0.12868249416351318,"122":0.17367812991142273,"123":0.08527262508869171,"124":-0.2524007260799408,"125":-0.238753080368042,"126":0.09141921252012253,"127":0.09319713711738586,"128":0.07437234371900558,"129":-0.12900428473949432,"130":-0.010006577707827091,"131":-0.16168007254600525,"132":0.06194336712360382,"133":0.005933039356023073,"134":0.10429198294878006,"135":-0.15440775454044342,"136":-0.1263798326253891,"137":-0.09472037851810455,"138":-0.21257376670837402,"139":0.16073420643806458,"140":-0.12069676071405411,"141":-0.04307146370410919,"142":-0.10590899735689163,"143":0.014122008346021175,"144":0.09048523753881454,"145":0.1924789398908615,"146":0.08800023794174194,"147":-0.021085212007164955,"148":0.07252118736505508,"149":-0.1323772370815277,"150":-0.046240027993917465,"151":0.2359606921672821}},"5":{"bias":0.04717731848359108,"weights":{"0":-0.15335813164710999,"1":-0.2006869614124298,"2":-0.09977006912231445,"3":-0.1292433887720108,"4":0.05052410438656807,"5":0.29876717925071716,"6":-0.23336327075958252,"7":-0.3865838050842285,"8":0.08196502923965454,"9":0.10874399542808533,"10":0.07953119277954102,"11":-0.009542616084218025,"12":-0.17125585675239563,"13":-0.07371386885643005,"14":-0.16858573257923126,"15":-0.02794555574655533,"16":0.13195918500423431,"17":0.11285121738910675,"18":0.06184229254722595,"19":0.0565810464322567,"20":0.3083895742893219,"21":0.0963173434138298,"22":0.17046348750591278,"23":0.20182128250598907,"24":-0.006624684203416109,"25":-0.10939612984657288,"26":-0.21143434941768646,"27":-0.07605818659067154,"28":-0.1949368268251419,"29":-0.2592795789241791,"30":-0.2516554594039917,"31":-0.08033167570829391,"32":0.045172978192567825,"33":-0.059157125651836395,"34":0.020549194887280464,"35":0.1066126748919487,"36":0.145833820104599,"37":0.00044515402987599373,"38":-0.030576474964618683,"39":-0.3216579556465149,"40":-0.05335347354412079,"41":-0.13466677069664001,"42":0.09551827609539032,"43":-0.011028554290533066,"44":-0.006172822788357735,"45":0.2120903581380844,"46":-0.2131328284740448,"47":-0.26857155561447144,"48":-0.12541474401950836,"49":-0.024677922949194908,"50":0.12727046012878418,"51":0.02630312368273735,"52":0.12153519690036774,"53":0.10568501055240631,"54":-0.17076431214809418,"55":0.12067911773920059,"56":0.22584226727485657,"57":-0.01592940464615822,"58":-0.023892320692539215,"59":-0.07192622125148773,"60":0.16142317652702332,"61":-0.03942082077264786,"62":-0.0370711088180542,"63":-0.09364056587219238,"64":-0.000027399888494983315,"65":-0.16026493906974792,"66":-0.10916884988546371,"67":-0.17762668430805206,"68":0.03662022203207016,"69":0.058327142149209976,"70":0.03284032270312309,"71":0.029028167948126793,"72":0.26820918917655945,"73":-0.02460811473429203,"74":-0.029160557314753532,"75":-0.04361891746520996,"76":-0.0812978595495224,"77":-0.09405601769685745,"78":0.15168698132038116,"79":-0.12492510676383972,"80":0.04248427599668503,"81":0.1495058834552765,"82":0.3073183298110962,"83":0.29029586911201477,"84":0.10109114646911621,"85":0.1101103276014328,"86":0.0746522918343544,"87":0.26068201661109924,"88":-0.0763276070356369,"89":0.21812903881072998,"90":0.05738978087902069,"91":-0.0951172485947609,"92":0.21991810202598572,"93":0.20627251267433167,"94":-0.2151108980178833,"95":-0.002303590066730976,"96":-0.13416939973831177,"97":0.03613993152976036,"98":0.1924474835395813,"99":0.004999399650841951,"100":-0.10468921810388565,"101":0.0195247083902359,"102":0.192066490650177,"103":-0.09249270707368851,"104":-0.17493557929992676,"105":-0.2849174737930298,"106":-0.06950585544109344,"107":-0.004442226141691208,"108":0.11282450705766678,"109":0.028605028986930847,"110":-0.010666253045201302,"111":0.14372484385967255,"112":-0.11384128779172897,"113":-0.13373461365699768,"114":-0.3061976134777069,"115":-0.08844015002250671,"116":0.17449964582920074,"117":0.22660745680332184,"118":0.11423102021217346,"119":0.1650712490081787,"120":0.21691785752773285,"121":-0.33456453680992126,"122":-0.15159067511558533,"123":-0.02047535963356495,"124":0.2535419762134552,"125":0.0828581377863884,"126":0.07482649385929108,"127":-0.04740943759679794,"128":0.11972114443778992,"129":-0.14600732922554016,"130":-0.2632955014705658,"131":-0.10043936222791672,"132":0.04828134551644325,"133":-0.09815723448991776,"134":-0.19209034740924835,"135":0.18775950372219086,"136":-0.1251881867647171,"137":0.04159172251820564,"138":0.27390092611312866,"139":0.16313351690769196,"140":0.055990803986787796,"141":-0.005184449255466461,"142":0.13922476768493652,"143":-0.04362262040376663,"144":-0.08384796977043152,"145":0.06044910103082657,"146":-0.0014770914567634463,"147":0.23500408232212067,"148":0.2471129149198532,"149":0.012307948432862759,"150":0.1766485720872879,"151":-0.27510491013526917}},"6":{"bias":0.03387780860066414,"weights":{"0":0.099791519343853,"1":-0.21022219955921173,"2":-0.10618799179792404,"3":0.14235594868659973,"4":0.19820696115493774,"5":0.21799492835998535,"6":-0.1367349475622177,"7":-0.14793160557746887,"8":-0.1935974359512329,"9":-0.18588361144065857,"10":-0.07711256295442581,"11":0.014821660704910755,"12":0.1146906167268753,"13":0.17907127737998962,"14":-0.13160906732082367,"15":-0.16022324562072754,"16":0.047288525849580765,"17":0.20551657676696777,"18":-0.025120070204138756,"19":0.21739262342453003,"20":0.2861216068267822,"21":0.18232060968875885,"22":0.025833670049905777,"23":0.06234809756278992,"24":0.030876081436872482,"25":-0.00995237473398447,"26":0.1323963850736618,"27":0.0675605982542038,"28":0.058620601892471313,"29":-0.035204384475946426,"30":0.11229167878627777,"31":0.1387561708688736,"32":-0.05557572841644287,"33":0.14204628765583038,"34":-0.09455815702676773,"35":-0.08495371043682098,"36":0.1743115484714508,"37":0.02712511084973812,"38":0.1634605973958969,"39":-0.21463213860988617,"40":0.14199699461460114,"41":-0.17393800616264343,"42":-0.0640353411436081,"43":0.1940719038248062,"44":0.06226548179984093,"45":-0.0446830578148365,"46":-0.16637226939201355,"47":-0.05937815457582474,"48":-0.05690613389015198,"49":-0.10333289951086044,"50":-0.05304891988635063,"51":-0.12044782936573029,"52":-0.052976299077272415,"53":-0.018058495596051216,"54":-0.20669573545455933,"55":0.03976636379957199,"56":0.21287989616394043,"57":-0.03158740699291229,"58":0.11810120940208435,"59":0.1427210569381714,"60":-0.039092063903808594,"61":0.186556875705719,"62":0.10546217858791351,"63":-0.0741841271519661,"64":-0.053064532577991486,"65":0.0080880057066679,"66":0.09412755817174911,"67":-0.12110152095556259,"68":-0.2089136689901352,"69":0.10192976146936417,"70":-0.17123596370220184,"71":0.04659462720155716,"72":0.16109003126621246,"73":0.12321871519088745,"74":-0.16969096660614014,"75":0.013656362891197205,"76":0.16605554521083832,"77":-0.023637080565094948,"78":0.05443339794874191,"79":-0.2649216055870056,"80":-0.09194483608007431,"81":-0.09861141443252563,"82":0.005064256954938173,"83":0.05131914094090462,"84":-0.11519362777471542,"85":-0.03357399255037308,"86":0.20890645682811737,"87":-0.036072682589292526,"88":0.022370224818587303,"89":0.1767902970314026,"90":0.08004818856716156,"91":-0.052876051515340805,"92":0.05798793211579323,"93":-0.1455780565738678,"94":-0.09143538028001785,"95":0.10235536098480225,"96":0.1483580321073532,"97":-0.06684093922376633,"98":0.1295054852962494,"99":0.14905814826488495,"100":0.024983622133731842,"101":-0.05368361622095108,"102":-0.023334963247179985,"103":-0.013867359608411789,"104":-0.10163910686969757,"105":-0.2630080282688141,"106":-0.017350153997540474,"107":-0.1638748049736023,"108":0.09744340181350708,"109":-0.06625783443450928,"110":0.13182272017002106,"111":0.11412328481674194,"112":-0.17286784946918488,"113":-0.2905796766281128,"114":0.028513174504041672,"115":-0.11681357771158218,"116":-0.01974913477897644,"117":0.04751429706811905,"118":0.20655447244644165,"119":-0.12449696660041809,"120":-0.03418546915054321,"121":0.09436222165822983,"122":0.037290144711732864,"123":0.23823793232440948,"124":-0.06319188326597214,"125":0.11072023212909698,"126":-0.18178722262382507,"127":0.0073083979077637196,"128":0.13409048318862915,"129":0.12705789506435394,"130":0.1275472491979599,"131":0.05071377009153366,"132":-0.23359179496765137,"133":0.004076414741575718,"134":-0.01972069963812828,"135":0.11130403727293015,"136":0.09380573034286499,"137":0.21209706366062164,"138":-0.0012787734158337116,"139":0.23832669854164124,"140":-0.049853261560201645,"141":0.2213488519191742,"142":-0.2285388857126236,"143":0.06329574435949326,"144":0.07155617326498032,"145":-0.16672775149345398,"146":0.07827020436525345,"147":0.05736552178859711,"148":-0.099092036485672,"149":-0.10150663554668427,"150":0.24256648123264313,"151":-0.32997071743011475}},"7":{"bias":0.09641976654529572,"weights":{"0":-0.1876097172498703,"1":0.14591655135154724,"2":0.07775907218456268,"3":-0.06691759824752808,"4":-0.0901830643415451,"5":0.07099755108356476,"6":-0.07122751325368881,"7":0.03906027227640152,"8":0.1674090474843979,"9":0.17552931606769562,"10":0.0423910915851593,"11":-0.02411242015659809,"12":0.12769801914691925,"13":-0.13535486161708832,"14":0.11509012430906296,"15":-0.09750254452228546,"16":-0.18740911781787872,"17":-0.1788247525691986,"18":-0.1367609053850174,"19":0.08178379386663437,"20":-0.26880547404289246,"21":-0.03367951884865761,"22":0.06347643584012985,"23":0.01695820689201355,"24":0.125284805893898,"25":-0.0512394942343235,"26":-0.1535135805606842,"27":0.23928998410701752,"28":0.0870111808180809,"29":-0.11414486169815063,"30":0.06131129339337349,"31":-0.12421703338623047,"32":0.1870124340057373,"33":-0.12490145862102509,"34":0.16146108508110046,"35":-0.118410125374794,"36":0.003716718405485153,"37":0.03261351212859154,"38":-0.17100359499454498,"39":-0.11456321179866791,"40":0.05727928504347801,"41":-0.0346173495054245,"42":0.07469262927770615,"43":-0.0542914941906929,"44":0.012649396434426308,"45":-0.05382435396313667,"46":0.19355438649654388,"47":-0.1551164984703064,"48":0.14752545952796936,"49":0.20285959541797638,"50":-0.15861362218856812,"51":0.17593809962272644,"52":-0.08182034641504288,"53":0.07691459357738495,"54":0.1586969494819641,"55":0.11601529270410538,"56":-0.16849681735038757,"57":-0.03249454125761986,"58":0.09797292202711105,"59":-0.2274736911058426,"60":-0.02064589224755764,"61":0.03875918686389923,"62":-0.03661472722887993,"63":0.21137911081314087,"64":0.17708469927310944,"65":0.1144062727689743,"66":0.06951317191123962,"67":0.21629025042057037,"68":0.14142875373363495,"69":-0.14688818156719208,"70":-0.07969348132610321,"71":-0.07262613624334335,"72":0.12783189117908478,"73":-0.14255501329898834,"74":-0.04950625076889992,"75":0.21250706911087036,"76":-0.026699574664235115,"77":0.2008548229932785,"78":0.066751629114151,"79":-0.06483911722898483,"80":0.1526171714067459,"81":0.14402781426906586,"82":-0.04905220866203308,"83":-0.058545175939798355,"84":-0.04444541037082672,"85":-0.21141809225082397,"86":0.14491987228393555,"87":-0.1181279793381691,"88":-0.055187761783599854,"89":0.046802371740341187,"90":-0.19624629616737366,"91":-0.14241717755794525,"92":-0.19504860043525696,"93":-0.20402491092681885,"94":-0.1383565068244934,"95":-0.07015521824359894,"96":-0.013049472123384476,"97":0.10781243443489075,"98":0.12916475534439087,"99":-0.008487577550113201,"100":-0.1322057694196701,"101":-0.08161716908216476,"102":-0.15151138603687286,"103":-0.10396286100149155,"104":0.17012056708335876,"105":0.21192467212677002,"106":-0.00021571193065028638,"107":-0.10517369955778122,"108":-0.03653152287006378,"109":-0.0995512530207634,"110":0.19165684282779694,"111":-0.12881505489349365,"112":-0.09879136830568314,"113":0.172651469707489,"114":0.17159324884414673,"115":-0.03811681270599365,"116":0.01924348808825016,"117":0.13860023021697998,"118":0.026992352679371834,"119":-0.17401352524757385,"120":-0.2139587104320526,"121":0.14813470840454102,"122":0.1488005667924881,"123":-0.2584300935268402,"124":-0.07908925414085388,"125":-0.07527241110801697,"126":-0.04175254702568054,"127":0.02653283067047596,"128":0.15332764387130737,"129":-0.059464000165462494,"130":-0.024647722020745277,"131":-0.1618613749742508,"132":0.17506343126296997,"133":0.10265220701694489,"134":-0.03917849063873291,"135":0.09158710390329361,"136":-0.1397375464439392,"137":0.12343588471412659,"138":-0.013470360077917576,"139":0.1148359626531601,"140":-0.1412641555070877,"141":-0.0790407657623291,"142":0.19646665453910828,"143":-0.009805497713387012,"144":0.10441014170646667,"145":-0.004582846071571112,"146":-0.014125474728643894,"147":0.0831538513302803,"148":-0.12940239906311035,"149":-0.03154062479734421,"150":0.16095228493213654,"151":-0.06105499714612961}},"8":{"bias":-0.09334307909011841,"weights":{"0":-0.08468755334615707,"1":0.00950070470571518,"2":0.01679118350148201,"3":-0.15677940845489502,"4":-0.0351225771009922,"5":-0.09749626368284225,"6":-0.14607374370098114,"7":0.055976502597332,"8":-0.13373970985412598,"9":-0.16849717497825623,"10":-0.1403818279504776,"11":0.11913687735795975,"12":-0.002324530156329274,"13":-0.22690926492214203,"14":-0.08692814409732819,"15":-0.023725073784589767,"16":0.14967010915279388,"17":0.04387914761900902,"18":0.16881683468818665,"19":0.17044652998447418,"20":-0.15178453922271729,"21":-0.006387652829289436,"22":-0.20114098489284515,"23":-0.17140592634677887,"24":-0.23204007744789124,"25":0.11405323445796967,"26":0.2185637652873993,"27":0.08723927289247513,"28":0.08945851027965546,"29":-0.0037646249402314425,"30":0.017492691054940224,"31":-0.10531870275735855,"32":-0.14600218832492828,"33":0.2341044396162033,"34":-0.1492839753627777,"35":-0.10944764316082001,"36":-0.11544101685285568,"37":0.18306882679462433,"38":-0.10315436124801636,"39":0.0021449497435241938,"40":-0.04441166669130325,"41":0.07944223284721375,"42":-0.00408485671505332,"43":-0.2350894808769226,"44":0.03949585556983948,"45":-0.013255344703793526,"46":-0.1284101903438568,"47":0.17218944430351257,"48":0.14989209175109863,"49":-0.009635749273002148,"50":0.10876438766717911,"51":-0.13351976871490479,"52":0.1947474628686905,"53":0.08799584209918976,"54":0.022476451471447945,"55":0.1283869445323944,"56":0.004213264212012291,"57":0.007997642271220684,"58":-0.08027312904596329,"59":-0.12182112783193588,"60":-0.002124131890013814,"61":0.04980236291885376,"62":0.1305703967809677,"63":0.12645970284938812,"64":0.07842261344194412,"65":0.13136398792266846,"66":0.04200853034853935,"67":0.18360145390033722,"68":-0.03159867227077484,"69":0.10939168930053711,"70":0.21511685848236084,"71":-0.15136894583702087,"72":0.006853585597127676,"73":-0.007839255034923553,"74":-0.13084468245506287,"75":0.13787402212619781,"76":0.11862532794475555,"77":0.06300781667232513,"78":-0.019385267049074173,"79":0.04437752813100815,"80":0.08713145554065704,"81":0.1147245466709137,"82":-0.004620981868356466,"83":-0.13797801733016968,"84":-0.04063639044761658,"85":-0.1153946965932846,"86":-0.07000336796045303,"87":-0.23599596321582794,"88":-0.01814093068242073,"89":-0.2002958506345749,"90":0.09900810569524765,"91":-0.05750184878706932,"92":-0.15767206251621246,"93":-0.1856423169374466,"94":0.15897893905639648,"95":0.1468532383441925,"96":0.1576860249042511,"97":0.1393892467021942,"98":0.10838151723146439,"99":-0.08589345961809158,"100":-0.10191430151462555,"101":0.09170914441347122,"102":0.05247415974736214,"103":-0.11338713765144348,"104":0.1958835870027542,"105":0.027208011597394943,"106":-0.06501444429159164,"107":-0.03991676867008209,"108":0.08420935273170471,"109":0.12352853268384933,"110":-0.0727325901389122,"111":-0.1298966258764267,"112":-0.04009201005101204,"113":-0.07856787741184235,"114":-0.011951308697462082,"115":0.14628294110298157,"116":-0.18107028305530548,"117":-0.184774711728096,"118":0.012634051032364368,"119":0.110517218708992,"120":0.13269226253032684,"121":-0.025570394471287727,"122":-0.11780025064945221,"123":0.07272736728191376,"124":0.1386214941740036,"125":0.044627558439970016,"126":0.11141528189182281,"127":0.08286422491073608,"128":-0.05391601473093033,"129":0.017957376316189766,"130":-0.13807564973831177,"131":-0.13365302979946136,"132":0.22669997811317444,"133":0.21380901336669922,"134":-0.1675138771533966,"135":-0.1722327023744583,"136":-0.15900970995426178,"137":0.07604409754276276,"138":-0.05303569138050079,"139":-0.010207205079495907,"140":-0.12987835705280304,"141":-0.029990460723638535,"142":0.21018871665000916,"143":-0.08251474797725677,"144":-0.10005997866392136,"145":0.03293397277593613,"146":0.17661859095096588,"147":0.11880014091730118,"148":-0.20104151964187622,"149":-0.20752811431884766,"150":-0.09073209017515182,"151":0.2843361794948578}},"9":{"bias":-0.12495767325162888,"weights":{"0":0.004550967365503311,"1":-0.08645395189523697,"2":0.09674165397882462,"3":0.11813980340957642,"4":0.21922455728054047,"5":-0.051949746906757355,"6":0.11724977195262909,"7":-0.2825658619403839,"8":0.1838456392288208,"9":-0.06060318276286125,"10":0.11652879416942596,"11":0.19548353552818298,"12":-0.12585033476352692,"13":-0.07166887819766998,"14":0.03266855329275131,"15":-0.1356157511472702,"16":0.023110881447792053,"17":-0.09005467593669891,"18":0.1734824925661087,"19":-0.010268708691000938,"20":0.043950144201517105,"21":0.18385109305381775,"22":-0.05142411217093468,"23":0.20656231045722961,"24":0.2319096475839615,"25":-0.016278782859444618,"26":-0.19886931777000427,"27":-0.13559222221374512,"28":-0.041463702917099,"29":0.09212426841259003,"30":0.07141406089067459,"31":0.13105210661888123,"32":-0.24707989394664764,"33":-0.08705289661884308,"34":0.11013982445001602,"35":0.031230557709932327,"36":0.04891854524612427,"37":-0.16350628435611725,"38":-0.21336333453655243,"39":0.1052137166261673,"40":-0.1728295236825943,"41":0.012571672908961773,"42":0.18479719758033752,"43":0.15483859181404114,"44":0.14679405093193054,"45":0.2110367864370346,"46":-0.006678241770714521,"47":-0.0919162705540657,"48":0.06596836447715759,"49":-0.2290201038122177,"50":-0.10431542247533798,"51":-0.17313098907470703,"52":0.0360567606985569,"53":-0.1927797943353653,"54":0.05633551627397537,"55":0.02196372114121914,"56":0.06883497536182404,"57":0.13025088608264923,"58":-0.09736927598714828,"59":0.22048227488994598,"60":-0.10137457400560379,"61":0.2012179046869278,"62":0.07790174335241318,"63":-0.2304282784461975,"64":0.11497511714696884,"65":-0.11077886074781418,"66":-0.09892333298921585,"67":-0.21121284365653992,"68":0.15849819779396057,"69":-0.02655627764761448,"70":-0.05947834253311157,"71":-0.10676021873950958,"72":0.1777779757976532,"73":-0.045229777693748474,"74":-0.24391598999500275,"75":-0.05985567346215248,"76":-0.18901467323303223,"77":0.12669840455055237,"78":0.16635559499263763,"79":0.04550734534859657,"80":-0.13201649487018585,"81":0.06816218048334122,"82":0.22079256176948547,"83":0.17015056312084198,"84":-0.024939140304923058,"85":-0.007349999621510506,"86":0.14239509403705597,"87":0.21758253872394562,"88":-0.10055200010538101,"89":0.166375532746315,"90":0.2075684368610382,"91":-0.0866171345114708,"92":0.20593923330307007,"93":0.10424351692199707,"94":-0.039479199796915054,"95":-0.24026858806610107,"96":0.06033184006810188,"97":0.08673082292079926,"98":-0.10930867493152618,"99":-0.1720842868089676,"100":0.1067914143204689,"101":0.07864820212125778,"102":0.12748844921588898,"103":-0.12330914288759232,"104":0.019324252381920815,"105":0.05612960085272789,"106":0.11463765799999237,"107":-0.20079362392425537,"108":-0.037241313606500626,"109":-0.0145703861489892,"110":-0.14756473898887634,"111":-0.11517622321844101,"112":-0.12231580913066864,"113":-0.1442837417125702,"114":0.04492563381791115,"115":-0.09576557576656342,"116":-0.10589321702718735,"117":-0.05041157826781273,"118":-0.14948517084121704,"119":-0.08578882366418839,"120":-0.048802487552165985,"121":-0.04996941238641739,"122":0.09257680177688599,"123":0.0220220685005188,"124":-0.01762104593217373,"125":-0.03288896754384041,"126":0.04620198532938957,"127":-0.04983868822455406,"128":-0.16552266478538513,"129":0.11448101699352264,"130":0.008098064921796322,"131":0.06561488658189774,"132":0.13188649713993073,"133":0.1575513333082199,"134":-0.10445792227983475,"135":-0.04236134886741638,"136":0.17276787757873535,"137":-0.11912655830383301,"138":0.14829877018928528,"139":-0.053386516869068146,"140":-0.07583834230899811,"141":-0.11500774323940277,"142":0.10545462369918823,"143":-0.0668748989701271,"144":-0.11362969130277634,"145":0.1465502381324768,"146":-0.0571412518620491,"147":0.13800367712974548,"148":0.16309811174869537,"149":-0.14962278306484222,"150":-0.14209608733654022,"151":-0.3463285565376282}},"10":{"bias":0.037365153431892395,"weights":{"0":0.04367769882082939,"1":-0.07826393842697144,"2":0.22285452485084534,"3":-0.17333269119262695,"4":-0.15321052074432373,"5":-0.25374510884284973,"6":0.061179034411907196,"7":0.2865419089794159,"8":-0.16604842245578766,"9":-0.13939189910888672,"10":-0.0905999168753624,"11":-0.16361212730407715,"12":0.07445593923330307,"13":-0.20533202588558197,"14":0.12364029884338379,"15":-0.21692699193954468,"16":0.0037975439336150885,"17":-0.19776996970176697,"18":0.14326034486293793,"19":0.15314628183841705,"20":-0.1611005961894989,"21":-0.13436125218868256,"22":-0.0382770337164402,"23":-0.30172863602638245,"24":0.04406771808862686,"25":0.04412125423550606,"26":0.2066952884197235,"27":-0.10520488768815994,"28":-0.08516493439674377,"29":-0.058340732008218765,"30":0.19551333785057068,"31":0.2373984158039093,"32":0.0316341258585453,"33":0.07350761443376541,"34":-0.038176678121089935,"35":0.07197730988264084,"36":0.0910692885518074,"37":0.1303493231534958,"38":-0.08671348541975021,"39":0.03778520226478577,"40":-0.018396029248833656,"41":0.13350994884967804,"42":0.030757205560803413,"43":0.08025743067264557,"44":0.14944255352020264,"45":-0.045490607619285583,"46":-0.05570395663380623,"47":-0.14334659278392792,"48":-0.07872924953699112,"49":0.12642967700958252,"50":-0.05002220347523689,"51":-0.11702463775873184,"52":-0.09032035619020462,"53":0.03048214130103588,"54":-0.061499930918216705,"55":-0.011016949079930782,"56":0.15222206711769104,"57":-0.045472197234630585,"58":-0.18503379821777344,"59":0.010697657242417336,"60":0.02873888984322548,"61":-0.04494522511959076,"62":0.12878859043121338,"63":0.09293011575937271,"64":0.08271808922290802,"65":0.12184201180934906,"66":0.20883411169052124,"67":-0.13886713981628418,"68":-0.07505017518997192,"69":0.021162135526537895,"70":-0.1104733794927597,"71":0.19517137110233307,"72":0.10842739045619965,"73":0.2175808995962143,"74":0.2311323583126068,"75":0.13132531940937042,"76":-0.1572103649377823,"77":-0.054429683834314346,"78":0.014064927585422993,"79":-0.014097538776695728,"80":-0.020701920613646507,"81":-0.16719824075698853,"82":-0.0269402377307415,"83":0.07409077137708664,"84":0.13081657886505127,"85":-0.11329063028097153,"86":-0.11292892694473267,"87":-0.017074771225452423,"88":0.12990006804466248,"89":0.15598788857460022,"90":0.1340610533952713,"91":-0.18642762303352356,"92":0.03599200397729874,"93":0.1342088282108307,"94":0.23350082337856293,"95":0.23059280216693878,"96":-0.14527226984500885,"97":-0.11391424387693405,"98":0.05910057574510574,"99":-0.08703012019395828,"100":0.041789643466472626,"101":0.004800843074917793,"102":0.11717913299798965,"103":0.21257075667381287,"104":-0.07539666444063187,"105":0.16302190721035004,"106":0.1658986508846283,"107":0.05067675933241844,"108":0.0921408087015152,"109":0.09959479421377182,"110":0.20346346497535706,"111":0.16912713646888733,"112":-0.11329206824302673,"113":0.10674583911895752,"114":-0.019548144191503525,"115":-0.0998220145702362,"116":-0.024373427033424377,"117":-0.11518517136573792,"118":-0.09474339336156845,"119":-0.046741411089897156,"120":-0.16837087273597717,"121":0.11292363703250885,"122":0.10909687727689743,"123":-0.2483106553554535,"124":-0.1977764517068863,"125":0.04399270564317703,"126":0.07770006358623505,"127":0.1393279731273651,"128":-0.005559115670621395,"129":0.048091962933540344,"130":0.13547219336032867,"131":0.13871493935585022,"132":0.04298342391848564,"133":0.05421869456768036,"134":0.010635790415108204,"135":0.08579239249229431,"136":-0.0863218605518341,"137":0.10912318527698517,"138":0.09942107647657394,"139":-0.1547485738992691,"140":-0.06836770474910736,"141":0.15853284299373627,"142":-0.14918240904808044,"143":-0.0651349201798439,"144":0.04440462589263916,"145":-0.11729631572961807,"146":0.07835768908262253,"147":-0.05243395268917084,"148":0.14586862921714783,"149":0.14210373163223267,"150":0.154606431722641,"151":0.27797818183898926}},"11":{"bias":-0.1007191389799118,"weights":{"0":-0.1910061538219452,"1":-0.05582034960389137,"2":0.08815718442201614,"3":-0.06558329612016678,"4":0.05342322587966919,"5":-0.2570050060749054,"6":-0.1394045501947403,"7":0.22131575644016266,"8":0.13909466564655304,"9":0.20600959658622742,"10":0.06321296840906143,"11":-0.060424260795116425,"12":0.20143038034439087,"13":0.11734355241060257,"14":-0.08854901790618896,"15":-0.18370547890663147,"16":0.13398975133895874,"17":-0.09730654954910278,"18":-0.18642638623714447,"19":-0.07652610540390015,"20":-0.27484187483787537,"21":0.13151517510414124,"22":0.0988771989941597,"23":0.031700123101472855,"24":0.059593912214040756,"25":0.046237267553806305,"26":0.2297879159450531,"27":0.11440904438495636,"28":0.054375551640987396,"29":0.02766134776175022,"30":-0.054922670125961304,"31":-0.03829096630215645,"32":0.21122020483016968,"33":0.09013406187295914,"34":0.12704555690288544,"35":0.08528755605220795,"36":0.17041948437690735,"37":0.18116888403892517,"38":-0.053225044161081314,"39":0.2309066355228424,"40":0.16441868245601654,"41":0.047970253974199295,"42":-0.19712711870670319,"43":0.13171815872192383,"44":0.11208291351795197,"45":-0.14141732454299927,"46":0.17451313138008118,"47":0.1702076494693756,"48":0.003122875699773431,"49":-0.1130145937204361,"50":-0.022085318341851234,"51":0.08674050122499466,"52":0.06902467459440231,"53":0.08522443473339081,"54":-0.06057136505842209,"55":-0.011795909143984318,"56":0.01749933324754238,"57":-0.15469497442245483,"58":0.06820410490036011,"59":0.029511243104934692,"60":0.08356815576553345,"61":-0.16839274764060974,"62":0.11028267443180084,"63":0.07954887300729752,"64":0.1923341304063797,"65":0.19267524778842926,"66":-0.034052323549985886,"67":0.09586799144744873,"68":0.09220234304666519,"69":0.008783755823969841,"70":0.1002766564488411,"71":-0.11522723734378815,"72":0.09627562761306763,"73":0.031186727806925774,"74":-0.04280524328351021,"75":0.19419574737548828,"76":0.13029855489730835,"77":0.16229045391082764,"78":0.028302939608693123,"79":0.12231061607599258,"80":-0.05099870637059212,"81":-0.1880224347114563,"82":-0.2486564964056015,"83":-0.15935324132442474,"84":-0.08409979194402695,"85":0.06945713609457016,"86":-0.016483861953020096,"87":-0.29080307483673096,"88":-0.14097800850868225,"89":-0.004514188040047884,"90":0.08257945626974106,"91":0.06568501144647598,"92":-0.12024588137865067,"93":-0.034884531050920486,"94":0.12898802757263184,"95":0.2191479504108429,"96":0.18799449503421783,"97":0.12380999326705933,"98":0.019052717834711075,"99":0.08764884620904922,"100":-0.1756422519683838,"101":-0.14050783216953278,"102":0.15101683139801025,"103":-0.16637656092643738,"104":-0.07730378955602646,"105":-0.039865098893642426,"106":0.0007400927715934813,"107":0.105064757168293,"108":0.10688631981611252,"109":0.04055238515138626,"110":-0.026601161807775497,"111":0.053075045347213745,"112":-0.08719547837972641,"113":0.07943693548440933,"114":-0.08927706629037857,"115":-0.09126322716474533,"116":-0.20988264679908752,"117":0.12648314237594604,"118":0.08742248266935349,"119":-0.05166931077837944,"120":-0.12628386914730072,"121":0.0950264036655426,"122":0.22015683352947235,"123":-0.23407627642154694,"124":-0.1301632821559906,"125":0.004827909637242556,"126":0.020032217726111412,"127":-0.0027585907373577356,"128":-0.07823523879051208,"129":-0.05067266896367073,"130":0.18638601899147034,"131":0.1136741042137146,"132":-0.1285356730222702,"133":-0.044692181050777435,"134":0.16137108206748962,"135":-0.0044189938344061375,"136":-0.1574098765850067,"137":-0.2336396723985672,"138":-0.19368800520896912,"139":0.0233883336186409,"140":0.06829021871089935,"141":0.03222253918647766,"142":0.17279133200645447,"143":0.10660496354103088,"144":-0.15301844477653503,"145":-0.0038449247367680073,"146":0.08592340350151062,"147":-0.004178142640739679,"148":-0.06017506122589111,"149":0.13023649156093597,"150":-0.16918255388736725,"151":0.3231346607208252}},"12":{"bias":0.004288509488105774,"weights":{"0":0.15978224575519562,"1":-0.3450033664703369,"2":-0.1743580400943756,"3":-0.0064689419232308865,"4":0.07638172060251236,"5":-0.0356716513633728,"6":-0.21178002655506134,"7":-0.011892406269907951,"8":-0.05847520753741264,"9":0.1647798866033554,"10":0.16035106778144836,"11":0.06574326008558273,"12":-0.17980919778347015,"13":0.0928022488951683,"14":0.10058285295963287,"15":-0.04729529842734337,"16":0.219502255320549,"17":0.03720250725746155,"18":0.0842851772904396,"19":0.1804192215204239,"20":-0.08904313296079636,"21":0.04920363798737526,"22":0.1061611995100975,"23":0.05376863852143288,"24":0.009834959171712399,"25":-0.15205441415309906,"26":0.011839327402412891,"27":-0.13879212737083435,"28":-0.11759477853775024,"29":-0.06112247705459595,"30":-0.04649914801120758,"31":0.12740705907344818,"32":0.11575371772050858,"33":-0.2599830627441406,"34":-0.16165657341480255,"35":-0.005304232239723206,"36":-0.0872264951467514,"37":-0.1256009042263031,"38":0.13651399314403534,"39":-0.2793288826942444,"40":0.007438361179083586,"41":-0.18834622204303741,"42":0.03882169723510742,"43":0.13502562046051025,"44":-0.07795167714357376,"45":0.342981219291687,"46":-0.09657437354326248,"47":-0.02193376049399376,"48":0.029787270352244377,"49":0.02248758263885975,"50":0.1925763189792633,"51":-0.017305884510278702,"52":0.07776058465242386,"53":0.021890459582209587,"54":-0.23401755094528198,"55":0.14240938425064087,"56":0.09674142301082611,"57":-0.07629156112670898,"58":-0.07355006039142609,"59":0.1931852251291275,"60":0.11886385083198547,"61":0.12460239231586456,"62":0.04809577018022537,"63":-0.2278481274843216,"64":-0.21078957617282867,"65":-0.19684091210365295,"66":-0.16516678035259247,"67":-0.003249372588470578,"68":0.031022001057863235,"69":-0.13344386219978333,"70":0.07204059511423111,"71":-0.1568751037120819,"72":-0.03995722532272339,"73":0.11841609328985214,"74":-0.050651341676712036,"75":-0.23075321316719055,"76":-0.204784095287323,"77":-0.17202849686145782,"78":-0.13609710335731506,"79":-0.24937643110752106,"80":-0.15559257566928864,"81":-0.14470791816711426,"82":0.21229971945285797,"83":0.2233314961194992,"84":0.17709842324256897,"85":-0.0973827987909317,"86":0.08609447628259659,"87":0.00025761366123333573,"88":-0.13034702837467194,"89":0.0318760871887207,"90":0.1915713995695114,"91":0.19384168088436127,"92":-0.04733632877469063,"93":-0.1014460101723671,"94":0.07010558247566223,"95":-0.27062559127807617,"96":0.07153528928756714,"97":-0.13589709997177124,"98":0.03800121322274208,"99":0.1196167916059494,"100":-0.09523580968379974,"101":0.012815729714930058,"102":-0.11783314496278763,"103":0.15763071179389954,"104":-0.09169991314411163,"105":-0.06602653115987778,"106":-0.1556800752878189,"107":-0.0069640702567994595,"108":-0.10546159744262695,"109":-0.15378771722316742,"110":-0.11065249145030975,"111":-0.03303780034184456,"112":-0.09911508858203888,"113":-0.19131605327129364,"114":-0.0801033303141594,"115":-0.04384371638298035,"116":0.0856538936495781,"117":-0.026876509189605713,"118":0.05615146830677986,"119":-0.08740195631980896,"120":0.012920577079057693,"121":-0.30176833271980286,"122":-0.06965221464633942,"123":-0.07308462262153625,"124":0.13952025771141052,"125":0.008025367744266987,"126":-0.0464976467192173,"127":0.07127455621957779,"128":-0.027356775477528572,"129":-0.10965143144130707,"130":-0.19779424369335175,"131":-0.21992792189121246,"132":0.093643918633461,"133":0.00695660850033164,"134":-0.08296927809715271,"135":0.16242225468158722,"136":0.17702239751815796,"137":-0.12962645292282104,"138":-0.0025387797504663467,"139":0.15490348637104034,"140":-0.005204141605645418,"141":0.13225619494915009,"142":-0.20931245386600494,"143":0.06395244598388672,"144":-0.07819725573062897,"145":-0.11697253584861755,"146":-0.153726264834404,"147":-0.01963101513683796,"148":-0.00679477583616972,"149":0.19626864790916443,"150":-0.11294575035572052,"151":-0.2935781478881836}},"13":{"bias":-0.03463715687394142,"weights":{"0":0.019947661086916924,"1":-0.215540811419487,"2":-0.09851112216711044,"3":0.22161851823329926,"4":0.05114772543311119,"5":-0.02289172075688839,"6":-0.09919480979442596,"7":-0.2081349939107895,"8":0.1302073895931244,"9":-0.19528870284557343,"10":-0.07868686318397522,"11":-0.14026585221290588,"12":-0.13284754753112793,"13":0.04510008171200752,"14":-0.07720083743333817,"15":-0.03496849909424782,"16":0.10776705294847488,"17":0.1854712814092636,"18":0.06826885044574738,"19":-0.008383688516914845,"20":-0.02265586517751217,"21":-0.11321760714054108,"22":-0.10338758677244186,"23":0.04532758891582489,"24":-0.0810374915599823,"25":-0.1706104576587677,"26":-0.08335844427347183,"27":-0.17865696549415588,"28":0.11329852789640427,"29":0.0891668051481247,"30":0.12735596299171448,"31":-0.17608100175857544,"32":-0.08031505346298218,"33":-0.05508376657962799,"34":-0.1575377881526947,"35":-0.200661763548851,"36":-0.05716380849480629,"37":-0.20098541676998138,"38":-0.17299428582191467,"39":-0.05352412909269333,"40":-0.07478681951761246,"41":0.08050597459077835,"42":-0.13764654099941254,"43":0.06748917698860168,"44":0.07340435683727264,"45":0.16464249789714813,"46":-0.1898263692855835,"47":0.08307512104511261,"48":-0.18194077908992767,"49":-0.2275339514017105,"50":-0.1586644947528839,"51":0.023957382887601852,"52":-0.18740184605121613,"53":0.14427244663238525,"54":0.0017119203694164753,"55":0.09479843825101852,"56":0.11973147094249725,"57":-0.1461068093776703,"58":0.2087927758693695,"59":-0.01378196757286787,"60":-0.16642440855503082,"61":0.10231330245733261,"62":0.04538656771183014,"63":0.029492486268281937,"64":0.12179671972990036,"65":-0.13911643624305725,"66":0.005208649672567844,"67":-0.12644602358341217,"68":-0.04017607867717743,"69":0.12747813761234283,"70":-0.0432032085955143,"71":-0.08333367854356766,"72":0.2558716833591461,"73":-0.21243621408939362,"74":0.1291920244693756,"75":-0.029365818947553635,"76":0.06621884554624557,"77":-0.06711072474718094,"78":0.025559868663549423,"79":-0.06990963965654373,"80":-0.007095805369317532,"81":-0.058834582567214966,"82":0.08005506545305252,"83":0.12979654967784882,"84":0.10949254781007767,"85":0.16121314465999603,"86":0.23669762909412384,"87":-0.09111448377370834,"88":0.004057789221405983,"89":-0.032922014594078064,"90":0.012068023905158043,"91":0.2096577137708664,"92":0.11511127650737762,"93":0.14160461723804474,"94":0.07223989814519882,"95":0.10669052600860596,"96":0.0991220697760582,"97":0.009821174666285515,"98":0.061699748039245605,"99":0.09403024613857269,"100":0.15860897302627563,"101":0.02567136660218239,"102":0.10751409828662872,"103":-0.1805984079837799,"104":-0.08556553721427917,"105":0.09869241714477539,"106":0.10054218769073486,"107":-0.024108901619911194,"108":-0.07411043345928192,"109":-0.012228081934154034,"110":-0.08152395486831665,"111":-0.2115263193845749,"112":0.10647860914468765,"113":-0.1219056099653244,"114":-0.20318186283111572,"115":-0.17136597633361816,"116":0.16457846760749817,"117":-0.04823075607419014,"118":-0.012125150300562382,"119":0.12791681289672852,"120":0.11006670445203781,"121":0.07377290725708008,"122":-0.03528154268860817,"123":0.24546200037002563,"124":-0.029957037419080734,"125":0.09781158715486526,"126":0.07623891532421112,"127":-0.1310262531042099,"128":0.10616067051887512,"129":-0.2107740193605423,"130":-0.23364700376987457,"131":0.037294212728738785,"132":-0.17558109760284424,"133":0.008836227469146252,"134":-0.21657153964042664,"135":0.08383475989103317,"136":0.08227856457233429,"137":0.22069254517555237,"138":0.0404215008020401,"139":0.1593989133834839,"140":0.1285746544599533,"141":0.029018521308898926,"142":-0.14890754222869873,"143":-0.05074035003781319,"144":0.15588153898715973,"145":-0.00408812053501606,"146":0.12978486716747284,"147":0.1542818695306778,"148":0.14704583585262299,"149":0.07764887809753418,"150":0.06231989338994026,"151":-0.1395467221736908}},"14":{"bias":-0.02168855257332325,"weights":{"0":-0.09256688505411148,"1":0.056552063673734665,"2":-0.06105897203087807,"3":-0.013989445753395557,"4":-0.014808368869125843,"5":-0.010170490480959415,"6":0.011151837185025215,"7":-0.09747455269098282,"8":0.04062433913350105,"9":-0.06451031565666199,"10":0.18196654319763184,"11":-0.16419197618961334,"12":-0.09386060386896133,"13":-0.2031557261943817,"14":-0.08273062855005264,"15":-0.11214221268892288,"16":0.07297679036855698,"17":-0.037360552698373795,"18":-0.113812156021595,"19":-0.1872834712266922,"20":-0.21459361910820007,"21":-0.018105899915099144,"22":0.10421594232320786,"23":-0.03290489688515663,"24":-0.05381014943122864,"25":-0.07029879838228226,"26":-0.014492187649011612,"27":0.04796120151877403,"28":0.15190210938453674,"29":0.10485626012086868,"30":-0.08858899027109146,"31":0.0030093840323388577,"32":0.2100999653339386,"33":0.1701415628194809,"34":-0.014305119402706623,"35":-0.06378287822008133,"36":0.19942805171012878,"37":-0.16177602112293243,"38":-0.042054492980241776,"39":0.13545633852481842,"40":0.02685443125665188,"41":-0.013552392832934856,"42":0.14685125648975372,"43":0.07104146480560303,"44":-0.0979159027338028,"45":-0.17951056361198425,"46":-0.053161147981882095,"47":-0.07891812175512314,"48":0.12323236465454102,"49":0.1807054877281189,"50":0.13031473755836487,"51":-0.06488177180290222,"52":-0.1117798238992691,"53":-0.0015895758988335729,"54":0.01576831191778183,"55":-0.14659100770950317,"56":0.16415323317050934,"57":-0.1790841817855835,"58":-0.1658322513103485,"59":-0.05330422520637512,"60":0.11962097138166428,"61":0.14495991170406342,"62":0.053575195372104645,"63":-0.12564389407634735,"64":0.09427918493747711,"65":0.17776347696781158,"66":0.11476173996925354,"67":-0.12007337063550949,"68":0.16619500517845154,"69":-0.013125005178153515,"70":0.20180393755435944,"71":0.13973037898540497,"72":-0.21380425989627838,"73":0.00610008742660284,"74":-0.08345796167850494,"75":-0.15726500749588013,"76":0.2058064043521881,"77":-0.07993543893098831,"78":0.0671481192111969,"79":0.011896003969013691,"80":-0.018801908940076828,"81":-0.2102937251329422,"82":-0.24276740849018097,"83":-0.14773550629615784,"84":0.14792558550834656,"85":0.07416417449712753,"86":-0.16305086016654968,"87":0.07434932142496109,"88":0.10930752754211426,"89":0.06851675361394882,"90":0.1811591535806656,"91":0.09950187057256699,"92":-0.11926393210887909,"93":0.09135905653238297,"94":0.14307956397533417,"95":-0.07631118595600128,"96":0.163665309548378,"97":0.1234971135854721,"98":0.187265545129776,"99":-0.16421298682689667,"100":-0.1101827397942543,"101":-0.1289054900407791,"102":0.183325856924057,"103":0.1872820258140564,"104":-0.1471843421459198,"105":-0.1566474586725235,"106":0.1271950602531433,"107":0.1850462406873703,"108":0.1304071545600891,"109":-0.16970601677894592,"110":-0.008039985783398151,"111":0.07855018228292465,"112":-0.05555376410484314,"113":-0.09435832500457764,"114":-0.17562176287174225,"115":0.18895383179187775,"116":-0.0247504860162735,"117":-0.12202638387680054,"118":-0.20356331765651703,"119":-0.15995411574840546,"120":0.1262052059173584,"121":0.10095715522766113,"122":-0.05261732265353203,"123":-0.07150229066610336,"124":-0.021521052345633507,"125":0.13793164491653442,"126":0.08436409384012222,"127":0.1270712912082672,"128":-0.0320451483130455,"129":-0.17531996965408325,"130":0.07412092387676239,"131":-0.1656642109155655,"132":0.14093954861164093,"133":-0.1302645355463028,"134":-0.15674468874931335,"135":0.17207661271095276,"136":-0.007211094722151756,"137":0.18485300242900848,"138":0.14616473019123077,"139":0.03739287704229355,"140":-0.13716980814933777,"141":-0.05842893570661545,"142":0.011555332690477371,"143":-0.0602261908352375,"144":0.11970029026269913,"145":-0.10759039223194122,"146":-0.07392864674329758,"147":-0.035077303647994995,"148":0.008536889217793941,"149":-0.017882030457258224,"150":-0.04578237235546112,"151":0.21518196165561676}},"15":{"bias":-0.20977738499641418,"weights":{"0":0.06004631519317627,"1":0.11228719353675842,"2":0.15274463593959808,"3":0.19970551133155823,"4":0.06411943584680557,"5":0.11976012587547302,"6":0.126206636428833,"7":-0.06360116600990295,"8":0.10078920423984528,"9":0.07084380835294724,"10":-0.09235618263483047,"11":-0.11334552615880966,"12":-0.11335089802742004,"13":0.20247884094715118,"14":0.03889036923646927,"15":0.08705104142427444,"16":-0.11977655440568924,"17":0.1843084990978241,"18":-0.07170047610998154,"19":0.0810810774564743,"20":0.1263883411884308,"21":-0.030479466542601585,"22":-0.0493452362716198,"23":-0.1384282410144806,"24":0.15805880725383759,"25":0.17556488513946533,"26":-0.027319148182868958,"27":0.15699242055416107,"28":-0.0021731264423578978,"29":0.16610583662986755,"30":-0.123496413230896,"31":-0.11153925210237503,"32":-0.014144117012619972,"33":-0.20214377343654633,"34":0.02694918029010296,"35":-0.14644359052181244,"36":-0.05605502426624298,"37":-0.14668862521648407,"38":-0.10107842087745667,"39":-0.09998510777950287,"40":0.09261465072631836,"41":0.1166953593492508,"42":-0.10782059282064438,"43":0.02976551465690136,"44":-0.026685385033488274,"45":0.08649519830942154,"46":-0.10282433778047562,"47":0.10058452934026718,"48":-0.12441492080688477,"49":-0.09446915239095688,"50":0.027911128476262093,"51":0.11019138991832733,"52":-0.16261282563209534,"53":0.15206941962242126,"54":0.0884094387292862,"55":0.09548959136009216,"56":-0.12026826292276382,"57":-0.10773217678070068,"58":-0.06339693069458008,"59":0.06678915023803711,"60":-0.09144897013902664,"61":0.14394262433052063,"62":0.08779942244291306,"63":0.00658501498401165,"64":-0.08108648657798767,"65":-0.1914498656988144,"66":-0.14214453101158142,"67":-0.013914225623011589,"68":0.034001898020505905,"69":-0.140288844704628,"70":-0.2042006403207779,"71":-0.016672734171152115,"72":0.18253158032894135,"73":0.07305112481117249,"74":0.05769401788711548,"75":0.14723515510559082,"76":0.04014752805233002,"77":-0.15726058185100555,"78":0.027419457212090492,"79":-0.012123906053602695,"80":0.18031702935695648,"81":0.032553642988204956,"82":0.15914084017276764,"83":-0.12369702011346817,"84":-0.05066210404038429,"85":0.16343769431114197,"86":0.0822756439447403,"87":-0.026105504482984543,"88":0.18169263005256653,"89":-0.10400853306055069,"90":-0.08901914209127426,"91":-0.08419236540794373,"92":0.1966279000043869,"93":-0.11293197423219681,"94":-0.1416478157043457,"95":-0.2125757932662964,"96":0.1159684881567955,"97":-0.028231702744960785,"98":-0.08831485360860825,"99":0.08013087511062622,"100":-0.15800747275352478,"101":-0.18889938294887543,"102":-0.17964938282966614,"103":0.022282330319285393,"104":0.07324164360761642,"105":-0.0906299501657486,"106":-0.1638200730085373,"107":0.08880006521940231,"108":0.16027496755123138,"109":-0.13245341181755066,"110":0.11637485772371292,"111":-0.08032111823558807,"112":0.08481203019618988,"113":-0.17562183737754822,"114":-0.036776091903448105,"115":0.026249589398503304,"116":-0.1377798318862915,"117":-0.05869514122605324,"118":-0.18067404627799988,"119":-0.12721313536167145,"120":0.05460995435714722,"121":-0.05810505896806717,"122":0.13893753290176392,"123":-0.13666534423828125,"124":0.030806438997387886,"125":0.09855607151985168,"126":-0.010985453613102436,"127":-0.02890719287097454,"128":0.027923190966248512,"129":0.1118578389286995,"130":0.14692312479019165,"131":-0.1536371260881424,"132":0.00251131528057158,"133":-0.18516381084918976,"134":0.18321053683757782,"135":0.18025650084018707,"136":0.11276450753211975,"137":0.0759337916970253,"138":-0.15762950479984283,"139":0.17073163390159607,"140":0.043716832995414734,"141":0.04757062345743179,"142":0.17188166081905365,"143":0.015274935401976109,"144":0.09061027318239212,"145":0.06598882377147675,"146":-0.1836981475353241,"147":0.1379670947790146,"148":-0.12072046846151352,"149":-0.017616597935557365,"150":-0.18452651798725128,"151":-0.1347062587738037}},"16":{"bias":-0.10734283924102783,"weights":{"0":0.1546013057231903,"1":0.12935467064380646,"2":0.17986410856246948,"3":-0.12525725364685059,"4":-0.21493369340896606,"5":0.08625493198633194,"6":-0.05899848788976669,"7":0.015634428709745407,"8":-0.0580698661506176,"9":-0.11908471584320068,"10":0.17482560873031616,"11":-0.029331624507904053,"12":-0.015582132153213024,"13":0.156998410820961,"14":0.04253259673714638,"15":0.06012206897139549,"16":0.06265075504779816,"17":-0.10345793515443802,"18":-0.15539322793483734,"19":0.043874967843294144,"20":-0.17953896522521973,"21":-0.18569956719875336,"22":-0.14555904269218445,"23":-0.014461001381278038,"24":-0.0027706394903361797,"25":-0.1391914337873459,"26":0.16026966273784637,"27":-0.06281618773937225,"28":0.16476866602897644,"29":-0.014918087981641293,"30":-0.16835834085941315,"31":0.011939951218664646,"32":0.054416723549366,"33":0.20575909316539764,"34":-0.18564841151237488,"35":-0.08611448854207993,"36":0.18427394330501556,"37":0.20678959786891937,"38":0.19214408099651337,"39":-0.04044365510344505,"40":-0.18077939748764038,"41":-0.11686553061008453,"42":-0.07459648698568344,"43":-0.17167595028877258,"44":0.0849522203207016,"45":0.01840464025735855,"46":0.025750569999217987,"47":-0.04724843427538872,"48":-0.0048323823139071465,"49":0.09097202867269516,"50":0.035331375896930695,"51":-0.16662921011447906,"52":0.09996791929006577,"53":0.014647931791841984,"54":0.15941794216632843,"55":0.16938796639442444,"56":0.05502769723534584,"57":-0.13240399956703186,"58":0.014534787274897099,"59":-0.19073618948459625,"60":0.13417628407478333,"61":-0.010680130682885647,"62":0.015140138566493988,"63":-0.15544815361499786,"64":-0.09246199578046799,"65":0.057080864906311035,"66":-0.061944324523210526,"67":0.18977375328540802,"68":-0.01736798882484436,"69":-0.0568547360599041,"70":0.07560712844133377,"71":-0.06086309999227524,"72":-0.1195305809378624,"73":0.030147328972816467,"74":0.0914173275232315,"75":-0.1205558180809021,"76":0.17248909175395966,"77":-0.08761173486709595,"78":0.03615386784076691,"79":-0.06903169304132462,"80":0.13626056909561157,"81":0.05868547037243843,"82":0.053310927003622055,"83":-0.014997781254351139,"84":0.03410627320408821,"85":-0.0854649767279625,"86":0.06617110222578049,"87":-0.16796691715717316,"88":0.038228411227464676,"89":0.025502825155854225,"90":-0.03498172014951706,"91":0.15434567630290985,"92":-0.18997636437416077,"93":0.13044358789920807,"94":-0.06905101984739304,"95":0.0762571170926094,"96":-0.07620743662118912,"97":-0.16174019873142242,"98":0.042293474078178406,"99":0.19757705926895142,"100":0.08022574335336685,"101":0.1572284698486328,"102":0.08396123349666595,"103":-0.00029633878148160875,"104":0.07672782987356186,"105":0.03043120913207531,"106":0.11611177027225494,"107":0.08870556950569153,"108":0.007169902324676514,"109":-0.15710856020450592,"110":0.14396542310714722,"111":-0.025458088144659996,"112":0.16940420866012573,"113":-0.0460895374417305,"114":-0.15999735891819,"115":0.10706377029418945,"116":0.04818243160843849,"117":0.042173851281404495,"118":-0.1775958091020584,"119":-0.14571604132652283,"120":-0.07799288630485535,"121":-0.05716366693377495,"122":0.13982173800468445,"123":-0.0190118495374918,"124":0.11928926408290863,"125":0.10221956670284271,"126":0.013606399297714233,"127":0.11841927468776703,"128":-0.042601317167282104,"129":-0.055339496582746506,"130":0.07337368279695511,"131":-0.05604814365506172,"132":0.0565217062830925,"133":-0.12013303488492966,"134":0.04885026440024376,"135":0.02439684048295021,"136":0.07773936539888382,"137":-0.11946853995323181,"138":0.08870840817689896,"139":0.08032970875501633,"140":-0.13242745399475098,"141":0.1393236517906189,"142":0.07167408615350723,"143":-0.09450078010559082,"144":0.00727215688675642,"145":0.08097461611032486,"146":0.09834689646959305,"147":-0.14092594385147095,"148":-0.10494790226221085,"149":-0.16592328250408173,"150":-0.02715345472097397,"151":-0.012941918335855007}},"17":{"bias":0.03910202905535698,"weights":{"0":-0.1082644835114479,"1":-0.17411768436431885,"2":0.13460928201675415,"3":-0.1252460777759552,"4":0.04854777455329895,"5":0.15901358425617218,"6":0.06823621690273285,"7":0.033994730561971664,"8":-0.011731952428817749,"9":-0.1854088008403778,"10":0.12756387889385223,"11":0.046912550926208496,"12":-0.17297294735908508,"13":0.12147548794746399,"14":0.1813882291316986,"15":-0.06898045539855957,"16":-0.08134908229112625,"17":0.06449534744024277,"18":0.017685988917946815,"19":0.1252356916666031,"20":-0.001252726069651544,"21":0.18172885477542877,"22":0.10826695710420609,"23":-0.06544411182403564,"24":-0.14574721455574036,"25":-0.05070904642343521,"26":-0.0650964304804802,"27":0.10158524662256241,"28":0.18388567864894867,"29":-0.1140131950378418,"30":0.18119148910045624,"31":-0.1209135353565216,"32":0.17008763551712036,"33":0.06993666291236877,"34":0.11542123556137085,"35":0.004919445142149925,"36":0.04023277759552002,"37":0.1480555236339569,"38":-0.07719174027442932,"39":-0.1904369592666626,"40":-0.13589152693748474,"41":0.04936246573925018,"42":-0.0058617605827748775,"43":-0.07395785301923752,"44":-0.027262698858976364,"45":0.05452372506260872,"46":0.029882581904530525,"47":0.07028009742498398,"48":-0.12480194121599197,"49":-0.018786320462822914,"50":0.1279023438692093,"51":0.05097893625497818,"52":0.005907872226089239,"53":-0.19371144473552704,"54":-0.06868911534547806,"55":-0.11407404392957687,"56":-0.1745237112045288,"57":0.16936804354190826,"58":0.05007980391383171,"59":-0.1788429170846939,"60":0.0015548933297395706,"61":0.12691253423690796,"62":-0.046278826892375946,"63":0.1340693086385727,"64":0.19148632884025574,"65":-0.08563914149999619,"66":-0.036576561629772186,"67":-0.1664493978023529,"68":-0.13370050489902496,"69":-0.04564433917403221,"70":-0.08804982155561447,"71":0.17538081109523773,"72":0.0444498136639595,"73":-0.18218481540679932,"74":-0.14013102650642395,"75":0.025112634524703026,"76":-0.0556870773434639,"77":0.03400648385286331,"78":0.16972973942756653,"79":-0.165324866771698,"80":0.003908815793693066,"81":-0.01366790384054184,"82":-0.1767333447933197,"83":-0.013742314651608467,"84":-0.10851825028657913,"85":0.005415954627096653,"86":0.11356304585933685,"87":0.16892556846141815,"88":0.1769416779279709,"89":0.06746912747621536,"90":-0.11458985507488251,"91":0.14020030200481415,"92":0.08244279772043228,"93":0.072007916867733,"94":0.0028530925046652555,"95":-0.19880802929401398,"96":-0.1542089879512787,"97":-0.18764397501945496,"98":0.08451122045516968,"99":-0.08224932104349136,"100":-0.06864403188228607,"101":0.08314243704080582,"102":-0.18983161449432373,"103":0.18262526392936707,"104":-0.032287854701280594,"105":0.07442783564329147,"106":-0.1676633507013321,"107":0.0018661224748939276,"108":-0.043455056846141815,"109":-0.03284703567624092,"110":0.09168688207864761,"111":0.1294783353805542,"112":-0.0811387225985527,"113":-0.20642806589603424,"114":0.08165176212787628,"115":0.08708112686872482,"116":-0.10859248787164688,"117":0.19056473672389984,"118":0.12008821219205856,"119":-0.014944164082407951,"120":0.1419735848903656,"121":-0.11446977406740189,"122":-0.17304196953773499,"123":0.0005005294224247336,"124":0.18261182308197021,"125":0.09401386976242065,"126":-0.04558618366718292,"127":0.1250503808259964,"128":-0.07764625549316406,"129":0.11526690423488617,"130":-0.15128068625926971,"131":-0.04426275193691254,"132":-0.06277454644441605,"133":0.14822082221508026,"134":0.12866780161857605,"135":-0.13234946131706238,"136":0.082993283867836,"137":0.13701888918876648,"138":0.09395801275968552,"139":0.17612197995185852,"140":0.08801445364952087,"141":0.07344950735569,"142":-0.1374652087688446,"143":-0.04931866005063057,"144":-0.030712559819221497,"145":0.07903643697500229,"146":-0.17294734716415405,"147":0.08106014132499695,"148":0.05225782096385956,"149":0.1979791522026062,"150":-0.1299576461315155,"151":0.12480601668357849}},"18":{"bias":0.033825162798166275,"weights":{"0":-0.05093450844287872,"1":0.11509936302900314,"2":0.06030047684907913,"3":-0.1870996505022049,"4":-0.14594432711601257,"5":-0.19676420092582703,"6":0.137528195977211,"7":0.08342066407203674,"8":-0.16980873048305511,"9":-0.1346672922372818,"10":0.1431378424167633,"11":-0.1462518870830536,"12":-0.1348179131746292,"13":-0.13156108558177948,"14":-0.14576725661754608,"15":0.15583334863185883,"16":0.12775565683841705,"17":-0.11560817062854767,"18":-0.07602672278881073,"19":0.013108410872519016,"20":0.03484687581658363,"21":0.08929387480020523,"22":0.07594538480043411,"23":-0.40760716795921326,"24":-0.23783676326274872,"25":0.03770631551742554,"26":-0.01970495842397213,"27":0.148981511592865,"28":0.19416196644306183,"29":0.170608788728714,"30":-0.03573334589600563,"31":0.08882728219032288,"32":-0.036553896963596344,"33":0.1707947552204132,"34":-0.058312781155109406,"35":0.017254900187253952,"36":0.042553842067718506,"37":0.22049443423748016,"38":0.20658381283283234,"39":0.0039517804980278015,"40":0.1118030920624733,"41":-0.07120894640684128,"42":-0.11417896300554276,"43":-0.15021203458309174,"44":-0.1844879388809204,"45":-0.3361012935638428,"46":0.140758216381073,"47":-0.13364079594612122,"48":-0.10960543900728226,"49":0.2554200291633606,"50":-0.017052287235856056,"51":0.19284628331661224,"52":-0.11056346446275711,"53":0.1777401566505432,"54":-0.049883753061294556,"55":0.03253881260752678,"56":0.13738398253917694,"57":-0.16309593617916107,"58":-0.08839696645736694,"59":0.13739146292209625,"60":0.1290445774793625,"61":-0.18841706216335297,"62":-0.00761095667257905,"63":-0.06481513381004333,"64":0.04434957727789879,"65":-0.09332147985696793,"66":-0.10489451885223389,"67":-0.019179662689566612,"68":0.2031325399875641,"69":0.03404025733470917,"70":0.048295147716999054,"71":0.20159631967544556,"72":-0.25669431686401367,"73":-0.046219658106565475,"74":0.07722850888967514,"75":0.020555652678012848,"76":0.16787748038768768,"77":0.022608062252402306,"78":0.03641853109002113,"79":0.14391741156578064,"80":0.024360572919249535,"81":-0.15101435780525208,"82":-0.3402458727359772,"83":-0.35176214575767517,"84":-0.22587040066719055,"85":0.0375414714217186,"86":-0.193891242146492,"87":-0.19076891243457794,"88":0.03249913826584816,"89":-0.01646256446838379,"90":0.13103492558002472,"91":-0.17781364917755127,"92":0.0630401149392128,"93":-0.10342030227184296,"94":0.14442706108093262,"95":0.01314778532832861,"96":0.036507029086351395,"97":0.11531475186347961,"98":0.022065455093979836,"99":0.16453401744365692,"100":0.1199263483285904,"101":-0.17592714726924896,"102":0.04797705262899399,"103":-0.07781656086444855,"104":0.2204561084508896,"105":0.010537168011069298,"106":0.1588442027568817,"107":0.054735682904720306,"108":-0.15069663524627686,"109":0.05112716555595398,"110":0.02997324801981449,"111":0.21871179342269897,"112":-0.06350245326757431,"113":0.2562364935874939,"114":0.28849104046821594,"115":0.16204442083835602,"116":-0.06711338460445404,"117":0.12633462250232697,"118":-0.024194400757551193,"119":-0.2021622359752655,"120":-0.05650368705391884,"121":-0.02591165527701378,"122":0.20873981714248657,"123":0.011918413452804089,"124":-0.26778650283813477,"125":-0.13626031577587128,"126":-0.0390857569873333,"127":0.13236528635025024,"128":-0.009930114261806011,"129":-0.07462852448225021,"130":0.17257225513458252,"131":0.10412096232175827,"132":0.020234452560544014,"133":0.10372703522443771,"134":0.15875555574893951,"135":0.12339072674512863,"136":0.05078833922743797,"137":-0.07756996899843216,"138":-0.17078858613967896,"139":0.04741758480668068,"140":-0.19180260598659515,"141":-0.22675804793834686,"142":0.15250107645988464,"143":-0.049069005995988846,"144":-0.013226758688688278,"145":-0.16399526596069336,"146":-0.026011692360043526,"147":-0.12456784397363663,"148":-0.09654241055250168,"149":-0.1003008559346199,"150":-0.2509230375289917,"151":0.1799541860818863}},"19":{"bias":-0.21885304152965546,"weights":{"0":0.08240428566932678,"1":-0.015613803640007973,"2":0.1376735270023346,"3":-0.08283047378063202,"4":-0.1959446668624878,"5":0.10798130184412003,"6":-0.10156294703483582,"7":0.0960741862654686,"8":0.1637345254421234,"9":0.09584560245275497,"10":0.07467268407344818,"11":-0.09419292956590652,"12":0.15312789380550385,"13":0.06615812331438065,"14":-0.041560184210538864,"15":-0.06703063100576401,"16":0.16374777257442474,"17":-0.0798792764544487,"18":-0.0012221354991197586,"19":0.06937853991985321,"20":-0.2123066484928131,"21":-0.001666211523115635,"22":-0.16696575284004211,"23":-0.32425960898399353,"24":0.07472028583288193,"25":0.11582762748003006,"26":0.12161915004253387,"27":0.2156824916601181,"28":0.20801739394664764,"29":-0.10583171248435974,"30":0.1797848492860794,"31":0.06913359463214874,"32":-0.0581011101603508,"33":0.1489487737417221,"34":0.07179198414087296,"35":0.11925478279590607,"36":0.11823788285255432,"37":0.12575198709964752,"38":-0.0015606866218149662,"39":0.1332836002111435,"40":0.12205389142036438,"41":0.21578601002693176,"42":-0.07344229519367218,"43":-0.16056711971759796,"44":0.11726491898298264,"45":-0.03671381622552872,"46":0.1883518099784851,"47":-0.041390664875507355,"48":0.013518442399799824,"49":0.25178876519203186,"50":0.08307897299528122,"51":0.08606702834367752,"52":-0.049116186797618866,"53":0.12041449546813965,"54":-0.09995578974485397,"55":-0.1598774939775467,"56":-0.08867432177066803,"57":-0.22795864939689636,"58":-0.17116552591323853,"59":0.15703292191028595,"60":0.1684921681880951,"61":0.08231218159198761,"62":0.07308056950569153,"63":-0.05434300750494003,"64":0.17325592041015625,"65":-0.12205932289361954,"66":0.1773744821548462,"67":-0.09911588579416275,"68":-0.03964817896485329,"69":-0.10526816546916962,"70":0.11011503636837006,"71":0.03125258907675743,"72":-0.16996918618679047,"73":0.1834096759557724,"74":-0.13250799477100372,"75":-0.04731578752398491,"76":-0.029842659831047058,"77":0.17298854887485504,"78":0.10842801630496979,"79":-0.11582653224468231,"80":0.12371482700109482,"81":-0.08052616566419601,"82":-0.06326531618833542,"83":-0.1952018141746521,"84":-0.05922533944249153,"85":-0.0346735343337059,"86":-0.03060106374323368,"87":0.04500430077314377,"88":-0.12090584635734558,"89":0.07393217086791992,"90":-0.1789608597755432,"91":0.1588132679462433,"92":0.1746368110179901,"93":-0.12304656207561493,"94":0.2230512797832489,"95":-0.1333790123462677,"96":0.12503230571746826,"97":-0.017435437068343163,"98":-0.13652727007865906,"99":0.060113124549388885,"100":-0.0014343967195600271,"101":-0.09487840533256531,"102":-0.10599033534526825,"103":0.18291513621807098,"104":0.12170916050672531,"105":-0.03908845782279968,"106":0.09562399983406067,"107":0.07141269743442535,"108":-0.1462770253419876,"109":-0.13060395419597626,"110":0.07064789533615112,"111":0.08050701767206192,"112":-0.07212987542152405,"113":0.00303891533985734,"114":-0.11710283160209656,"115":0.0032756649889051914,"116":0.010786494240164757,"117":-0.16507773101329803,"118":0.14027373492717743,"119":-0.20491939783096313,"120":0.10901252180337906,"121":0.21594758331775665,"122":0.06630060821771622,"123":-0.10214120149612427,"124":-0.253641813993454,"125":0.10109533369541168,"126":0.02246915176510811,"127":0.0004029182600788772,"128":0.19413898885250092,"129":-0.04298993945121765,"130":0.1210695281624794,"131":0.09812800586223602,"132":-0.09164316207170486,"133":-0.08713554590940475,"134":0.19029711186885834,"135":-0.1401018351316452,"136":-0.2200651317834854,"137":-0.05650598928332329,"138":-0.11785940825939178,"139":-0.08602678775787354,"140":-0.004621768835932016,"141":-0.022497687488794327,"142":0.12975430488586426,"143":0.024534575641155243,"144":-0.028083324432373047,"145":-0.15125656127929688,"146":0.20185796916484833,"147":-0.12332259863615036,"148":0.0554058775305748,"149":0.03949832171201706,"150":0.06640853732824326,"151":0.2725665271282196}},"20":{"bias":-0.03062247671186924,"weights":{"0":0.020190322771668434,"1":0.11082490533590317,"2":0.004407625645399094,"3":-0.08058473467826843,"4":-0.1192614957690239,"5":-0.07722023874521255,"6":-0.11210579425096512,"7":0.08353283256292343,"8":0.0958157330751419,"9":0.029103999957442284,"10":-0.03941592201590538,"11":0.08603726327419281,"12":-0.07128302752971649,"13":0.10446292906999588,"14":-0.10290341824293137,"15":0.06050489470362663,"16":-0.023082945495843887,"17":-0.06600943207740784,"18":0.08740326017141342,"19":0.07717639952898026,"20":-0.08593402802944183,"21":0.08117794990539551,"22":0.17828865349292755,"23":-0.13749660551548004,"24":-0.13429364562034607,"25":0.024406006559729576,"26":-0.07117225229740143,"27":-0.06601482629776001,"28":-0.1318175345659256,"29":0.045048099011182785,"30":0.13689690828323364,"31":0.05281393229961395,"32":-0.1391153186559677,"33":0.1826181411743164,"34":0.16851788759231567,"35":-0.05844656005501747,"36":0.15746666491031647,"37":0.019497692584991455,"38":0.09227024763822556,"39":0.15995687246322632,"40":-0.09262444078922272,"41":0.054461728781461716,"42":-0.00011653498222585768,"43":0.16466806828975677,"44":-0.17368550598621368,"45":0.11395476758480072,"46":0.13558970391750336,"47":0.09149914234876633,"48":-0.0675349086523056,"49":0.05346214398741722,"50":-0.17739826440811157,"51":0.04088027402758598,"52":-0.18633897602558136,"53":0.170852929353714,"54":-0.10290234535932541,"55":-0.17830079793930054,"56":-0.05185214430093765,"57":-0.14847896993160248,"58":-0.008412066847085953,"59":0.04346323013305664,"60":-0.1695709526538849,"61":0.04799172654747963,"62":-0.18625213205814362,"63":-0.11743700504302979,"64":0.1509581208229065,"65":-0.17853917181491852,"66":-0.13714395463466644,"67":0.10863922536373138,"68":0.1424603909254074,"69":0.15062935650348663,"70":-0.08978048712015152,"71":0.18030668795108795,"72":-0.17642004787921906,"73":0.0028361864387989044,"74":-0.014078901149332523,"75":-0.017296625301241875,"76":0.07052679359912872,"77":0.16253940761089325,"78":0.11322854459285736,"79":0.009059219621121883,"80":-0.14847038686275482,"81":0.14821437001228333,"82":-0.1831294298171997,"83":-0.23036114871501923,"84":-0.08039755374193192,"85":0.14940324425697327,"86":0.11252790689468384,"87":-0.16277213394641876,"88":0.11946166306734085,"89":-0.2050483077764511,"90":-0.14393430948257446,"91":-0.11306100338697433,"92":0.11229856312274933,"93":0.012223239056766033,"94":0.04570190608501434,"95":0.04555118829011917,"96":0.07802941650152206,"97":-0.10691389441490173,"98":0.19398140907287598,"99":-0.043123796582221985,"100":-0.07475878298282623,"101":-0.032221291214227676,"102":0.08660926669836044,"103":-0.1612161248922348,"104":0.18870604038238525,"105":0.02477903664112091,"106":-0.04739145562052727,"107":0.19716058671474457,"108":0.06850046664476395,"109":0.03347627446055412,"110":-0.1883891224861145,"111":-0.13396844267845154,"112":0.018137531355023384,"113":0.06664154678583145,"114":0.15255574882030487,"115":0.20832878351211548,"116":-0.011525953188538551,"117":0.03711381554603577,"118":0.09637895971536636,"119":-0.1785511076450348,"120":0.016945505514740944,"121":-0.04731539264321327,"122":-0.08287354558706284,"123":-0.0744091272354126,"124":0.12537840008735657,"125":0.05762561410665512,"126":0.09688007086515427,"127":0.1399899125099182,"128":-0.09900529682636261,"129":-0.08384659886360168,"130":-0.028012629598379135,"131":0.18174363672733307,"132":0.13982276618480682,"133":0.00360222184099257,"134":0.03227929025888443,"135":0.05529312416911125,"136":-0.0049022589810192585,"137":0.09593716263771057,"138":0.0002538525150157511,"139":-0.10305958986282349,"140":-0.1640629917383194,"141":-0.0549183189868927,"142":0.04365139082074165,"143":0.1224261000752449,"144":-0.07389575242996216,"145":-0.18786215782165527,"146":0.14501969516277313,"147":0.13795922696590424,"148":-0.04076249152421951,"149":-0.013595242984592915,"150":-0.17954985797405243,"151":-0.06934726238250732}},"21":{"bias":0.08290302753448486,"weights":{"0":0.028285913169384003,"1":-0.12117030471563339,"2":-0.08945757895708084,"3":-0.08041177690029144,"4":-0.012448729947209358,"5":0.04958319664001465,"6":-0.09336721897125244,"7":-0.00854017399251461,"8":0.053015317767858505,"9":-0.12309259176254272,"10":0.10658172518014908,"11":-0.19074416160583496,"12":0.15724900364875793,"13":-0.16374443471431732,"14":0.0475052110850811,"15":-0.08804486691951752,"16":0.05950792506337166,"17":-0.2162691354751587,"18":-0.05758562311530113,"19":0.056416381150484085,"20":-0.06845937669277191,"21":0.06294918805360794,"22":-0.06634099781513214,"23":-0.2906258702278137,"24":-0.06864716857671738,"25":0.051298219710588455,"26":0.050425201654434204,"27":-0.06616731733083725,"28":0.11927332729101181,"29":0.11403123289346695,"30":0.18891185522079468,"31":0.16005530953407288,"32":-0.024741102010011673,"33":0.19646014273166656,"34":-0.17637108266353607,"35":-0.13665814697742462,"36":-0.05925851687788963,"37":-0.09539087861776352,"38":0.17786626517772675,"39":0.10163532942533493,"40":0.17496737837791443,"41":0.06366433948278427,"42":0.06168394163250923,"43":-0.07327380031347275,"44":0.15792615711688995,"45":-0.1811762899160385,"46":-0.12114758789539337,"47":0.14941903948783875,"48":0.010179740376770496,"49":-0.05690179020166397,"50":-0.1860295981168747,"51":0.19810371100902557,"52":0.1738138198852539,"53":-0.025004863739013672,"54":-0.00298901810310781,"55":0.0386095866560936,"56":0.05919598415493965,"57":0.013254931196570396,"58":-0.19837985932826996,"59":0.08947653323411942,"60":-0.14373144507408142,"61":-0.11735392361879349,"62":-0.13786716759204865,"63":0.1038418561220169,"64":0.1668141931295395,"65":0.05155255272984505,"66":0.05908423289656639,"67":-0.06327532231807709,"68":0.12202905118465424,"69":-0.16412146389484406,"70":0.158632293343544,"71":-0.03738172724843025,"72":-0.05504665523767471,"73":-0.012089290656149387,"74":0.07071492820978165,"75":0.05466499179601669,"76":-0.023759085685014725,"77":-0.06980126351118088,"78":-0.0300787091255188,"79":0.13487710058689117,"80":0.09950989484786987,"81":-0.0005374269094318151,"82":0.024677423760294914,"83":-0.12295860797166824,"84":-0.11950753629207611,"85":-0.032710760831832886,"86":0.08917242288589478,"87":-0.03927553817629814,"88":-0.14338214695453644,"89":-0.16071875393390656,"90":0.1725049614906311,"91":0.16744084656238556,"92":0.12388845533132553,"93":0.04503609612584114,"94":0.1523987203836441,"95":0.037654004991054535,"96":-0.053984928876161575,"97":-0.1879945546388626,"98":-0.14911095798015594,"99":0.11202239245176315,"100":0.024312356486916542,"101":-0.09098869562149048,"102":0.0588064044713974,"103":0.05861519277095795,"104":0.20110781490802765,"105":0.08431428670883179,"106":-0.09115726500749588,"107":0.20373894274234772,"108":-0.0900128111243248,"109":0.12742818892002106,"110":0.1672632247209549,"111":0.19433335959911346,"112":0.04227617010474205,"113":-0.031240956857800484,"114":-0.011459579691290855,"115":0.07414492219686508,"116":0.000985192134976387,"117":-0.16331815719604492,"118":0.08388040959835052,"119":0.06378689408302307,"120":0.03663889691233635,"121":-0.10127195715904236,"122":0.18994106352329254,"123":0.09548866003751755,"124":-0.20172835886478424,"125":-0.06591755896806717,"126":0.05334438383579254,"127":0.16716265678405762,"128":-0.11811068654060364,"129":-0.14703722298145294,"130":-0.07589580863714218,"131":-0.06254319101572037,"132":-0.055101461708545685,"133":-0.021291224285960197,"134":0.1350257843732834,"135":-0.02925591729581356,"136":0.04629594460129738,"137":-0.10296915471553802,"138":-0.19734562933444977,"139":-0.005889294669032097,"140":-0.007481038104742765,"141":-0.01746245287358761,"142":0.06657771021127701,"143":0.17973870038986206,"144":0.10483048856258392,"145":0.07754264026880264,"146":0.19142192602157593,"147":-0.13788847625255585,"148":-0.09646144509315491,"149":0.03936074674129486,"150":0.06024063751101494,"151":0.18402041494846344}},"22":{"bias":-0.14232900738716125,"weights":{"0":0.09505900740623474,"1":0.10442974418401718,"2":0.12746484577655792,"3":0.07878414541482925,"4":-0.10477261990308762,"5":-0.23208284378051758,"6":0.20536231994628906,"7":0.19421938061714172,"8":0.084668830037117,"9":0.11970243602991104,"10":0.09151013940572739,"11":0.0665915459394455,"12":0.05054088309407234,"13":0.05407099798321724,"14":0.11313913017511368,"15":0.006883581168949604,"16":-0.1839517205953598,"17":-0.06619616597890854,"18":-0.072861447930336,"19":-0.2015877068042755,"20":0.013868527486920357,"21":-0.13514560461044312,"22":-0.12418433278799057,"23":-0.3253798484802246,"24":-0.13729500770568848,"25":-0.007168797310441732,"26":-0.08271550387144089,"27":0.09554525464773178,"28":0.1982521414756775,"29":0.2455834448337555,"30":-0.07645262777805328,"31":0.14349590241909027,"32":-0.0989670529961586,"33":0.24702829122543335,"34":-0.09796590358018875,"35":0.04337448626756668,"36":0.03178970143198967,"37":0.0940769836306572,"38":-0.05499478057026863,"39":0.06475561857223511,"40":-0.007620506454259157,"41":0.22162121534347534,"42":-0.21525996923446655,"43":-0.05754001438617706,"44":-0.16589856147766113,"45":-0.14327837526798248,"46":-0.07960432022809982,"47":0.14187690615653992,"48":0.04671389237046242,"49":0.22821713984012604,"50":-0.1973104327917099,"51":0.14052477478981018,"52":0.24348114430904388,"53":0.21646392345428467,"54":0.14944298565387726,"55":-0.007806571200489998,"56":0.018857233226299286,"57":-0.13882280886173248,"58":-0.07152991741895676,"59":-0.03981731832027435,"60":0.12328596413135529,"61":0.10749144107103348,"62":-0.20447272062301636,"63":0.08628794550895691,"64":-0.00814232137054205,"65":-0.04986977577209473,"66":-0.09808263182640076,"67":0.08231598883867264,"68":0.0024728227872401476,"69":-0.04664037004113197,"70":-0.05897499620914459,"71":0.016077153384685516,"72":-0.18752923607826233,"73":0.24589575827121735,"74":0.2189188152551651,"75":0.15997634828090668,"76":-0.032556843012571335,"77":0.04029614478349686,"78":0.12193794548511505,"79":0.29499563574790955,"80":-0.016344545409083366,"81":-0.29724374413490295,"82":-0.16862726211547852,"83":-0.3542672395706177,"84":0.0601140595972538,"85":-0.2672234773635864,"86":-0.10466243326663971,"87":-0.2025987207889557,"88":-0.04104894399642944,"89":0.07077277451753616,"90":-0.1436803787946701,"91":0.10833139717578888,"92":0.15051142871379852,"93":-0.23927819728851318,"94":0.14585764706134796,"95":0.2807267904281616,"96":0.05944104865193367,"97":-0.042819634079933167,"98":0.02801382727921009,"99":-0.05765831843018532,"100":0.01708216778934002,"101":0.08530213683843613,"102":-0.14684315025806427,"103":0.01648748852312565,"104":0.21373802423477173,"105":-0.11398006230592728,"106":-0.1387859284877777,"107":0.16384223103523254,"108":0.13597066700458527,"109":0.1870383322238922,"110":-0.021548783406615257,"111":0.19634650647640228,"112":0.15469937026500702,"113":0.29263752698898315,"114":0.07646770775318146,"115":0.23331332206726074,"116":0.0002715431328397244,"117":0.0175790898501873,"118":-0.13932831585407257,"119":-0.08189007639884949,"120":-0.18453237414360046,"121":0.1218760758638382,"122":0.144011989235878,"123":0.030560608953237534,"124":-0.05688989534974098,"125":-0.22875821590423584,"126":-0.04844503477215767,"127":0.16674776375293732,"128":0.18308565020561218,"129":-0.10839192569255829,"130":0.22591790556907654,"131":0.18704286217689514,"132":0.16784071922302246,"133":0.17769494652748108,"134":0.25435832142829895,"135":0.11306595057249069,"136":0.06855081021785736,"137":-0.03888697549700737,"138":-0.1864667534828186,"139":-0.10543739795684814,"140":0.07011900842189789,"141":-0.19682671129703522,"142":-0.024231288582086563,"143":0.12652499973773956,"144":0.000940758443903178,"145":-0.06548182666301727,"146":0.13099825382232666,"147":-0.21066325902938843,"148":-0.2551065683364868,"149":0.022169388830661774,"150":0.06878343969583511,"151":0.4298144280910492}},"23":{"bias":-0.08736502379179001,"weights":{"0":-0.12174657732248306,"1":-0.06122618913650513,"2":-0.156673401594162,"3":0.11724603176116943,"4":0.19252502918243408,"5":0.2073781043291092,"6":-0.0603448711335659,"7":-0.04421116039156914,"8":-0.199519082903862,"9":0.14994685351848602,"10":-0.19050303101539612,"11":0.008540370501577854,"12":0.016605595126748085,"13":0.11558888852596283,"14":0.05739789828658104,"15":-0.07195397466421127,"16":0.14596301317214966,"17":-0.021570557728409767,"18":0.018016306683421135,"19":0.037258561700582504,"20":0.20722317695617676,"21":-0.096688412129879,"22":0.20740585029125214,"23":-0.11890710890293121,"24":0.02284579537808895,"25":0.1605091691017151,"26":0.07039909064769745,"27":0.017199793830513954,"28":-0.16910144686698914,"29":0.14973321557044983,"30":-0.16196046769618988,"31":0.029157206416130066,"32":0.1287979930639267,"33":-0.17991428077220917,"34":0.13387537002563477,"35":-0.008131721056997776,"36":-0.14111286401748657,"37":-0.05960116535425186,"38":0.12422285228967667,"39":0.08077290654182434,"40":0.14394783973693848,"41":0.05755716934800148,"42":0.20469683408737183,"43":-0.12238625437021255,"44":0.09193979948759079,"45":0.1014772579073906,"46":-0.22501935064792633,"47":-0.07591859251260757,"48":-0.13925369083881378,"49":-0.09821183234453201,"50":-0.13614970445632935,"51":0.09034118056297302,"52":0.10235079377889633,"53":-0.1442323625087738,"54":-0.19507215917110443,"55":0.021714627742767334,"56":-0.1726677119731903,"57":0.12143056094646454,"58":0.13300321996212006,"59":-0.0655270367860794,"60":0.18560579419136047,"61":0.02078905701637268,"62":-0.027447720989584923,"63":-0.03276969864964485,"64":-0.14812195301055908,"65":-0.03048948012292385,"66":-0.10565640777349472,"67":-0.004741895478218794,"68":-0.20453661680221558,"69":0.020439576357603073,"70":0.016469813883304596,"71":0.10937152057886124,"72":-0.06498560309410095,"73":-0.07266638427972794,"74":-0.23269733786582947,"75":-0.18115098774433136,"76":0.011410815641283989,"77":-0.0729435533285141,"78":0.1432957649230957,"79":0.011398594826459885,"80":-0.13268278539180756,"81":-0.11349203437566757,"82":-0.07878641784191132,"83":-0.04151172190904617,"84":-0.02730494551360607,"85":-0.15224651992321014,"86":0.2181614190340042,"87":0.14283448457717896,"88":0.11828884482383728,"89":-0.06641081720590591,"90":0.05478866770863533,"91":0.17778170108795166,"92":0.11552164703607559,"93":0.17255382239818573,"94":0.045572489500045776,"95":-0.01011699065566063,"96":0.0993567556142807,"97":-0.16366377472877502,"98":-0.01562557928264141,"99":-0.11356737464666367,"100":0.14626401662826538,"101":-0.17339500784873962,"102":-0.13644632697105408,"103":0.11674066632986069,"104":0.04131276533007622,"105":-0.012847990728914738,"106":-0.16591915488243103,"107":-0.1638195514678955,"108":-0.17562830448150635,"109":-0.08425508439540863,"110":0.15880391001701355,"111":0.1383064091205597,"112":0.12025494873523712,"113":-0.021076848730444908,"114":-0.10934992134571075,"115":0.05186939239501953,"116":-0.0647364929318428,"117":0.18148918449878693,"118":0.06332097947597504,"119":0.14027352631092072,"120":0.055822744965553284,"121":0.08473624289035797,"122":-0.1451360583305359,"123":0.16371312737464905,"124":0.009576025418937206,"125":0.10011344403028488,"126":0.05294819921255112,"127":0.0498022697865963,"128":0.12710018455982208,"129":-0.17939479649066925,"130":-0.1451348215341568,"131":0.10599520057439804,"132":0.09147769212722778,"133":-0.09016324579715729,"134":0.00583118200302124,"135":-0.031875189393758774,"136":0.12493056803941727,"137":-0.006500250194221735,"138":0.11769755929708481,"139":0.1698824167251587,"140":0.17207199335098267,"141":-0.07313602417707443,"142":-0.03380898758769035,"143":0.03777649998664856,"144":0.07629725337028503,"145":0.1701190024614334,"146":-0.11836567521095276,"147":0.0559408962726593,"148":-0.08805038779973984,"149":0.10204382240772247,"150":-0.14600014686584473,"151":-0.06033352389931679}},"24":{"bias":-0.09234239161014557,"weights":{"0":-0.2049335390329361,"1":0.3477458357810974,"2":-0.0738900899887085,"3":-0.012263060547411442,"4":-0.17004740238189697,"5":0.013763396069407463,"6":0.042107954621315,"7":0.22717495262622833,"8":-0.08332973718643188,"9":0.22015106678009033,"10":0.2108604609966278,"11":-0.1880563497543335,"12":0.00499672582373023,"13":-0.21292465925216675,"14":0.0775897428393364,"15":0.08397937566041946,"16":-0.21432408690452576,"17":-0.12421365827322006,"18":0.08320272713899612,"19":0.014766779728233814,"20":-0.033364761620759964,"21":-0.04225402697920799,"22":-0.008397580124437809,"23":-0.3306497633457184,"24":-0.04072623699903488,"25":0.1119157001376152,"26":0.23896385729312897,"27":0.07792729884386063,"28":-0.06665565818548203,"29":0.06767282634973526,"30":-0.06449305266141891,"31":-0.10312395542860031,"32":-0.029556836932897568,"33":-0.0252793300896883,"34":-0.03447151929140091,"35":0.12297961115837097,"36":-0.08507736772298813,"37":0.03664322569966316,"38":-0.14224323630332947,"39":-0.036072272807359695,"40":0.07788100093603134,"41":-0.02241317741572857,"42":-0.15948447585105896,"43":-0.17983610928058624,"44":-0.10410680621862411,"45":-0.15791599452495575,"46":0.1153138279914856,"47":0.06349144876003265,"48":0.20169594883918762,"49":0.05099687725305557,"50":0.11026125401258469,"51":-0.06691203266382217,"52":-0.005061768461018801,"53":-0.07366789877414703,"54":0.22197182476520538,"55":0.023954493924975395,"56":-0.16228064894676208,"57":0.08147983998060226,"58":-0.02904198132455349,"59":-0.06416112929582596,"60":-0.1166115328669548,"61":-0.1769796460866928,"62":-0.21228612959384918,"63":0.14159812033176422,"64":0.12512905895709991,"65":0.19035010039806366,"66":0.19621606171131134,"67":-0.012120981700718403,"68":0.24811021983623505,"69":0.1044427752494812,"70":0.18811950087547302,"71":0.14741843938827515,"72":-0.12105958163738251,"73":0.16993437707424164,"74":0.26433688402175903,"75":-0.005100815091282129,"76":-0.06293503195047379,"77":0.10810849815607071,"78":0.05071093887090683,"79":0.10019975900650024,"80":0.0028532668948173523,"81":0.011384062469005585,"82":-0.34024205803871155,"83":-0.17670321464538574,"84":-0.24990618228912354,"85":-0.13430772721767426,"86":-0.10836691409349442,"87":-0.12119407206773758,"88":0.02011376991868019,"89":0.06310932338237762,"90":-0.13500110805034637,"91":0.0056716641411185265,"92":0.11171846091747284,"93":-0.2174125462770462,"94":-0.03760295733809471,"95":0.2748410403728485,"96":-0.11469269543886185,"97":-0.0727119967341423,"98":-0.11002295464277267,"99":-0.129516139626503,"100":0.14312386512756348,"101":0.15710243582725525,"102":-0.17107506096363068,"103":-0.02164117991924286,"104":-0.11078207939863205,"105":-0.12264604866504669,"106":0.13398343324661255,"107":-0.043227020651102066,"108":-0.1170579269528389,"109":0.1130266785621643,"110":0.10445228964090347,"111":0.17097879946231842,"112":-0.01897953823208809,"113":-0.08424597978591919,"114":-0.05226030573248863,"115":0.014553346671164036,"116":0.13638369739055634,"117":-0.2038629800081253,"118":0.1521303504705429,"119":-0.15070150792598724,"120":0.02960732951760292,"121":0.028642687946558,"122":0.23138901591300964,"123":-0.20709210634231567,"124":-0.021152403205633163,"125":-0.25252458453178406,"126":0.13518019020557404,"127":0.07710309326648712,"128":0.11893408745527267,"129":0.020700527355074883,"130":-0.04211452603340149,"131":0.07325177639722824,"132":0.05863175913691521,"133":0.19657960534095764,"134":-0.14641191065311432,"135":-0.24980279803276062,"136":-0.21469318866729736,"137":-0.23389758169651031,"138":0.03757229074835777,"139":0.05668066814541817,