{"classifier":{"brain":{"sizes":[274,137,2],"layers":[{"0":{},"1":{},"2":{},"3":{},"4":{},"5":{},"6":{},"7":{},"8":{},"9":{},"10":{},"11":{},"12":{},"13":{},"14":{},"15":{},"16":{},"17":{},"18":{},"19":{},"20":{},"21":{},"22":{},"23":{},"24":{},"25":{},"26":{},"27":{},"28":{},"29":{},"30":{},"31":{},"32":{},"33":{},"34":{},"35":{},"36":{},"37":{},"38":{},"39":{},"40":{},"41":{},"42":{},"43":{},"44":{},"45":{},"46":{},"47":{},"48":{},"49":{},"50":{},"51":{},"52":{},"53":{},"54":{},"55":{},"56":{},"57":{},"58":{},"59":{},"60":{},"61":{},"62":{},"63":{},"64":{},"65":{},"66":{},"67":{},"68":{},"69":{},"70":{},"71":{},"72":{},"73":{},"74":{},"75":{},"76":{},"77":{},"78":{},"79":{},"80":{},"81":{},"82":{},"83":{},"84":{},"85":{},"86":{},"87":{},"88":{},"89":{},"90":{},"91":{},"92":{},"93":{},"94":{},"95":{},"96":{},"97":{},"98":{},"99":{},"100":{},"101":{},"102":{},"103":{},"104":{},"105":{},"106":{},"107":{},"108":{},"109":{},"110":{},"111":{},"112":{},"113":{},"114":{},"115":{},"116":{},"117":{},"118":{},"119":{},"120":{},"121":{},"122":{},"123":{},"124":{},"125":{},"126":{},"127":{},"128":{},"129":{},"130":{},"131":{},"132":{},"133":{},"134":{},"135":{},"136":{},"137":{},"138":{},"139":{},"140":{},"141":{},"142":{},"143":{},"144":{},"145":{},"146":{},"147":{},"148":{},"149":{},"150":{},"151":{},"152":{},"153":{},"154":{},"155":{},"156":{},"157":{},"158":{},"159":{},"160":{},"161":{},"162":{},"163":{},"164":{},"165":{},"166":{},"167":{},"168":{},"169":{},"170":{},"171":{},"172":{},"173":{},"174":{},"175":{},"176":{},"177":{},"178":{},"179":{},"180":{},"181":{},"182":{},"183":{},"184":{},"185":{},"186":{},"187":{},"188":{},"189":{},"190":{},"191":{},"192":{},"193":{},"194":{},"195":{},"196":{},"197":{},"198":{},"199":{},"200":{},"201":{},"202":{},"203":{},"204":{},"205":{},"206":{},"207":{},"208":{},"209":{},"210":{},"211":{},"212":{},"213":{},"214":{},"215":{},"216":{},"217":{},"218":{},"219":{},"220":{},"221":{},"222":{},"223":{},"224":{},"225":{},"226":{},"227":{},"228":{},"229":{},"230":{},"231":{},"232":{},"233":{},"234":{},"235":{},"236":{},"237":{},"238":{},"239":{},"240":{},"241":{},"242":{},"243":{},"244":{},"245":{},"246":{},"247":{},"248":{},"249":{},"250":{},"251":{},"252":{},"253":{},"254":{},"255":{},"256":{},"257":{},"258":{},"259":{},"260":{},"261":{},"262":{},"263":{},"264":{},"265":{},"266":{},"267":{},"268":{},"269":{},"270":{},"271":{},"272":{},"273":{}},{"0":{"bias":-0.03176913782954216,"weights":{"0":-0.09603846073150635,"1":-0.1675376296043396,"2":0.07407934218645096,"3":0.07867369055747986,"4":-0.07654037326574326,"5":-0.08741331845521927,"6":0.1709538847208023,"7":0.16616328060626984,"8":0.15687724947929382,"9":-0.0716615542769432,"10":0.0763491541147232,"11":-0.18255864083766937,"12":0.08453845977783203,"13":-0.04908602312207222,"14":0.13765043020248413,"15":-0.10984549671411514,"16":0.1264975219964981,"17":0.18509690463542938,"18":-0.20961345732212067,"19":-0.061321649700403214,"20":0.021747123450040817,"21":-0.09255313128232956,"22":0.0468938872218132,"23":0.04073083773255348,"24":-0.06219273433089256,"25":-0.1112854927778244,"26":-0.15060488879680634,"27":0.09424543380737305,"28":-0.113726906478405,"29":0.12612977623939514,"30":0.16256585717201233,"31":0.14855451881885529,"32":0.14124740660190582,"33":-0.13807813823223114,"34":0.04663460701704025,"35":-0.039003122597932816,"36":-0.18042345345020294,"37":0.03640466183423996,"38":-0.1323726326227188,"39":-0.166168674826622,"40":0.06012662127614021,"41":0.09469231218099594,"42":0.05516766756772995,"43":-0.09933008998632431,"44":-0.10445536673069,"45":-0.08662687242031097,"46":0.11096905171871185,"47":-0.14770543575286865,"48":0.09091445803642273,"49":-0.11605221778154373,"50":-0.08428511023521423,"51":-0.15173175930976868,"52":0.05524182692170143,"53":-0.005919355899095535,"54":0.18664668500423431,"55":0.18231068551540375,"56":-0.1938675493001938,"57":0.10244714468717575,"58":-0.07034941762685776,"59":-0.023342007771134377,"60":-0.01479901373386383,"61":-0.06382524222135544,"62":0.10660618543624878,"63":0.012859917245805264,"64":-0.01125307660549879,"65":0.08946982771158218,"66":-0.1242004781961441,"67":-0.04433749243617058,"68":-0.15182608366012573,"69":0.12513859570026398,"70":-0.01312070433050394,"71":0.16079965233802795,"72":-0.16813048720359802,"73":-0.053590089082717896,"74":-0.04527607932686806,"75":0.17759598791599274,"76":-0.027600472792983055,"77":-0.04891705885529518,"78":0.09349498897790909,"79":-0.14301395416259766,"80":-0.07829909771680832,"81":-0.026318294927477837,"82":-0.04395464435219765,"83":0.11572732031345367,"84":-0.09390317648649216,"85":0.010266367346048355,"86":0.1258978247642517,"87":0.037113357335329056,"88":-0.07851569354534149,"89":0.09408069401979446,"90":-0.12454131990671158,"91":-0.18721254169940948,"92":0.17103354632854462,"93":0.03677307814359665,"94":-0.07739301025867462,"95":0.10819916427135468,"96":-0.018666457384824753,"97":-0.18945562839508057,"98":-0.18107245862483978,"99":-0.14100834727287292,"100":-0.03452825918793678,"101":-0.138550266623497,"102":0.0030306691769510508,"103":0.0104979258030653,"104":0.03371729701757431,"105":-0.10690317302942276,"106":0.013181233778595924,"107":-0.16565749049186707,"108":-0.16148850321769714,"109":0.01645258255302906,"110":-0.06058712676167488,"111":0.031066784635186195,"112":0.09918444603681564,"113":0.05083531141281128,"114":-0.16867326200008392,"115":0.033742353320121765,"116":-0.10063869506120682,"117":0.0023898703511804342,"118":0.1320461481809616,"119":-0.038996901363134384,"120":0.165213480591774,"121":-0.004464046098291874,"122":-0.17471042275428772,"123":0.07643895596265793,"124":-0.008393594063818455,"125":0.13714833557605743,"126":0.06947790086269379,"127":-0.16553913056850433,"128":-0.1042565181851387,"129":0.13669560849666595,"130":0.12490354478359222,"131":0.032671838998794556,"132":-0.16361990571022034,"133":0.019601913169026375,"134":0.06631046533584595,"135":0.1794700026512146,"136":0.026152292266488075,"137":0.062452223151922226,"138":0.04230395704507828,"139":0.07145688682794571,"140":0.041329797357320786,"141":0.18012432754039764,"142":0.06829285621643066,"143":-0.0026424650568515062,"144":0.023025566712021828,"145":0.12751518189907074,"146":0.08360134065151215,"147":0.03542792797088623,"148":0.1584869772195816,"149":0.12555240094661713,"150":0.14377854764461517,"151":-0.10987591743469238,"152":-0.0990106388926506,"153":0.02049810066819191,"154":-0.20246753096580505,"155":-0.05149909853935242,"156":-0.11261322349309921,"157":-0.10705167055130005,"158":0.08836419880390167,"159":-0.10104471445083618,"160":0.12249451875686646,"161":0.044675879180431366,"162":0.07912897318601608,"163":0.1465899646282196,"164":0.000313257536618039,"165":-0.11505216360092163,"166":0.14295770227909088,"167":0.16436628997325897,"168":0.08835655450820923,"169":-0.0839722529053688,"170":0.11957363039255142,"171":-0.10756850987672806,"172":0.1318107694387436,"173":0.03170274943113327,"174":0.13448546826839447,"175":-0.18614616990089417,"176":0.1772746443748474,"177":0.007709772791713476,"178":-0.17796513438224792,"179":0.050525739789009094,"180":0.0275761466473341,"181":-0.020939210429787636,"182":0.026015326380729675,"183":0.14892928302288055,"184":-0.07907288521528244,"185":-0.08823729306459427,"186":-0.08836594223976135,"187":-0.09507481753826141,"188":0.11424426734447479,"189":-0.1058732122182846,"190":-0.10092950612306595,"191":0.14259392023086548,"192":0.18762092292308807,"193":-0.0322926826775074,"194":-0.07484608143568039,"195":-0.022898368537425995,"196":0.05103284493088722,"197":0.09187982231378555,"198":0.19417212903499603,"199":-0.07822733372449875,"200":-0.15135103464126587,"201":-0.03757202997803688,"202":0.038447994738817215,"203":-0.16096585988998413,"204":0.028425872325897217,"205":-0.038992613554000854,"206":0.12360541522502899,"207":-0.15088656544685364,"208":-0.06191476806998253,"209":0.008143064565956593,"210":0.11004067212343216,"211":0.1419280618429184,"212":-0.022098613902926445,"213":0.01799497939646244,"214":-0.03279207646846771,"215":-0.08190305531024933,"216":0.11752641946077347,"217":0.19683904945850372,"218":0.18807940185070038,"219":0.13653559982776642,"220":-0.19384099543094635,"221":-0.14553360641002655,"222":0.15811777114868164,"223":-0.12500135600566864,"224":0.0822976604104042,"225":-0.1968119889497757,"226":-0.1529700607061386,"227":0.1148645356297493,"228":0.19207064807415009,"229":0.09776487201452255,"230":-0.15808597207069397,"231":0.1228623315691948,"232":0.049782972782850266,"233":0.02337622083723545,"234":-0.12841194868087769,"235":0.08301673829555511,"236":-0.18231171369552612,"237":0.08675388991832733,"238":0.07286050170660019,"239":0.07884719967842102,"240":-0.18033094704151154,"241":-0.14675173163414001,"242":0.029410844668745995,"243":-0.09878969192504883,"244":-0.11949609965085983,"245":0.025665435940027237,"246":-0.04713030532002449,"247":-0.1599125862121582,"248":0.047941360622644424,"249":-0.11944471299648285,"250":-0.027703702449798584,"251":-0.17709174752235413,"252":-0.09105145186185837,"253":0.07849378138780594,"254":-0.13715781271457672,"255":0.13754934072494507,"256":0.0257378201931715,"257":-0.0843401625752449,"258":0.16776226460933685,"259":0.011467637494206429,"260":0.12449466437101364,"261":-0.1477653831243515,"262":-0.02983630634844303,"263":-0.14269676804542542,"264":-0.009843582287430763,"265":0.11083348840475082,"266":-0.10479743778705597,"267":-0.05241619050502777,"268":0.15126380324363708,"269":0.006011685356497765,"270":-0.18238700926303864,"271":0.016255337744951248,"272":-0.08553265035152435,"273":0.19370338320732117}},"1":{"bias":0.07127788662910461,"weights":{"0":-0.018063273280858994,"1":0.1609383076429367,"2":-0.1411065310239792,"3":0.06168815866112709,"4":0.04517538845539093,"5":-0.1383046805858612,"6":0.10354170948266983,"7":0.1495833545923233,"8":-0.12734830379486084,"9":0.06658429652452469,"10":-0.03407978639006615,"11":-0.17453117668628693,"12":-0.16716162860393524,"13":-0.14569400250911713,"14":-0.010387740097939968,"15":-0.1945435255765915,"16":0.011738422326743603,"17":0.06877975910902023,"18":0.18386532366275787,"19":0.00017109376494772732,"20":0.11855447292327881,"21":0.0969279482960701,"22":0.12598012387752533,"23":-0.03111489675939083,"24":0.1366419643163681,"25":0.09702470898628235,"26":0.10117673873901367,"27":-0.11102928221225739,"28":-0.105580173432827,"29":-0.04599006101489067,"30":-0.16635672748088837,"31":-0.024395443499088287,"32":-0.14604541659355164,"33":0.16429845988750458,"34":0.19529853761196136,"35":-0.17380531132221222,"36":0.05434568226337433,"37":0.0932818278670311,"38":0.004893125966191292,"39":0.01087783370167017,"40":0.07762961089611053,"41":0.04481140524148941,"42":-0.07614842802286148,"43":0.1363363265991211,"44":-0.08810204267501831,"45":-0.1627839058637619,"46":0.03775974363088608,"47":-0.011038226075470448,"48":0.17114242911338806,"49":0.13397996127605438,"50":0.042339079082012177,"51":0.046558938920497894,"52":-0.1539112776517868,"53":-0.0001636227243579924,"54":0.17375393211841583,"55":0.1035287007689476,"56":-0.05744033679366112,"57":-0.005261740181595087,"58":-0.14773209393024445,"59":-0.20631518959999084,"60":0.15857426822185516,"61":-0.13910183310508728,"62":-0.06628166139125824,"63":-0.1663348227739334,"64":0.09014187753200531,"65":-0.021588047966361046,"66":0.09430328011512756,"67":0.07748136669397354,"68":0.1889379918575287,"69":0.06044863536953926,"70":-0.022757578641176224,"71":0.120108462870121,"72":0.14512421190738678,"73":-0.09790997952222824,"74":-0.06529971957206726,"75":-0.0830061063170433,"76":0.013071604073047638,"77":0.006064695306122303,"78":-0.0721166729927063,"79":0.06769366562366486,"80":0.04733380675315857,"81":-0.013505237177014351,"82":-0.1062462329864502,"83":0.08159443736076355,"84":0.06002281978726387,"85":0.13387325406074524,"86":-0.19443707168102264,"87":0.1207699179649353,"88":-0.18890288472175598,"89":-0.032610274851322174,"90":-0.1056920662522316,"91":0.031248219311237335,"92":-0.0063673206605017185,"93":0.12494373321533203,"94":-0.1383625566959381,"95":-0.14918503165245056,"96":-0.02564152702689171,"97":-0.02772490307688713,"98":-0.17694325745105743,"99":-0.18130062520503998,"100":0.046733394265174866,"101":0.014531203545629978,"102":0.031048059463500977,"103":0.11388197541236877,"104":0.10832878947257996,"105":-0.097803995013237,"106":0.18700702488422394,"107":0.17112773656845093,"108":0.00952069740742445,"109":-0.02664165385067463,"110":0.03194476291537285,"111":0.10072815418243408,"112":-0.0821247473359108,"113":-0.01785750687122345,"114":0.14050078392028809,"115":-0.036134250462055206,"116":-0.043785568326711655,"117":-0.041410576552152634,"118":-0.1656537503004074,"119":-0.11804864555597305,"120":-0.13041771948337555,"121":0.17360588908195496,"122":-0.015155360102653503,"123":0.10055192559957504,"124":-0.20118260383605957,"125":0.09988310188055038,"126":0.07736353576183319,"127":0.04164125770330429,"128":-0.18856929242610931,"129":0.08380041271448135,"130":0.03148842230439186,"131":-0.14356525242328644,"132":-0.09815124422311783,"133":-0.15489138662815094,"134":-0.018265796825289726,"135":-0.0409979373216629,"136":-0.20519496500492096,"137":-0.1772751808166504,"138":0.0442628376185894,"139":0.12872564792633057,"140":0.10957612842321396,"141":-0.16603592038154602,"142":0.14480960369110107,"143":-0.035673655569553375,"144":-0.1877679079771042,"145":0.051702406257390976,"146":-0.18643306195735931,"147":-0.15066108107566833,"148":-0.1745096892118454,"149":0.03645924851298332,"150":-0.13891522586345673,"151":0.146128848195076,"152":0.06550492346286774,"153":-0.12007182836532593,"154":-0.18306133151054382,"155":0.12827612459659576,"156":-0.0901901125907898,"157":0.0710660070180893,"158":-0.04323636740446091,"159":0.07391301542520523,"160":0.0973440483212471,"161":-0.05117931216955185,"162":-0.0022712615318596363,"163":0.06604721397161484,"164":0.007545154541730881,"165":-0.007905145175755024,"166":-0.07710834592580795,"167":0.035947080701589584,"168":0.18567214906215668,"169":0.10728193819522858,"170":-0.030036773532629013,"171":-0.13470794260501862,"172":-0.015388567931950092,"173":0.12014027684926987,"174":-0.031138531863689423,"175":-0.10025380551815033,"176":-0.07444515824317932,"177":0.09361562877893448,"178":-0.1527092605829239,"179":-0.1258927583694458,"180":-0.13702648878097534,"181":0.12160873413085938,"182":0.1560923457145691,"183":-0.155111625790596,"184":-0.18514367938041687,"185":0.13263589143753052,"186":0.09163513779640198,"187":-0.1668078899383545,"188":0.09432027488946915,"189":0.14185532927513123,"190":-0.08251597732305527,"191":-0.173349991440773,"192":0.04470819979906082,"193":0.02897222712635994,"194":-0.02008546143770218,"195":0.046353280544281006,"196":0.04146714508533478,"197":-0.14893661439418793,"198":-0.1335260272026062,"199":0.024119967594742775,"200":0.057736121118068695,"201":0.13266582787036896,"202":-0.07681641727685928,"203":-0.05275118723511696,"204":0.12073361128568649,"205":0.18090668320655823,"206":0.14401410520076752,"207":-0.20216678082942963,"208":0.08541549742221832,"209":0.04476124420762062,"210":0.11084825545549393,"211":-0.1456717848777771,"212":0.1388004571199417,"213":0.16357070207595825,"214":0.1855759620666504,"215":0.09961625933647156,"216":-0.09586098045110703,"217":0.17432831227779388,"218":0.0012371185002848506,"219":-0.16008567810058594,"220":-0.07149837166070938,"221":-0.1763439029455185,"222":-0.10638391971588135,"223":-0.12211338430643082,"224":0.07371990382671356,"225":-0.09323806315660477,"226":-0.053302425891160965,"227":0.03944626823067665,"228":0.1818123161792755,"229":-0.14579486846923828,"230":0.08099110424518585,"231":0.14518217742443085,"232":-0.10146278142929077,"233":0.18864800035953522,"234":0.13954074680805206,"235":-0.14457352459430695,"236":0.16106468439102173,"237":-0.1303601711988449,"238":-0.07054348289966583,"239":-0.1296801120042801,"240":-0.019471395760774612,"241":-0.0019344317261129618,"242":-0.106345996260643,"243":0.10973767191171646,"244":-0.18671222031116486,"245":-0.1005680114030838,"246":0.1583966314792633,"247":-0.011403705924749374,"248":0.05767758935689926,"249":-0.011074221692979336,"250":0.15333977341651917,"251":0.10229991376399994,"252":-0.023370377719402313,"253":0.07035200297832489,"254":-0.027019977569580078,"255":-0.03646991774439812,"256":0.05785217508673668,"257":0.17653070390224457,"258":0.05488945171236992,"259":0.09143336862325668,"260":-0.04430783912539482,"261":0.09320720285177231,"262":-0.11547175794839859,"263":0.17604266107082367,"264":0.03937418758869171,"265":-0.18511494994163513,"266":0.16327911615371704,"267":0.19077588617801666,"268":0.20103231072425842,"269":0.011750509031116962,"270":0.06765872985124588,"271":-0.07131753116846085,"272":0.15756462514400482,"273":-0.039852339774370193}},"2":{"bias":-0.051207996904850006,"weights":{"0":-0.2123100608587265,"1":0.042437102645635605,"2":-0.05219271779060364,"3":-0.17704372107982635,"4":0.03362177312374115,"5":-0.21595047414302826,"6":-0.12281540036201477,"7":-0.17364344000816345,"8":0.1851692497730255,"9":-0.10149935632944107,"10":-0.025813385844230652,"11":-0.2012745440006256,"12":-0.1774582862854004,"13":0.06814875453710556,"14":-0.17493584752082825,"15":0.007541480008512735,"16":-0.14890243113040924,"17":-0.08747084438800812,"18":0.10772379487752914,"19":0.20341038703918457,"20":-0.16252873837947845,"21":-0.06376112997531891,"22":0.20386305451393127,"23":0.2197011411190033,"24":-0.09267299622297287,"25":-0.002988760592415929,"26":-0.07337336987257004,"27":0.06388147175312042,"28":0.008047990500926971,"29":0.07554906606674194,"30":-0.11641965806484222,"31":-0.03370681032538414,"32":-0.029336845502257347,"33":0.02765546925365925,"34":0.1112719178199768,"35":-0.02388589456677437,"36":-0.004971248563379049,"37":0.0682399794459343,"38":0.04696795716881752,"39":-0.07462886720895767,"40":0.01885291561484337,"41":-0.03986057639122009,"42":0.010179664939641953,"43":0.15201270580291748,"44":-0.09241072088479996,"45":-0.0008238297305069864,"46":-0.07686596363782883,"47":0.08621593564748764,"48":-0.13135254383087158,"49":0.10498631000518799,"50":0.08067528903484344,"51":0.07300028204917908,"52":-0.07591201364994049,"53":0.054101843386888504,"54":-0.01990675739943981,"55":0.15113003551959991,"56":-0.14154717326164246,"57":0.06361635029315948,"58":-0.16689513623714447,"59":-0.044747237116098404,"60":0.15684086084365845,"61":0.12520579993724823,"62":-0.18826401233673096,"63":0.13537031412124634,"64":0.15644662082195282,"65":-0.11590933054685593,"66":0.06767977774143219,"67":0.036223869770765305,"68":0.044171784073114395,"69":-0.19367428123950958,"70":0.013080578297376633,"71":0.10730678588151932,"72":0.006728529930114746,"73":0.07492614537477493,"74":0.029382646083831787,"75":-0.09226416796445847,"76":-0.16054758429527283,"77":-0.1526741236448288,"78":-0.072019062936306,"79":0.07149446755647659,"80":0.15744562447071075,"81":-0.03896395489573479,"82":0.017067398875951767,"83":0.09207426756620407,"84":-0.02918955869972706,"85":0.00993764866143465,"86":0.2129931002855301,"87":0.22098368406295776,"88":0.036668624728918076,"89":0.0012457508128136396,"90":0.09537111222743988,"91":-0.10381250083446503,"92":-0.13305403292179108,"93":-0.23622488975524902,"94":-0.06740739196538925,"95":-0.25988951325416565,"96":0.09538611024618149,"97":0.0381217859685421,"98":-0.15733954310417175,"99":-0.07444562017917633,"100":0.1827407032251358,"101":0.17170406877994537,"102":-0.051808472722768784,"103":-0.13352090120315552,"104":0.03627695143222809,"105":0.1701255887746811,"106":-0.1502663791179657,"107":-0.10230112820863724,"108":-0.05551222711801529,"109":-0.15794630348682404,"110":-0.20548538863658905,"111":-0.18666881322860718,"112":-0.2050330489873886,"113":-0.07680455595254898,"114":0.1531718224287033,"115":-0.16552779078483582,"116":-0.1524362713098526,"117":0.16218005120754242,"118":0.046618618071079254,"119":-0.09760186076164246,"120":0.18831662833690643,"121":-0.02082526683807373,"122":-0.11362183094024658,"123":0.10216503590345383,"124":0.23031975328922272,"125":0.12170671671628952,"126":0.10419993102550507,"127":-0.002054879441857338,"128":-0.05521932989358902,"129":-0.0005010224995203316,"130":-0.08881283551454544,"131":0.05645408853888512,"132":0.1599586308002472,"133":-0.08795364201068878,"134":-0.15533775091171265,"135":-0.04070969298481941,"136":-0.005535729695111513,"137":-0.02970498614013195,"138":-0.08490407466888428,"139":0.07866840809583664,"140":0.025916006416082382,"141":0.18824855983257294,"142":-0.12799149751663208,"143":-0.2148045152425766,"144":-0.0822465717792511,"145":-0.16002795100212097,"146":0.05965627357363701,"147":0.004289742559194565,"148":-0.09542723745107651,"149":0.05921400710940361,"150":0.1419520527124405,"151":-0.08378004282712936,"152":0.16285139322280884,"153":-0.06490776687860489,"154":0.14094986021518707,"155":-0.058086901903152466,"156":0.09797458350658417,"157":-0.17678935825824738,"158":-0.20261278748512268,"159":0.18738844990730286,"160":-0.1363186091184616,"161":-0.0674186497926712,"162":-0.20261269807815552,"163":0.17019736766815186,"164":0.10373556613922119,"165":-0.1814822256565094,"166":-0.09627626836299896,"167":-0.10621017217636108,"168":-0.1386573165655136,"169":0.05488284304738045,"170":-0.03474932163953781,"171":0.06570548564195633,"172":0.10995509475469589,"173":-0.16929012537002563,"174":-0.08222582936286926,"175":0.1770569384098053,"176":0.09716621041297913,"177":-0.15098249912261963,"178":0.0018436684040352702,"179":-0.06022760272026062,"180":0.09152539819478989,"181":-0.0592639297246933,"182":0.19857214391231537,"183":0.09158966690301895,"184":0.08984078466892242,"185":-0.05002521350979805,"186":0.21247558295726776,"187":0.007283428683876991,"188":-0.14711561799049377,"189":0.07718855887651443,"190":0.13173902034759521,"191":-0.10830734670162201,"192":0.0011189151555299759,"193":0.18395370244979858,"194":0.07243562489748001,"195":0.03255552425980568,"196":-0.013563909567892551,"197":-0.11777527630329132,"198":-0.08903590589761734,"199":0.15817514061927795,"200":-0.08299575746059418,"201":0.20519807934761047,"202":-0.09725011140108109,"203":0.13157887756824493,"204":0.026383226737380028,"205":-0.03664546087384224,"206":0.026408813893795013,"207":0.19529081881046295,"208":-0.059937797486782074,"209":0.1643340140581131,"210":-0.22241313755512238,"211":0.05054141953587532,"212":0.13644370436668396,"213":0.11046736687421799,"214":-0.05562031269073486,"215":0.06627839058637619,"216":-0.07303275913000107,"217":-0.18122616410255432,"218":0.04239320755004883,"219":-0.1312389373779297,"220":-0.011122037656605244,"221":0.019404668360948563,"222":0.11018068343400955,"223":-0.13160528242588043,"224":-0.22192813456058502,"225":-0.07232288271188736,"226":-0.15089794993400574,"227":-0.01455328892916441,"228":-0.19681110978126526,"229":-0.02206655964255333,"230":-0.18713323771953583,"231":-0.0306159146130085,"232":-0.14267770946025848,"233":-0.08459708839654922,"234":-0.045789483934640884,"235":0.0634247362613678,"236":-0.17119501531124115,"237":0.017063874751329422,"238":0.18536724150180817,"239":0.07125092297792435,"240":0.03934808075428009,"241":-0.19736845791339874,"242":0.14260096848011017,"243":-0.20466311275959015,"244":0.17307284474372864,"245":0.03454648703336716,"246":-0.1392085701227188,"247":-0.060254327952861786,"248":-0.16213031113147736,"249":-0.1430726796388626,"250":0.12273379415273666,"251":0.04382626339793205,"252":-0.1260826587677002,"253":0.09087122976779938,"254":0.035396602004766464,"255":-0.1435478776693344,"256":0.12861497700214386,"257":-0.04501456022262573,"258":0.1393103450536728,"259":0.11076019704341888,"260":-0.09533197432756424,"261":0.13652175664901733,"262":0.13073277473449707,"263":-0.07783017307519913,"264":-0.06803451478481293,"265":-0.017220573499798775,"266":0.004567096941173077,"267":0.03372552990913391,"268":0.07513996213674545,"269":-0.15141884982585907,"270":-0.09423219412565231,"271":-0.19240425527095795,"272":-0.17783822119235992,"273":-0.12291598320007324}},"3":{"bias":-0.05989706516265869,"weights":{"0":0.2531692683696747,"1":-0.08016762137413025,"2":-0.10212232917547226,"3":-0.26635468006134033,"4":-0.316724956035614,"5":0.20231349766254425,"6":0.4854224920272827,"7":-0.03800254315137863,"8":-0.08532817661762238,"9":0.009780081920325756,"10":-0.18885764479637146,"11":-0.0033536970149725676,"12":-0.1679627001285553,"13":-0.13337256014347076,"14":-0.09993990510702133,"15":-0.13332365453243256,"16":-0.10201182216405869,"17":-0.21575941145420074,"18":-0.1240774616599083,"19":-0.2665445804595947,"20":0.14343667030334473,"21":0.006555493455380201,"22":-0.56996089220047,"23":-0.042688485234975815,"24":0.34456440806388855,"25":0.15657547116279602,"26":0.03503626957535744,"27":0.3732861280441284,"28":0.06828143447637558,"29":0.07712219655513763,"30":0.30284225940704346,"31":0.30657511949539185,"32":0.06889301538467407,"33":0.04502375051379204,"34":-0.11826477199792862,"35":-0.07736203819513321,"36":0.08122347295284271,"37":0.19276414811611176,"38":0.21905790269374847,"39":0.14604386687278748,"40":0.09766402095556259,"41":-0.03582311049103737,"42":-0.19677826762199402,"43":-0.03182132914662361,"44":-0.3607901930809021,"45":-0.02165934443473816,"46":-0.06670856475830078,"47":-0.027980681508779526,"48":0.2018258422613144,"49":0.16546940803527832,"50":-0.012582972645759583,"51":-0.10154968500137329,"52":-0.08095194399356842,"53":-0.0006067480426281691,"54":-0.08338548243045807,"55":-0.15308059751987457,"56":0.04866153746843338,"57":-0.23768533766269684,"58":-0.18695944547653198,"59":0.001384619390591979,"60":-0.21999894082546234,"61":-0.20010945200920105,"62":0.16170676052570343,"63":0.2256786823272705,"64":0.24890786409378052,"65":0.07833020389080048,"66":0.06175858899950981,"67":-0.05555611103773117,"68":0.16073662042617798,"69":0.2392883449792862,"70":0.043169960379600525,"71":-0.05006815493106842,"72":0.33090224862098694,"73":0.031092941761016846,"74":0.19380071759223938,"75":-0.1494925171136856,"76":0.1798669993877411,"77":0.09389916807413101,"78":0.2788618505001068,"79":0.287820965051651,"80":0.08410174399614334,"81":-0.464998722076416,"82":-0.11015550047159195,"83":-0.17194809019565582,"84":-0.1419924795627594,"85":0.11974283307790756,"86":-0.27737942337989807,"87":-0.3225949704647064,"88":-0.1350921094417572,"89":-0.03242042660713196,"90":-0.0010661021806299686,"91":0.07817353308200836,"92":0.04102940857410431,"93":0.30123400688171387,"94":0.02100585773587227,"95":0.3518032431602478,"96":-0.16827423870563507,"97":0.06747186183929443,"98":0.10850505530834198,"99":0.10728009045124054,"100":-0.10433301329612732,"101":-0.08362409472465515,"102":-0.18560576438903809,"103":0.05437355116009712,"104":-0.10073146224021912,"105":0.21652816236019135,"106":-0.09184642136096954,"107":-0.001965081552043557,"108":0.15707871317863464,"109":-0.1386992633342743,"110":-0.020131077617406845,"111":-0.13085421919822693,"112":0.007323150057345629,"113":0.21413536369800568,"114":0.1497199833393097,"115":0.083795927464962,"116":-0.23556949198246002,"117":-0.07022199779748917,"118":-0.13993695378303528,"119":-0.17683301866054535,"120":-0.14626683294773102,"121":0.3625204265117645,"122":0.3980255722999573,"123":-0.21429653465747833,"124":-0.2858535051345825,"125":-0.08696871995925903,"126":-0.024087371304631233,"127":0.11110036820173264,"128":0.17895741760730743,"129":0.055238377302885056,"130":0.2575536370277405,"131":0.0801483690738678,"132":-0.07135990262031555,"133":0.16130103170871735,"134":0.1164509654045105,"135":-0.0001822909980546683,"136":0.1057482361793518,"137":-0.08774130791425705,"138":-0.22099387645721436,"139":-0.1646626591682434,"140":-0.27034199237823486,"141":-0.31947848200798035,"142":-0.0984206274151802,"143":0.19073227047920227,"144":0.09766589850187302,"145":0.255738765001297,"146":-0.05790909379720688,"147":0.02155490592122078,"148":-0.07414956390857697,"149":-0.2670642137527466,"150":-0.09744320064783096,"151":0.4879555404186249,"152":-0.31976091861724854,"153":-0.34435105323791504,"154":-0.12352816015481949,"155":0.045087289065122604,"156":0.008676579222083092,"157":0.11331135779619217,"158":0.033026959747076035,"159":-0.16345372796058655,"160":0.09833889454603195,"161":-0.1761167198419571,"162":0.04746070131659508,"163":-0.1336892992258072,"164":0.1984400898218155,"165":-0.08182545751333237,"166":0.05890076979994774,"167":0.13419662415981293,"168":-0.07360713183879852,"169":-0.03838484361767769,"170":-0.051838219165802,"171":-0.14258691668510437,"172":-0.1376648247241974,"173":0.0909896045923233,"174":-0.05239098146557808,"175":-0.0856633335351944,"176":0.029919421300292015,"177":0.023349246010184288,"178":-0.0502147413790226,"179":-0.07856715470552444,"180":-0.22815094888210297,"181":0.06283438205718994,"182":-0.1881338655948639,"183":0.19411486387252808,"184":0.19775399565696716,"185":-0.042645130306482315,"186":-0.32851070165634155,"187":-0.1621801257133484,"188":0.024769406765699387,"189":-0.1961975395679474,"190":-0.25331243872642517,"191":0.04146768897771835,"192":-0.1753949075937271,"193":0.044180795550346375,"194":-0.13419048488140106,"195":0.0023879320360720158,"196":-0.01108376495540142,"197":-0.10669109225273132,"198":-0.11129940301179886,"199":-0.20514993369579315,"200":-0.15537582337856293,"201":-0.14693903923034668,"202":-0.26195457577705383,"203":0.009273328818380833,"204":0.00855820719152689,"205":-0.19522105157375336,"206":-0.18551518023014069,"207":-0.295116662979126,"208":-0.1267171949148178,"209":0.20335473120212555,"210":0.17911751568317413,"211":0.13766825199127197,"212":0.09616213291883469,"213":0.032694507390260696,"214":0.23729872703552246,"215":-0.03597990795969963,"216":-0.11295504868030548,"217":0.07681405544281006,"218":-0.25342100858688354,"219":0.021713903173804283,"220":-0.0038856498431414366,"221":0.25299692153930664,"222":-0.007663981523364782,"223":-0.0484355092048645,"224":0.021888650953769684,"225":0.2698413133621216,"226":-0.04620882868766785,"227":0.29325708746910095,"228":0.022656895220279694,"229":0.20188498497009277,"230":-0.059733666479587555,"231":0.25240859389305115,"232":0.25789445638656616,"233":0.23926684260368347,"234":-0.058719489723443985,"235":0.04010869935154915,"236":-0.12700112164020538,"237":-0.0035406232345849276,"238":-0.03523771092295647,"239":0.0009188181720674038,"240":-0.021995162591338158,"241":-0.09372533112764359,"242":0.13202597200870514,"243":0.21804232895374298,"244":0.21532858908176422,"245":0.2399572879076004,"246":0.00451376847922802,"247":0.07650002092123032,"248":-0.10103299468755722,"249":0.23030418157577515,"250":-0.06940317153930664,"251":-0.2873716950416565,"252":-0.023628611117601395,"253":-0.08581174165010452,"254":-0.24534767866134644,"255":-0.19971387088298798,"256":-0.275051474571228,"257":-0.0688462033867836,"258":0.1011539101600647,"259":-0.13970832526683807,"260":-0.012201821431517601,"261":-0.123578742146492,"262":-0.11343429982662201,"263":0.17631231248378754,"264":-0.06513426452875137,"265":-0.15984486043453217,"266":0.0813881903886795,"267":0.24174915254116058,"268":0.0748348981142044,"269":-0.057089466601610184,"270":-0.0675148144364357,"271":0.22652079164981842,"272":0.2768412232398987,"273":0.04277762398123741}},"4":{"bias":-0.196041077375412,"weights":{"0":0.14890684187412262,"1":0.18019074201583862,"2":-0.03513389080762863,"3":-0.22102822363376617,"4":-0.10277602821588516,"5":-0.0238533616065979,"6":0.2561984658241272,"7":-0.0291102547198534,"8":-0.11319812387228012,"9":0.10205808281898499,"10":0.09375613182783127,"11":0.05913272127509117,"12":0.13473506271839142,"13":-0.2084258645772934,"14":-0.17060841619968414,"15":-0.06150244176387787,"16":-0.15639488399028778,"17":0.18072985112667084,"18":-0.12773029506206512,"19":0.06361004710197449,"20":0.12467674165964127,"21":-0.031354982405900955,"22":-0.018869927152991295,"23":-0.22299836575984955,"24":0.08123992383480072,"25":-0.07731753587722778,"26":-0.10342428833246231,"27":0.0893433690071106,"28":-0.08935919404029846,"29":-0.13316749036312103,"30":-0.035748276859521866,"31":-0.12857381999492645,"32":-0.13245707750320435,"33":-0.0976904034614563,"34":-0.02148456871509552,"35":-0.1010919138789177,"36":-0.1125783696770668,"37":-0.08939961344003677,"38":0.07064370065927505,"39":0.12882138788700104,"40":0.1010325700044632,"41":-0.20415623486042023,"42":-0.11643686145544052,"43":-0.11118630319833755,"44":0.13766884803771973,"45":-0.0800977349281311,"46":0.03127777576446533,"47":0.02064787596464157,"48":0.07515988498926163,"49":-0.010290399193763733,"50":0.14095522463321686,"51":-0.07976014912128448,"52":-0.049079034477472305,"53":-0.09931642562150955,"54":-0.040722329169511795,"55":-0.16835016012191772,"56":-0.10432101786136627,"57":-0.09410716593265533,"58":0.11851774901151657,"59":0.1435554027557373,"60":0.10645578056573868,"61":-0.022816842421889305,"62":-0.08501621335744858,"63":0.09788800776004791,"64":0.09963629394769669,"65":0.12610329687595367,"66":0.152450829744339,"67":0.15647101402282715,"68":0.1339663565158844,"69":-0.15213972330093384,"70":-0.13085077702999115,"71":-0.18595241010189056,"72":0.023559080436825752,"73":0.04669186472892761,"74":0.1451183557510376,"75":0.011795740574598312,"76":-0.08038157969713211,"77":0.22151505947113037,"78":-0.03261372074484825,"79":0.02089058794081211,"80":0.08782831579446793,"81":-0.030873708426952362,"82":-0.26555946469306946,"83":-0.18309417366981506,"84":0.0034915537107735872,"85":-0.17048202455043793,"86":-0.1814563125371933,"87":-0.07389529794454575,"88":-0.031160814687609673,"89":-0.04586198180913925,"90":0.03958636522293091,"91":-0.03331335633993149,"92":0.1561332643032074,"93":0.10626184940338135,"94":-0.11068116873502731,"95":0.02836650237441063,"96":0.11045841872692108,"97":-0.08969718962907791,"98":-0.05997268483042717,"99":-0.13829588890075684,"100":0.1644781082868576,"101":-0.10338445752859116,"102":-0.036565572023391724,"103":0.05643098056316376,"104":-0.07741910219192505,"105":0.07210395485162735,"106":0.0012576598674058914,"107":-0.07837571203708649,"108":-0.005164289381355047,"109":-0.00714541133493185,"110":0.08016128838062286,"111":0.03897098824381828,"112":-0.1573602259159088,"113":0.1951587051153183,"114":0.17786242067813873,"115":0.12328315526247025,"116":0.03269140422344208,"117":-0.12206047028303146,"118":-0.10127460211515427,"119":0.0399412177503109,"120":-0.15989698469638824,"121":0.25061169266700745,"122":0.07457001507282257,"123":-0.030087962746620178,"124":0.06493615359067917,"125":-0.23799660801887512,"126":-0.08024566620588303,"127":0.16838102042675018,"128":0.15804781019687653,"129":-0.14209571480751038,"130":-0.12605467438697815,"131":-0.17280714213848114,"132":0.044843029230833054,"133":0.05248655378818512,"134":0.1933584064245224,"135":-0.018453793600201607,"136":0.030430307611823082,"137":-0.016032356768846512,"138":-0.15798519551753998,"139":-0.21340085566043854,"140":0.16023854911327362,"141":0.13917161524295807,"142":0.10836996883153915,"143":0.14871181547641754,"144":-0.1726113259792328,"145":0.11996719986200333,"146":0.10929953306913376,"147":0.04564901441335678,"148":0.16084390878677368,"149":0.16151660680770874,"150":0.053691137582063675,"151":0.28969138860702515,"152":-0.1938839852809906,"153":-0.1213482916355133,"154":0.003064236603677273,"155":0.057548657059669495,"156":-0.08053430914878845,"157":0.17068219184875488,"158":0.12992337346076965,"159":0.1377188116312027,"160":0.03825116530060768,"161":0.11070048809051514,"162":0.15655581653118134,"163":0.08503104001283646,"164":0.05133341997861862,"165":0.1613789051771164,"166":0.042398467659950256,"167":0.05301349237561226,"168":-0.1279180496931076,"169":0.03080567717552185,"170":0.044551361352205276,"171":-0.12626124918460846,"172":0.08102328330278397,"173":0.08469243347644806,"174":0.04514201357960701,"175":0.1477237343788147,"176":-0.032853834331035614,"177":-0.11525753885507584,"178":0.007434178609400988,"179":-0.19021642208099365,"180":0.1685451865196228,"181":0.09767892956733704,"182":0.1567450910806656,"183":-0.11634629219770432,"184":-0.07575052976608276,"185":0.08158387988805771,"186":-0.1376769095659256,"187":-0.18471793830394745,"188":0.10036392509937286,"189":0.04063575714826584,"190":-0.15260416269302368,"191":0.15356311202049255,"192":-0.13642093539237976,"193":0.027378736063838005,"194":-0.020304804667830467,"195":-0.1523800790309906,"196":-0.06035815551877022,"197":-0.07063331454992294,"198":-0.1336568146944046,"199":0.020854894071817398,"200":0.062336575239896774,"201":0.10927794873714447,"202":-0.18424846231937408,"203":-0.018754122778773308,"204":0.03944782167673111,"205":-0.049028269946575165,"206":0.10353563725948334,"207":0.11333590000867844,"208":-0.06138310953974724,"209":-0.08324411511421204,"210":0.08275488018989563,"211":0.005780096165835857,"212":-0.16982696950435638,"213":-0.12841063737869263,"214":0.14832666516304016,"215":0.05996081605553627,"216":0.10937632620334625,"217":0.028255069628357887,"218":-0.2102997601032257,"219":0.024189284071326256,"220":0.18111014366149902,"221":0.13265036046504974,"222":-0.14976456761360168,"223":0.14865711331367493,"224":-0.005327596794813871,"225":0.1878059357404709,"226":0.03522343188524246,"227":-0.15658770501613617,"228":-0.1070500910282135,"229":0.008767588995397091,"230":0.2168349176645279,"231":0.0847112387418747,"232":0.020878680050373077,"233":0.18570825457572937,"234":-0.049448296427726746,"235":0.12421691417694092,"236":0.02332354709506035,"237":0.0756220668554306,"238":0.03383047878742218,"239":0.028845883905887604,"240":-0.17646203935146332,"241":-0.08335595577955246,"242":-0.13967172801494598,"243":-0.06030258163809776,"244":-0.02397986687719822,"245":0.0196942500770092,"246":0.07191403955221176,"247":0.010820576921105385,"248":0.14541380107402802,"249":0.19246208667755127,"250":0.052103832364082336,"251":-0.18943317234516144,"252":-0.18328063189983368,"253":-0.08635859936475754,"254":0.06703004986047745,"255":-0.17645415663719177,"256":0.12954731285572052,"257":0.17365583777427673,"258":-0.06269115209579468,"259":-0.056205570697784424,"260":0.1196964681148529,"261":0.01974583975970745,"262":-0.056396082043647766,"263":0.08846292644739151,"264":-0.12021580338478088,"265":-0.12525907158851624,"266":0.0028745324816554785,"267":-0.008371014147996902,"268":-0.0895010232925415,"269":0.18934166431427002,"270":0.08046917617321014,"271":0.2120705246925354,"272":-0.023687148466706276,"273":-0.11194327473640442}},"5":{"bias":0.05128925293684006,"weights":{"0":-0.12074970453977585,"1":0.12291856110095978,"2":-0.1613035947084427,"3":0.12796038389205933,"4":0.08068501204252243,"5":-0.18334665894508362,"6":-0.23880992829799652,"7":-0.026393037289381027,"8":0.10805992782115936,"9":-0.2205059677362442,"10":-0.04773256927728653,"11":-0.09637182950973511,"12":-0.014722089283168316,"13":0.17733407020568848,"14":0.1577758491039276,"15":-0.009422281756997108,"16":-0.04857112839818001,"17":0.008405223488807678,"18":-0.06779784709215164,"19":0.059175509959459305,"20":0.19958023726940155,"21":0.14676019549369812,"22":0.060322318226099014,"23":-0.024713270366191864,"24":-0.15365338325500488,"25":-0.14158542454242706,"26":0.12281881272792816,"27":0.1166987270116806,"28":0.08128555119037628,"29":-0.1238633245229721,"30":-0.19036340713500977,"31":-0.18775244057178497,"32":-0.04007091745734215,"33":0.0030772557947784662,"34":-0.05465489625930786,"35":-0.13474617898464203,"36":-0.02238493226468563,"37":0.13850301504135132,"38":-0.14383384585380554,"39":0.060087017714977264,"40":0.027773994952440262,"41":0.11511936038732529,"42":-0.08387596160173416,"43":-0.21206636726856232,"44":0.1651686131954193,"45":-0.15235547721385956,"46":-0.10393475741147995,"47":-0.014399893581867218,"48":-0.02622797153890133,"49":-0.19526956975460052,"50":0.1233738362789154,"51":0.06609394401311874,"52":-0.16581161320209503,"53":0.013356700539588928,"54":-0.1966160237789154,"55":-0.10343900322914124,"56":-0.06364298611879349,"57":0.0963679850101471,"58":0.06364350020885468,"59":0.09572824835777283,"60":-0.06546594947576523,"61":-0.055948417633771896,"62":-0.03211976960301399,"63":0.07313182204961777,"64":-0.0888456180691719,"65":0.11946142464876175,"66":-0.13408343493938446,"67":-0.09766935557126999,"68":-0.007176342885941267,"69":0.10637863725423813,"70":-0.08035945892333984,"71":-0.10620953142642975,"72":-0.2149783819913864,"73":-0.08545386791229248,"74":-0.08987216651439667,"75":0.07005249708890915,"76":0.14914056658744812,"77":-0.12046302109956741,"78":-0.2360992580652237,"79":0.01932896114885807,"80":0.07762985676527023,"81":0.20381879806518555,"82":0.11930479109287262,"83":-0.1758662611246109,"84":0.04119537025690079,"85":-0.14290131628513336,"86":-0.10473047941923141,"87":-0.03228215500712395,"88":0.035266127437353134,"89":-0.15047936141490936,"90":-0.13108976185321808,"91":-0.012565339915454388,"92":0.03424140065908432,"93":-0.013872122392058372,"94":0.05616001412272453,"95":-0.2665584087371826,"96":-0.17666274309158325,"97":-0.009511505253612995,"98":-0.05594678595662117,"99":0.18211345374584198,"100":0.047413963824510574,"101":0.011190054938197136,"102":-0.15699249505996704,"103":0.023886891081929207,"104":0.06387197971343994,"105":-0.05921187624335289,"106":0.04088965058326721,"107":-0.13985100388526917,"108":0.10208974033594131,"109":0.0013858237070962787,"110":-0.21883313357830048,"111":-0.20303179323673248,"112":0.11797980964183807,"113":-0.13215471804141998,"114":-0.025267066434025764,"115":-0.10480815172195435,"116":-0.12407639622688293,"117":-0.13116376101970673,"118":0.17024880647659302,"119":-0.008736947551369667,"120":-0.19106242060661316,"121":-0.24946989119052887,"122":-0.19803808629512787,"123":0.24837462604045868,"124":0.2115064114332199,"125":0.01687471941113472,"126":-0.22108106315135956,"127":0.09730479121208191,"128":-0.1890506148338318,"129":-0.16642950475215912,"130":0.030140051618218422,"131":0.002688285196200013,"132":-0.2231968194246292,"133":0.014302949421107769,"134":-0.024673964828252792,"135":0.06259875744581223,"136":-0.03370126709342003,"137":0.11680081486701965,"138":-0.09417147934436798,"139":0.06219774857163429,"140":-0.12474271655082703,"141":0.18234828114509583,"142":-0.1442917287349701,"143":-0.04048580676317215,"144":-0.05693264305591583,"145":0.1117793545126915,"146":-0.0024789278395473957,"147":-0.06669558584690094,"148":0.1521560102701187,"149":-0.14325128495693207,"150":-0.013526951894164085,"151":-0.17773382365703583,"152":0.18314559757709503,"153":-0.06696021556854248,"154":0.06983188539743423,"155":0.014614290557801723,"156":-0.19515947997570038,"157":0.04730432480573654,"158":-0.14802876114845276,"159":-0.012902126647531986,"160":-0.023072242736816406,"161":0.13280673325061798,"162":0.05391925573348999,"163":-0.1693105399608612,"164":-0.09918341040611267,"165":-0.05531609058380127,"166":0.030546601861715317,"167":-0.10546085238456726,"168":-0.07543501257896423,"169":0.037189871072769165,"170":0.004140013363212347,"171":0.1910286396741867,"172":-0.05970411375164986,"173":0.09599889069795609,"174":0.13246501982212067,"175":0.15624921023845673,"176":-0.10835650563240051,"177":-0.04158760979771614,"178":0.007263254374265671,"179":0.13137242197990417,"180":-0.08447076380252838,"181":0.007739156950265169,"182":-0.0996091365814209,"183":0.11548730731010437,"184":-0.09730122238397598,"185":0.009839290753006935,"186":-0.1494520604610443,"187":0.09530697017908096,"188":0.21991409361362457,"189":-0.1210591197013855,"190":0.027938490733504295,"191":0.09385106712579727,"192":0.17212139070034027,"193":-0.14570747315883636,"194":-0.083002470433712,"195":0.12762212753295898,"196":-0.15754854679107666,"197":0.060751479119062424,"198":0.14317713677883148,"199":0.041195087134838104,"200":-0.042837150394916534,"201":-0.18620182573795319,"202":-0.07660297304391861,"203":0.12934483587741852,"204":0.17123150825500488,"205":-0.11057458817958832,"206":-0.004382711835205555,"207":0.1841946691274643,"208":-0.10237748920917511,"209":-0.0838969498872757,"210":-0.10661330074071884,"211":0.05983738228678703,"212":-0.022538702934980392,"213":-0.18166233599185944,"214":-0.1842678338289261,"215":0.062494561076164246,"216":-0.09410817176103592,"217":0.09531331062316895,"218":-0.036549534648656845,"219":-0.05934632569551468,"220":-0.14838671684265137,"221":-0.02955697663128376,"222":0.07246331125497818,"223":-0.043091725558042526,"224":-0.20192167162895203,"225":-0.19781114161014557,"226":-0.19686450064182281,"227":-0.13598182797431946,"228":0.08195825666189194,"229":0.02322998456656933,"230":0.056896012276411057,"231":-0.12598520517349243,"232":-0.14438007771968842,"233":-0.13225939869880676,"234":0.10300664603710175,"235":0.16711671650409698,"236":0.06906557828187943,"237":0.17357765138149261,"238":0.028495177626609802,"239":0.15399792790412903,"240":0.07918018847703934,"241":-0.08515116572380066,"242":0.11786679178476334,"243":-0.19225791096687317,"244":0.042023755609989166,"245":-0.16120679676532745,"246":0.0907776802778244,"247":-0.1556943655014038,"248":-0.031294334679841995,"249":0.1416027694940567,"250":-0.013833652250468731,"251":-0.06080184876918793,"252":0.09151478856801987,"253":-0.1485898643732071,"254":0.04157254472374916,"255":-0.06981915980577469,"256":0.17752116918563843,"257":0.08857306838035583,"258":-0.009838167577981949,"259":-0.041286323219537735,"260":-0.16334329545497894,"261":-0.1849689483642578,"262":-0.14756493270397186,"263":-0.12328166514635086,"264":0.07857555150985718,"265":-0.026814324781298637,"266":0.11724434792995453,"267":0.09028179943561554,"268":0.054381873458623886,"269":0.06549908220767975,"270":-0.21064192056655884,"271":-0.14143969118595123,"272":0.10500922799110413,"273":-0.027312621474266052}},"6":{"bias":-0.039879605174064636,"weights":{"0":-0.054548654705286026,"1":0.1263047754764557,"2":0.013436945155262947,"3":0.22860559821128845,"4":0.22772349417209625,"5":0.008148682303726673,"6":-0.27784061431884766,"7":0.1499399095773697,"8":0.13668443262577057,"9":0.06428373605012894,"10":0.16470004618167877,"11":0.09257886558771133,"12":-0.001757660647854209,"13":-0.034689828753471375,"14":0.020751837641000748,"15":0.1085892990231514,"16":-0.06355734914541245,"17":-0.14061658084392548,"18":0.203889861702919,"19":0.28333866596221924,"20":-0.07701735943555832,"21":0.03836905583739281,"22":0.1312699317932129,"23":0.1759481579065323,"24":-0.1342628449201584,"25":-0.03360004723072052,"26":-0.17987550795078278,"27":-0.12559707462787628,"28":-0.009116841480135918,"29":-0.0518607422709465,"30":0.07866819202899933,"31":-0.10527744144201279,"32":-0.0007668480975553393,"33":-0.02131582796573639,"34":0.14184805750846863,"35":-0.024297071620821953,"36":0.01584252156317234,"37":-0.11852053552865982,"38":-0.04662655293941498,"39":-0.05857531353831291,"40":-0.04535669460892677,"41":0.24166259169578552,"42":0.20224513113498688,"43":0.08829908818006516,"44":0.18950529396533966,"45":-0.0420820526778698,"46":-0.16595089435577393,"47":-0.12882594764232635,"48":-0.08515919744968414,"49":0.0936049222946167,"50":0.1431063562631607,"51":-0.185574010014534,"52":-0.0122612239792943,"53":-0.19618989527225494,"54":-0.04119093343615532,"55":0.09478335082530975,"56":0.03068266063928604,"57":0.02692156471312046,"58":-0.15619836747646332,"59":0.16323621571063995,"60":0.18270839750766754,"61":0.09561359137296677,"62":-0.16831380128860474,"63":-0.19489629566669464,"64":0.1012432649731636,"65":-0.0440179742872715,"66":-0.14394406974315643,"67":0.0179338026791811,"68":-0.200933039188385,"69":0.12232698500156403,"70":-0.12019995599985123,"71":0.2563638687133789,"72":-0.273591548204422,"73":-0.2808116674423218,"74":0.0738687813282013,"75":-0.03092360869050026,"76":-0.06980441510677338,"77":-0.07366739958524704,"78":0.024625366553664207,"79":0.036206237971782684,"80":-0.10446570068597794,"81":0.0241494532674551,"82":0.2209661453962326,"83":0.17643782496452332,"84":0.09013622999191284,"85":-0.16034004092216492,"86":0.22752605378627777,"87":0.01113615371286869,"88":0.10105126351118088,"89":-0.0882669985294342,"90":0.07939077913761139,"91":0.10650388151407242,"92":0.144356369972229,"93":-0.23679248988628387,"94":-0.0202301237732172,"95":-0.2656031548976898,"96":-0.09838221222162247,"97":0.009282426908612251,"98":0.10982632637023926,"99":0.19518034160137177,"100":-0.03729512169957161,"101":-0.06970559060573578,"102":0.18538405001163483,"103":-0.16881245374679565,"104":-0.2141028642654419,"105":-0.16983097791671753,"106":-0.19191114604473114,"107":-0.1267598569393158,"108":-0.2113499939441681,"109":-0.0799931064248085,"110":-0.16208437085151672,"111":-0.0038414993323385715,"112":-0.0659540668129921,"113":-0.15936467051506042,"114":0.06281934678554535,"115":0.0588805228471756,"116":-0.056683797389268875,"117":0.1783672571182251,"118":0.024058707058429718,"119":-0.10897036641836166,"120":-0.13384440541267395,"121":-0.2993636727333069,"122":-0.13004128634929657,"123":0.09152664244174957,"124":0.19946826994419098,"125":0.13391907513141632,"126":0.09185279905796051,"127":0.01884370483458042,"128":0.033102989196777344,"129":-0.06577141582965851,"130":0.01351923868060112,"131":-0.14173129200935364,"132":-0.07247647643089294,"133":0.09016844630241394,"134":-0.1302449256181717,"135":-0.05282875895500183,"136":0.212996244430542,"137":0.15253980457782745,"138":0.25819990038871765,"139":0.20450489223003387,"140":-0.1425752490758896,"141":-0.06446187943220139,"142":-0.2297983467578888,"143":0.005350599065423012,"144":0.0030482097063213587,"145":-0.21650049090385437,"146":0.06642347574234009,"147":0.00011416037887101993,"148":0.2131659984588623,"149":-0.07712827622890472,"150":0.2057792693376541,"151":-0.09462327510118484,"152":0.02726823091506958,"153":0.14254549145698547,"154":0.16180548071861267,"155":-0.05415777117013931,"156":-0.0867091491818428,"157":-0.01769583486020565,"158":0.0405476950109005,"159":0.08473706990480423,"160":0.009478332474827766,"161":-0.005559409502893686,"162":0.1577814519405365,"163":0.15740221738815308,"164":-0.061003223061561584,"165":0.08933228999376297,"166":-0.0986168161034584,"167":-0.07439959049224854,"168":0.21431200206279755,"169":0.20329800248146057,"170":-0.009850817732512951,"171":-0.13031786680221558,"172":-0.0747504010796547,"173":-0.16200695931911469,"174":-0.13326041400432587,"175":0.12394680827856064,"176":0.007690562400966883,"177":-0.18532206118106842,"178":0.17765378952026367,"179":0.1779264509677887,"180":-0.15772390365600586,"181":-0.07342229038476944,"182":-0.06870517134666443,"183":0.023741750046610832,"184":-0.050380948930978775,"185":0.07181944698095322,"186":0.18273402750492096,"187":0.08850531280040741,"188":-0.013932561501860619,"189":-0.08050215244293213,"190":0.1810327172279358,"191":0.2324032187461853,"192":0.17844600975513458,"193":0.09866911172866821,"194":0.21096938848495483,"195":-0.1654534786939621,"196":-0.05717404559254646,"197":0.015050353482365608,"198":-0.14970393478870392,"199":-0.1354169249534607,"200":-0.07972407341003418,"201":0.07201481610536575,"202":-0.11882182955741882,"203":0.182175874710083,"204":-0.03285977244377136,"205":-0.07808786630630493,"206":0.2257770597934723,"207":0.14575091004371643,"208":0.26674261689186096,"209":-0.23768337070941925,"210":-0.11458582431077957,"211":-0.20137347280979156,"212":0.030634677037596703,"213":-0.14795295894145966,"214":-0.09348099678754807,"215":0.09080007672309875,"216":-0.11310309171676636,"217":0.15021966397762299,"218":0.06229433789849281,"219":-0.1873055398464203,"220":-0.13365349173545837,"221":-0.04866377264261246,"222":-0.09869547933340073,"223":0.1264534443616867,"224":-0.062373846769332886,"225":0.10810437798500061,"226":-0.20845629274845123,"227":-0.16229261457920074,"228":-0.0332949198782444,"229":-0.07584402710199356,"230":-0.2079847902059555,"231":-0.20099595189094543,"232":-0.12581269443035126,"233":-0.22617609798908234,"234":-0.15416593849658966,"235":0.17381229996681213,"236":-0.023947883397340775,"237":0.055444929748773575,"238":-0.123204305768013,"239":0.06386623531579971,"240":-0.1001051515340805,"241":-0.22799567878246307,"242":0.0363970547914505,"243":0.013085121288895607,"244":0.027231913059949875,"245":0.08631286770105362,"246":0.13250762224197388,"247":0.07687569409608841,"248":0.11614425480365753,"249":-0.16439972817897797,"250":0.05755380541086197,"251":-0.16047441959381104,"252":0.04987378418445587,"253":0.1782076209783554,"254":0.14617151021957397,"255":0.1718500703573227,"256":0.13690005242824554,"257":0.19035540521144867,"258":-0.08368603140115738,"259":-0.16246195137500763,"260":0.0780176892876625,"261":-0.06871236115694046,"262":0.0865924283862114,"263":-0.04339008405804634,"264":0.08604852855205536,"265":-0.11262129992246628,"266":-0.17032916843891144,"267":-0.01814453862607479,"268":-0.25759193301200867,"269":-0.22604696452617645,"270":0.07581586390733719,"271":0.13948722183704376,"272":-0.05469979718327522,"273":-0.1342543363571167}},"7":{"bias":-0.25673818588256836,"weights":{"0":-0.05928482860326767,"1":-0.17312437295913696,"2":0.0427946001291275,"3":-0.11505826562643051,"4":-0.11879416555166245,"5":0.13114362955093384,"6":0.13438642024993896,"7":-0.07648102939128876,"8":0.08448241651058197,"9":-0.12343059480190277,"10":-0.17647938430309296,"11":-0.16790412366390228,"12":0.008478700183331966,"13":-0.002934474730864167,"14":-0.19045265018939972,"15":0.09678167849779129,"16":0.05215675011277199,"17":-0.19453400373458862,"18":0.16844329237937927,"19":0.14208263158798218,"20":0.14760546386241913,"21":-0.12080909311771393,"22":-0.16054362058639526,"23":0.029472172260284424,"24":0.051881447434425354,"25":-0.1336130052804947,"26":-0.007407231256365776,"27":-0.061851128935813904,"28":0.056863099336624146,"29":0.08384006470441818,"30":0.0535472147166729,"31":-0.11650106310844421,"32":0.1406327337026596,"33":-0.06894056499004364,"34":0.15007835626602173,"35":-0.053488437086343765,"36":-0.1047421544790268,"37":0.025959530845284462,"38":0.1844434291124344,"39":-0.17527717351913452,"40":-0.07469799369573593,"41":-0.12046539038419724,"42":0.09304381906986237,"43":0.10623003542423248,"44":-0.09792360663414001,"45":-0.01283553522080183,"46":-0.11644682288169861,"47":-0.13516022264957428,"48":0.175048828125,"49":-0.1330726593732834,"50":-0.05478542298078537,"51":-0.042632587254047394,"52":0.10991229861974716,"53":0.01594856195151806,"54":0.06841311603784561,"55":-0.17984336614608765,"56":0.14164257049560547,"57":0.12677529454231262,"58":0.16116821765899658,"59":0.19284528493881226,"60":-0.14272259175777435,"61":-0.19172389805316925,"62":0.12631161510944366,"63":-0.02982824668288231,"64":0.17698562145233154,"65":-0.040824513882398605,"66":-0.03038087673485279,"67":0.02883574739098549,"68":0.08748501539230347,"69":-0.04424170032143593,"70":0.04333130270242691,"71":-0.0027099158614873886,"72":-0.0020210249349474907,"73":0.024437347427010536,"74":-0.03856812044978142,"75":0.1089097186923027,"76":-0.12677958607673645,"77":-0.11631809920072556,"78":0.07623209804296494,"79":0.10580611974000931,"80":-0.16415627300739288,"81":0.09500984102487564,"82":-0.058653756976127625,"83":-0.1453760266304016,"84":-0.14988742768764496,"85":-0.14192701876163483,"86":0.029023805633187294,"87":-0.15884877741336823,"88":0.008582061156630516,"89":-0.07664710283279419,"90":-0.16845983266830444,"91":-0.14630524814128876,"92":-0.1822468638420105,"93":0.18807388842105865,"94":-0.037208426743745804,"95":-0.06504840403795242,"96":-0.049075786024332047,"97":-0.17369988560676575,"98":0.12730801105499268,"99":-0.06743215769529343,"100":-0.0048101735301315784,"101":0.1287544071674347,"102":0.19002337753772736,"103":-0.05699034780263901,"104":-0.07519735395908356,"105":0.11665642261505127,"106":-0.09604906290769577,"107":0.004861949477344751,"108":0.10618399828672409,"109":-0.11027990281581879,"110":0.1684514880180359,"111":-0.13316573202610016,"112":-0.17480610311031342,"113":0.1909724473953247,"114":0.1642863154411316,"115":-0.04910089448094368,"116":0.11220024526119232,"117":0.0317070372402668,"118":-0.15974265336990356,"119":-0.0737006738781929,"120":-0.18624210357666016,"121":0.03744061663746834,"122":0.174180269241333,"123":-0.005055168177932501,"124":0.03952748328447342,"125":-0.0014704999048262835,"126":0.016774240881204605,"127":-0.13486634194850922,"128":-0.12779885530471802,"129":0.028505679219961166,"130":0.11460566520690918,"131":0.1076819896697998,"132":0.19096127152442932,"133":0.17074692249298096,"134":-0.1357482522726059,"135":-0.14314872026443481,"136":-0.12293850630521774,"137":-0.14763633906841278,"138":-0.10214586555957794,"139":-0.18338996171951294,"140":-0.11821998655796051,"141":-0.1899636834859848,"142":-0.13264639675617218,"143":-0.09580175578594208,"144":-0.0005856615607626736,"145":-0.12976714968681335,"146":-0.15041498839855194,"147":-0.0799899771809578,"148":0.16111566126346588,"149":-0.0946902334690094,"150":-0.16247984766960144,"151":-0.020285896956920624,"152":0.05338827520608902,"153":-0.07296767085790634,"154":0.12439824640750885,"155":0.19377659261226654,"156":-0.15083220601081848,"157":-0.06639553606510162,"158":-0.021155189722776413,"159":0.01894032210111618,"160":0.03331376612186432,"161":0.12674511969089508,"162":-0.024777939543128014,"163":-0.008342554792761803,"164":0.051912371069192886,"165":-0.007947385311126709,"166":0.16439643502235413,"167":0.04047415405511856,"168":-0.17183272540569305,"169":-0.0922774150967598,"170":0.04268905520439148,"171":0.062164630740880966,"172":0.054188553243875504,"173":0.1351107805967331,"174":-0.15428666770458221,"175":0.11744903028011322,"176":0.045415639877319336,"177":0.17789703607559204,"178":-0.07025269418954849,"179":0.09289143979549408,"180":0.06782379746437073,"181":-0.12023269385099411,"182":-0.12199694663286209,"183":-0.10746993869543076,"184":-0.16247814893722534,"185":-0.018381696194410324,"186":-0.03105122037231922,"187":-0.15806929767131805,"188":-0.04933256283402443,"189":0.044829804450273514,"190":-0.1390085518360138,"191":-0.19621311128139496,"192":0.12231645733118057,"193":-0.13972654938697815,"194":-0.08347808569669724,"195":-0.08486472070217133,"196":0.12296488136053085,"197":-0.026256531476974487,"198":0.0754576101899147,"199":-0.10346934199333191,"200":0.087194062769413,"201":-0.02244265191257,"202":0.08754613250494003,"203":-0.13011881709098816,"204":0.00008397697092732415,"205":-0.10969498008489609,"206":-0.08659039437770844,"207":-0.08626217395067215,"208":0.16473130881786346,"209":-0.11899342387914658,"210":0.051804229617118835,"211":-0.01883035898208618,"212":0.10927174985408783,"213":0.013489644974470139,"214":0.16477622091770172,"215":-0.19573190808296204,"216":-0.19161447882652283,"217":0.08537906408309937,"218":-0.11602063477039337,"219":-0.14127597212791443,"220":-0.08304871618747711,"221":0.17266987264156342,"222":-0.06044469401240349,"223":0.08150304853916168,"224":0.17935523390769958,"225":0.06722991913557053,"226":0.188987597823143,"227":-0.18802370131015778,"228":0.05568751320242882,"229":-0.05048481747508049,"230":-0.020987898111343384,"231":-0.09532976150512695,"232":-0.010839315131306648,"233":-0.06919045001268387,"234":-0.19741465151309967,"235":0.03309781476855278,"236":-0.15271839499473572,"237":0.02970733307301998,"238":0.13019700348377228,"239":0.018939869478344917,"240":0.06591961532831192,"241":0.1716434359550476,"242":-0.12752367556095123,"243":-0.010828292928636074,"244":-0.06657598167657852,"245":-0.11047359555959702,"246":0.15244905650615692,"247":-0.12848258018493652,"248":0.11727237701416016,"249":-0.15072593092918396,"250":0.1525379717350006,"251":0.133821040391922,"252":-0.07626599818468094,"253":0.05954853445291519,"254":0.19219790399074554,"255":0.17317339777946472,"256":-0.17014633119106293,"257":-0.15018302202224731,"258":-0.040053728967905045,"259":-0.1241639107465744,"260":0.005495705176144838,"261":-0.0609237439930439,"262":-0.009134290739893913,"263":0.11681128293275833,"264":-0.04260464385151863,"265":0.11961992084980011,"266":0.17570360004901886,"267":-0.16410204768180847,"268":-0.11168698221445084,"269":0.1484028398990631,"270":0.1466122269630432,"271":-0.07522190362215042,"272":0.014202315360307693,"273":-0.0780627429485321}},"8":{"bias":-0.17399324476718903,"weights":{"0":0.13226868212223053,"1":0.22451375424861908,"2":0.18192028999328613,"3":-0.03884930536150932,"4":-0.07124455273151398,"5":-0.1926160603761673,"6":-0.18011531233787537,"7":-0.16871529817581177,"8":-0.10675021260976791,"9":0.037898194044828415,"10":-0.09381129592657089,"11":-0.10074000805616379,"12":0.12648405134677887,"13":-0.07269466668367386,"14":0.22741934657096863,"15":-0.017247827723622322,"16":-0.08147098124027252,"17":0.1716553419828415,"18":-0.10507034510374069,"19":0.007265094667673111,"20":0.006149420980364084,"21":0.1991058886051178,"22":0.2658276855945587,"23":-0.03827701508998871,"24":-0.028504809364676476,"25":-0.21983011066913605,"26":-0.1196184828877449,"27":-0.030400678515434265,"28":-0.02035973034799099,"29":-0.24179930984973907,"30":-0.2074524164199829,"31":-0.19870629906654358,"32":-0.09481845796108246,"33":-0.14342264831066132,"34":0.07398441433906555,"35":-0.13689088821411133,"36":-0.05001790449023247,"37":-0.1388244777917862,"38":-0.02656267024576664,"39":-0.15300898253917694,"40":0.12922056019306183,"41":-0.11426709592342377,"42":0.1642225682735443,"43":-0.2056933492422104,"44":0.017429806292057037,"45":0.1416195034980774,"46":-0.05440489575266838,"47":-0.23870685696601868,"48":-0.09230068325996399,"49":0.05364346131682396,"50":0.11740918457508087,"51":-0.23206602036952972,"52":0.1038665920495987,"53":-0.1600884050130844,"54":0.001684472314082086,"55":0.11337200552225113,"56":0.1929125040769577,"57":0.07800386846065521,"58":-0.062442347407341,"59":0.03835055232048035,"60":0.15859141945838928,"61":0.06095927581191063,"62":-0.1910410225391388,"63":-0.24698768556118011,"64":-0.12581613659858704,"65":-0.11231929063796997,"66":-0.2298102080821991,"67":-0.04697384312748909,"68":-0.18199622631072998,"69":-0.1475338339805603,"70":-0.1678210198879242,"71":0.25051385164260864,"72":-0.13753364980220795,"73":-0.004912976641207933,"74":-0.11121658980846405,"75":-0.039713386446237564,"76":-0.05889352783560753,"77":-0.11420263350009918,"78":-0.0822911337018013,"79":-0.14818789064884186,"80":0.07021137326955795,"81":0.22905069589614868,"82":0.22711391746997833,"83":-0.04375137761235237,"84":-0.06559092551469803,"85":-0.13556694984436035,"86":-0.012140496633946896,"87":0.14430205523967743,"88":-0.10769442468881607,"89":0.20653025805950165,"90":0.10002733021974564,"91":-0.12498731166124344,"92":0.04766731709241867,"93":0.03629400208592415,"94":-0.19522228837013245,"95":-0.09565877169370651,"96":0.17609013617038727,"97":-0.027745846658945084,"98":-0.0433523990213871,"99":0.11180855333805084,"100":0.052569374442100525,"101":-0.14095057547092438,"102":-0.18064694106578827,"103":-0.1633470058441162,"104":-0.07535462826490402,"105":0.10569571703672409,"106":-0.01368760596960783,"107":-0.04129669442772865,"108":0.0973023772239685,"109":0.07781995832920074,"110":-0.09123872220516205,"111":-0.09791020303964615,"112":-0.22020725905895233,"113":-0.18317997455596924,"114":-0.21504873037338257,"115":0.036834899336099625,"116":0.198280930519104,"117":-0.11274837702512741,"118":-0.01685192622244358,"119":0.1476656198501587,"120":0.11733084172010422,"121":-0.05818605422973633,"122":-0.017405414953827858,"123":-0.004045357462018728,"124":0.04516442492604256,"125":0.24470247328281403,"126":0.01084334496408701,"127":0.12211910635232925,"128":-0.07710125297307968,"129":0.0013373848050832748,"130":0.07356179505586624,"131":0.022617856040596962,"132":-0.13591864705085754,"133":0.11320231854915619,"134":-0.23566178977489471,"135":0.11226838082075119,"136":0.19459117949008942,"137":0.19415929913520813,"138":0.20007845759391785,"139":0.0319242849946022,"140":-0.09919853508472443,"141":-0.033109694719314575,"142":-0.16330626606941223,"143":0.02956756390631199,"144":-0.13048604130744934,"145":0.07227512449026108,"146":-0.20104312896728516,"147":0.16881467401981354,"148":0.026128195226192474,"149":-0.049216270446777344,"150":0.18523457646369934,"151":-0.010540885850787163,"152":-0.11058475077152252,"153":-0.015566335991024971,"154":0.09225206822156906,"155":0.08513560146093369,"156":0.02144528366625309,"157":0.10716664046049118,"158":0.01936737820506096,"159":-0.13854703307151794,"160":-0.1706632524728775,"161":0.1765972077846527,"162":-0.06171480193734169,"163":-0.17058230936527252,"164":0.04254797473549843,"165":-0.12937627732753754,"166":-0.11580897122621536,"167":-0.1953955888748169,"168":0.017312651500105858,"169":0.11789610981941223,"170":-0.1114828884601593,"171":-0.06806980073451996,"172":-0.01978384703397751,"173":0.08512556552886963,"174":-0.15755917131900787,"175":-0.13350287079811096,"176":-0.14571833610534668,"177":-0.052546218037605286,"178":0.08575747162103653,"179":0.1268998682498932,"180":-0.02927253767848015,"181":0.07813024520874023,"182":0.18480564653873444,"183":-0.1736232340335846,"184":-0.20876023173332214,"185":-0.03963591158390045,"186":0.05683193728327751,"187":-0.05606742575764656,"188":-0.003423841902986169,"189":-0.05259983614087105,"190":0.16385862231254578,"191":0.15085993707180023,"192":0.03482651337981224,"193":-0.1473478376865387,"194":-0.009008018299937248,"195":0.16861428320407867,"196":0.2109678089618683,"197":-0.03589601814746857,"198":0.07067761570215225,"199":0.20178121328353882,"200":-0.1614016741514206,"201":0.03696748986840248,"202":0.21243368089199066,"203":0.014570102095603943,"204":0.20831474661827087,"205":0.2178659439086914,"206":0.13353878259658813,"207":0.12655703723430634,"208":-0.07639496773481369,"209":-0.10190023481845856,"210":-0.18819616734981537,"211":-0.03440806642174721,"212":-0.040023718029260635,"213":-0.04900522902607918,"214":-0.09511277079582214,"215":0.08056560903787613,"216":-0.15419721603393555,"217":0.005541845690459013,"218":-0.07532686740159988,"219":-0.17444996535778046,"220":-0.18966183066368103,"221":0.13253428041934967,"222":-0.03170198202133179,"223":-0.12135131657123566,"224":-0.15138506889343262,"225":0.0641137957572937,"226":-0.06995370984077454,"227":-0.028544574975967407,"228":-0.18210859596729279,"229":-0.0657358467578888,"230":-0.1326623409986496,"231":0.11885425448417664,"232":-0.24888814985752106,"233":0.1284336894750595,"234":-0.11326773464679718,"235":0.11529561877250671,"236":0.1404031217098236,"237":0.10036176443099976,"238":0.10744651407003403,"239":0.05601141229271889,"240":-0.2134142965078354,"241":-0.00644277548417449,"242":-0.1846841722726822,"243":-0.18036819994449615,"244":-0.1527935266494751,"245":0.15901416540145874,"246":-0.20157009363174438,"247":-0.17661315202713013,"248":-0.037672899663448334,"249":-0.20535504817962646,"250":-0.09237153083086014,"251":0.034937355667352676,"252":0.033152710646390915,"253":-0.025332801043987274,"254":0.16227450966835022,"255":0.224732905626297,"256":0.00024038746778387576,"257":-0.09809949994087219,"258":0.13693466782569885,"259":-0.17654705047607422,"260":-0.006617393810302019,"261":0.12552675604820251,"262":0.10856164246797562,"263":-0.13406333327293396,"264":-0.008310692384839058,"265":0.07643384486436844,"266":0.04932142421603203,"267":0.10919754207134247,"268":-0.22272422909736633,"269":-0.029497360810637474,"270":-0.16023936867713928,"271":-0.10546089708805084,"272":-0.10601881891489029,"273":-0.15728934109210968}},"9":{"bias":0.038687996566295624,"weights":{"0":-0.06410645693540573,"1":-0.1287478655576706,"2":0.17366188764572144,"3":-0.041671570390462875,"4":-0.19612064957618713,"5":0.07389302551746368,"6":0.12163133919239044,"7":-0.07688786834478378,"8":0.20697404444217682,"9":-0.11499438434839249,"10":0.10634933412075043,"11":0.2286505252122879,"12":-0.17600801587104797,"13":-0.11021783202886581,"14":-0.011969786137342453,"15":0.05318094417452812,"16":-0.0002664231287781149,"17":0.09486479312181473,"18":-0.08888547122478485,"19":-0.014229550957679749,"20":0.01019937451928854,"21":0.11291201412677765,"22":0.023614048957824707,"23":-0.22280889749526978,"24":-0.12301678210496902,"25":0.17992059886455536,"26":0.06959525495767593,"27":0.227705180644989,"28":0.021119067445397377,"29":-0.12197515368461609,"30":0.07882308214902878,"31":0.0004257494874764234,"32":-0.11454661190509796,"33":-0.04663937911391258,"34":-0.11869752407073975,"35":0.04605648294091225,"36":-0.04649314656853676,"37":-0.09686397761106491,"38":0.05751607194542885,"39":0.2000734508037567,"40":-0.09247981011867523,"41":-0.11073429137468338,"42":-0.16388417780399323,"43":0.0911661759018898,"44":0.09490646421909332,"45":0.01921277679502964,"46":-0.022579794749617577,"47":0.14296868443489075,"48":-0.017274094745516777,"49":-0.04270757734775543,"50":-0.007877715863287449,"51":0.10004519671201706,"52":0.042274683713912964,"53":-0.04660053923726082,"54":-0.0624474473297596,"55":-0.1895381659269333,"56":0.14021970331668854,"57":-0.02672349475324154,"58":-0.19787459075450897,"59":-0.1436230093240738,"60":0.0089850053191185,"61":0.1538153439760208,"62":-0.029527461156249046,"63":0.15673986077308655,"64":-0.026008518412709236,"65":-0.14377151429653168,"66":-0.07446349412202835,"67":0.14486439526081085,"68":0.025663748383522034,"69":-0.09308233857154846,"70":-0.17679598927497864,"71":0.0024638567119836807,"72":0.016222236678004265,"73":0.024220464751124382,"74":0.18266470730304718,"75":-0.15825602412223816,"76":0.08514416962862015,"77":-0.10062605142593384,"78":0.0430067777633667,"79":0.2380218654870987,"80":-0.16501708328723907,"81":-0.26578691601753235,"82":-0.038567207753658295,"83":-0.19066661596298218,"84":-0.04878108948469162,"85":0.18257400393486023,"86":0.05689909681677818,"87":-0.13015499711036682,"88":0.03897826746106148,"89":0.02923871949315071,"90":0.15797482430934906,"91":-0.04026087000966072,"92":0.025790566578507423,"93":0.24818018078804016,"94":0.044410280883312225,"95":0.06503909826278687,"96":0.1612190455198288,"97":-0.14209628105163574,"98":0.1766917109489441,"99":0.02332676574587822,"100":0.14894017577171326,"101":-0.16230684518814087,"102":0.16957686841487885,"103":-0.08274444937705994,"104":-0.0921756848692894,"105":-0.1300227791070938,"106":-0.06628493964672089,"107":0.09216786921024323,"108":-0.12030094861984253,"109":0.1602008193731308,"110":0.08463557809591293,"111":0.11389988660812378,"112":0.1435677856206894,"113":-0.10436686128377914,"114":0.07548340409994125,"115":0.14802537858486176,"116":-0.14833159744739532,"117":-0.13881294429302216,"118":-0.044513098895549774,"119":-0.0353303886950016,"120":-0.04273582622408867,"121":0.20902760326862335,"122":-0.01029199454933405,"123":-0.2266247272491455,"124":-0.005706602707505226,"125":-0.0981835201382637,"126":0.07979036867618561,"127":0.07067371904850006,"128":0.09297709167003632,"129":-0.12244641780853271,"130":0.09502057731151581,"131":0.09505820274353027,"132":-0.0489472970366478,"133":0.06596975028514862,"134":0.10695677995681763,"135":0.05547269061207771,"136":-0.009771883487701416,"137":-0.1489248275756836,"138":-0.13080637156963348,"139":-0.14273010194301605,"140":-0.03508618846535683,"141":0.051916174590587616,"142":0.006644918117672205,"143":0.07085771858692169,"144":-0.0240784902125597,"145":0.1584804803133011,"146":0.12033472955226898,"147":-0.06430403888225555,"148":0.01103527843952179,"149":-0.19122983515262604,"150":0.11142999678850174,"151":-0.06966245174407959,"152":-0.03868287056684494,"153":-0.09745363146066666,"154":0.009231985546648502,"155":-0.1313868910074234,"156":-0.08801295608282089,"157":0.07734082639217377,"158":0.0016804732149466872,"159":-0.058565735816955566,"160":-0.03626342490315437,"161":0.1022808700799942,"162":-0.17601768672466278,"163":0.12659820914268494,"164":0.1569272130727768,"165":0.12828369438648224,"166":-0.024729527533054352,"167":-0.03204962611198425,"168":-0.07646059989929199,"169":-0.1694457232952118,"170":-0.21330082416534424,"171":0.16733050346374512,"172":-0.05649925395846367,"173":0.03516525775194168,"174":-0.1644761562347412,"175":-0.12101713567972183,"176":-0.06713352352380753,"177":-0.17226837575435638,"178":-0.2152329832315445,"179":0.140415757894516,"180":-0.15330250561237335,"181":-0.20292267203330994,"182":-0.17244018614292145,"183":0.10742195695638657,"184":-0.10778581351041794,"185":-0.05455104261636734,"186":-0.07873763144016266,"187":-0.17921146750450134,"188":-0.1598128378391266,"189":0.026323610916733742,"190":-0.1520695835351944,"191":0.1380559504032135,"192":-0.19155213236808777,"193":-0.1413702666759491,"194":-0.12384181469678879,"195":-0.07119075208902359,"196":-0.035988859832286835,"197":0.061563581228256226,"198":0.1249944195151329,"199":-0.1034926250576973,"200":0.087345652282238,"201":0.1719241738319397,"202":-0.13153144717216492,"203":-0.05596597492694855,"204":-0.11567515879869461,"205":0.16048288345336914,"206":0.1010790541768074,"207":-0.16020330786705017,"208":0.15609978139400482,"209":0.19748780131340027,"210":0.018471235409379005,"211":0.0029384377412497997,"212":0.11324074864387512,"213":0.1642901450395584,"214":0.08433389663696289,"215":0.1277793049812317,"216":-0.10898416489362717,"217":0.07103098183870316,"218":-0.12837575376033783,"219":0.02763991989195347,"220":0.06801813095808029,"221":0.08254574239253998,"222":-0.11379740387201309,"223":0.15311668813228607,"224":-0.019160833209753036,"225":-0.020874280482530594,"226":0.08506743609905243,"227":0.14026017487049103,"228":-0.15985335409641266,"229":0.21517421305179596,"230":-0.13019633293151855,"231":0.17364422976970673,"232":0.14510995149612427,"233":0.03082115575671196,"234":-0.1413196474313736,"235":-0.13506704568862915,"236":-0.06317674368619919,"237":-0.04850022494792938,"238":-0.000011576131328183692,"239":0.19551944732666016,"240":-0.03206386789679527,"241":0.08901050686836243,"242":-0.09304986149072647,"243":0.22110599279403687,"244":-0.09878108650445938,"245":-0.1468636840581894,"246":0.17998544871807098,"247":-0.054941143840551376,"248":-0.11490803956985474,"249":0.08010739088058472,"250":-0.1773054003715515,"251":0.09532052278518677,"252":0.07164742797613144,"253":-0.14617279171943665,"254":0.13085521757602692,"255":0.12152928858995438,"256":0.07446833699941635,"257":0.18666455149650574,"258":0.07599315047264099,"259":0.12206827104091644,"260":0.1742459088563919,"261":0.01605904847383499,"262":0.16830387711524963,"263":-0.1458026021718979,"264":0.0441964752972126,"265":-0.08701514452695847,"266":-0.0028621279634535313,"267":-0.14761902391910553,"268":-0.06880064308643341,"269":0.0037880372256040573,"270":0.02435881271958351,"271":0.139861598610878,"272":-0.1780460625886917,"273":0.19176247715950012}},"10":{"bias":-0.17610587179660797,"weights":{"0":0.1219567134976387,"1":0.07525239139795303,"2":-0.10945464670658112,"3":0.0341346338391304,"4":-0.17048993706703186,"5":-0.031276635825634,"6":0.040697596967220306,"7":-0.08564025163650513,"8":0.16262947022914886,"9":0.027887018397450447,"10":0.1521362066268921,"11":-0.008398644626140594,"12":0.09431083500385284,"13":-0.17405590415000916,"14":0.08928443491458893,"15":0.048140786588191986,"16":0.17372849583625793,"17":-0.12226085364818573,"18":0.11331050097942352,"19":-0.03497254103422165,"20":-0.20433442294597626,"21":-0.06353653967380524,"22":-0.13009630143642426,"23":0.09516613185405731,"24":0.20807692408561707,"25":-0.08528927713632584,"26":0.10014000535011292,"27":-0.13046501576900482,"28":0.1815522462129593,"29":-0.059492677450180054,"30":0.16197513043880463,"31":-0.08290700614452362,"32":-0.16684876382350922,"33":-0.02056492306292057,"34":0.16457921266555786,"35":-0.040514908730983734,"36":-0.13998886942863464,"37":0.19729402661323547,"38":-0.04080089554190636,"39":-0.12913738191127777,"40":0.16920393705368042,"41":-0.18222376704216003,"42":-0.12100011855363846,"43":0.13335955142974854,"44":0.1375764012336731,"45":0.12994614243507385,"46":0.08432698249816895,"47":0.17673249542713165,"48":0.1948109269142151,"49":-0.09004955738782883,"50":0.1669749915599823,"51":-0.053926631808280945,"52":0.0808606818318367,"53":0.12386399507522583,"54":-0.16645531356334686,"55":-0.1309177428483963,"56":-0.09717907756567001,"57":0.05664398521184921,"58":0.1099647656083107,"59":-0.01908724568784237,"60":-0.1678728312253952,"61":-0.1694149225950241,"62":-0.06586199998855591,"63":0.1249484047293663,"64":-0.005932901054620743,"65":-0.02160564437508583,"66":0.08905747532844543,"67":-0.15150777995586395,"68":-0.1559259295463562,"69":-0.17887461185455322,"70":0.1856755018234253,"71":0.15627089142799377,"72":-0.16187795996665955,"73":-0.1630040556192398,"74":0.0032753916457295418,"75":0.08522339910268784,"76":-0.1608390212059021,"77":0.10155817866325378,"78":-0.15719376504421234,"79":-0.08428864181041718,"80":0.03309376910328865,"81":-0.11612171679735184,"82":-0.14742305874824524,"83":0.06680196523666382,"84":0.17028392851352692,"85":-0.03891753777861595,"86":0.07464991509914398,"87":-0.127198725938797,"88":-0.1637718826532364,"89":-0.03268197923898697,"90":-0.018498491495847702,"91":0.1289626806974411,"92":-0.08600787073373795,"93":0.0018037670524790883,"94":-0.04491770267486572,"95":0.04467543587088585,"96":-0.0926397293806076,"97":0.17139814794063568,"98":0.058637961745262146,"99":-0.0875241830945015,"100":-0.16195344924926758,"101":-0.10419522970914841,"102":0.0655171275138855,"103":-0.12028045952320099,"104":-0.04881645366549492,"105":0.06676659733057022,"106":0.19849728047847748,"107":-0.18801794946193695,"108":0.049313612282276154,"109":0.17702722549438477,"110":-0.06309090554714203,"111":-0.09564246237277985,"112":-0.09706900268793106,"113":-0.16950936615467072,"114":0.007927842438220978,"115":0.1729823648929596,"116":0.033607106655836105,"117":-0.1475665122270584,"118":0.14881779253482819,"119":0.14684246480464935,"120":0.17770256102085114,"121":0.13765445351600647,"122":-0.06776242703199387,"123":-0.12390224635601044,"124":0.01223245169967413,"125":-0.16771085560321808,"126":0.17133553326129913,"127":0.0371699221432209,"128":0.05578462406992912,"129":-0.04858865588903427,"130":0.185781791806221,"131":-0.03302912041544914,"132":0.20716403424739838,"133":-0.014470021240413189,"134":0.04657365754246712,"135":-0.11406000703573227,"136":-0.12738201022148132,"137":0.01468901988118887,"138":0.14872263371944427,"139":-0.014521236531436443,"140":-0.15287776291370392,"141":0.0560837984085083,"142":-0.13269105553627014,"143":0.06624457240104675,"144":0.055033810436725616,"145":-0.12917529046535492,"146":-0.1617007702589035,"147":-0.10284487158060074,"148":0.11782081425189972,"149":-0.18008868396282196,"150":0.048123154789209366,"151":0.004465950187295675,"152":-0.02310527116060257,"153":-0.07311280816793442,"154":-0.0269071776419878,"155":-0.15969155728816986,"156":-0.09533223509788513,"157":0.1649215817451477,"158":0.1179146096110344,"159":-0.12206478416919708,"160":-0.17243418097496033,"161":0.016108185052871704,"162":0.16234593093395233,"163":-0.061878103762865067,"164":-0.16321603953838348,"165":0.09026915580034256,"166":0.1543343961238861,"167":0.03893542289733887,"168":0.013211630284786224,"169":0.16410590708255768,"170":0.12220302224159241,"171":0.18347738683223724,"172":-0.11266349256038666,"173":0.06553010642528534,"174":-0.09662578254938126,"175":-0.1783285290002823,"176":-0.12524281442165375,"177":-0.11037217825651169,"178":-0.08873026072978973,"179":0.14111804962158203,"180":0.0183703675866127,"181":0.0013976305490359664,"182":0.09795940667390823,"183":-0.010733716189861298,"184":0.02268216200172901,"185":0.04784715920686722,"186":-0.15143117308616638,"187":-0.05000348761677742,"188":0.09172308444976807,"189":-0.17107746005058289,"190":0.090471051633358,"191":-0.14087432622909546,"192":0.12094376981258392,"193":0.012262561358511448,"194":-0.17869368195533752,"195":0.026176095008850098,"196":0.17114867269992828,"197":-0.03989261016249657,"198":-0.044496484100818634,"199":0.12445371598005295,"200":0.018687406554818153,"201":-0.06700807809829712,"202":-0.1116207018494606,"203":-0.15918658673763275,"204":0.15659214556217194,"205":-0.050685662776231766,"206":0.11062041670084,"207":-0.20564451813697815,"208":-0.038139086216688156,"209":0.18275830149650574,"210":-0.13770149648189545,"211":-0.13338784873485565,"212":0.09455585479736328,"213":-0.07505127787590027,"214":-0.17191563546657562,"215":-0.023502429947257042,"216":-0.1661032885313034,"217":-0.06723890453577042,"218":0.16342566907405853,"219":-0.08948753029108047,"220":0.18183369934558868,"221":0.20244595408439636,"222":0.061523567885160446,"223":-0.12968389689922333,"224":-0.007188243325799704,"225":0.16870979964733124,"226":-0.18921756744384766,"227":-0.08054917305707932,"228":0.033279262483119965,"229":-0.15627609193325043,"230":0.10580524802207947,"231":0.10118699073791504,"232":-0.006210026331245899,"233":0.09730053693056107,"234":0.0979585126042366,"235":0.11130547523498535,"236":-0.07938637584447861,"237":0.16846153140068054,"238":0.07184978574514389,"239":-0.0023152045905590057,"240":0.19594843685626984,"241":-0.14302614331245422,"242":-0.06011238321661949,"243":-0.07749952375888824,"244":-0.1577446460723877,"245":-0.14868761599063873,"246":0.1740841120481491,"247":-0.1162448450922966,"248":-0.05937453359365463,"249":0.14271000027656555,"250":-0.08201301097869873,"251":-0.1868477314710617,"252":-0.19888363778591156,"253":-0.09158359467983246,"254":0.04564928263425827,"255":-0.004922312218695879,"256":-0.07654178142547607,"257":-0.14890649914741516,"258":0.0054600052535533905,"259":0.0147895822301507,"260":0.1315668821334839,"261":0.12898777425289154,"262":-0.18811921775341034,"263":-0.0839235931634903,"264":-0.163792222738266,"265":-0.07478797435760498,"266":0.1844346821308136,"267":0.07399903982877731,"268":0.07998968660831451,"269":0.1954285055398941,"270":-0.07970502972602844,"271":0.13220664858818054,"272":-0.18835271894931793,"273":0.1670336276292801}},"11":{"bias":0.036219190806150436,"weights":{"0":0.0937943086028099,"1":0.09667345136404037,"2":0.07654893398284912,"3":-0.038721852004528046,"4":-0.09760445356369019,"5":-0.04500539228320122,"6":-0.06072977930307388,"7":0.10249171406030655,"8":0.13545794785022736,"9":-0.1247742548584938,"10":-0.12748387455940247,"11":-0.17262615263462067,"12":0.11906969547271729,"13":-0.15954473614692688,"14":0.011225241236388683,"15":0.08459892868995667,"16":-0.10285399854183197,"17":0.18970683217048645,"18":-0.10572115331888199,"19":-0.10479439049959183,"20":0.16590985655784607,"21":0.06497425585985184,"22":-0.15485724806785583,"23":0.0639837458729744,"24":-0.09359163790941238,"25":0.1875419020652771,"26":0.18091034889221191,"27":0.12878309190273285,"28":-0.023356396704912186,"29":0.07425396889448166,"30":-0.18244753777980804,"31":-0.0981246680021286,"32":0.16800080239772797,"33":-0.022807646542787552,"34":0.16151876747608185,"35":-0.10684318840503693,"36":-0.01681698113679886,"37":0.07760995626449585,"38":-0.03710787743330002,"39":0.11034607887268066,"40":0.029115034267306328,"41":-0.1023181602358818,"42":0.14526018500328064,"43":-0.10532363504171371,"44":0.16003768146038055,"45":0.011420074850320816,"46":0.17610345780849457,"47":-0.09109093993902206,"48":0.10873132944107056,"49":-0.1156262457370758,"50":0.16589044034481049,"51":-0.07398000359535217,"52":-0.18524158000946045,"53":-0.13464677333831787,"54":-0.19394710659980774,"55":-0.1226908415555954,"56":0.1610325276851654,"57":-0.01674698293209076,"58":0.14743812382221222,"59":-0.13876782357692719,"60":-0.15821464359760284,"61":-0.11570793390274048,"62":0.08374091982841492,"63":-0.04355732724070549,"64":0.13487698137760162,"65":0.17599882185459137,"66":-0.14416196942329407,"67":-0.10919616371393204,"68":-0.024267785251140594,"69":-0.06481342017650604,"70":-0.0048996699042618275,"71":0.06975233554840088,"72":0.13483305275440216,"73":-0.11993952095508575,"74":0.11799103766679764,"75":0.1829264611005783,"76":0.15948398411273956,"77":0.05156860873103142,"78":-0.13774341344833374,"79":0.17922550439834595,"80":0.003131431993097067,"81":0.028821585699915886,"82":0.06486203521490097,"83":0.18604597449302673,"84":0.13897551596164703,"85":0.10139784216880798,"86":-0.04850834608078003,"87":-0.04613124206662178,"88":-0.005105738993734121,"89":0.07714755833148956,"90":0.11939293146133423,"91":-0.16853629052639008,"92":-0.08653707057237625,"93":0.04029063880443573,"94":0.14314021170139313,"95":-0.17697635293006897,"96":-0.10446729511022568,"97":0.1186627745628357,"98":0.17108474671840668,"99":0.10253670066595078,"100":-0.07013499736785889,"101":-0.05022978037595749,"102":-0.03311026841402054,"103":0.02445373125374317,"104":-0.01586315408349037,"105":-0.06649106740951538,"106":0.047872766852378845,"107":0.020159464329481125,"108":-0.16631770133972168,"109":-0.18251824378967285,"110":0.004317592829465866,"111":-0.19089290499687195,"112":-0.11837723851203918,"113":0.1882140189409256,"114":0.062016524374485016,"115":-0.1553621143102646,"116":0.17441785335540771,"117":-0.1196954995393753,"118":0.15907379984855652,"119":-0.035486895591020584,"120":-0.18194733560085297,"121":-0.004220833070576191,"122":0.10839828103780746,"123":0.1489335000514984,"124":0.1346297413110733,"125":-0.038431499153375626,"126":0.051666371524333954,"127":-0.0783737301826477,"128":-0.11316687613725662,"129":-0.14574453234672546,"130":0.15918824076652527,"131":0.14237600564956665,"132":0.09146305173635483,"133":-0.0062429350800812244,"134":-0.19852280616760254,"135":0.16593119502067566,"136":0.10913398116827011,"137":0.025012511759996414,"138":0.09006102383136749,"139":0.024887314066290855,"140":0.17892484366893768,"141":0.1432245671749115,"142":-0.10422360897064209,"143":-0.20125450193881989,"144":-0.12988373637199402,"145":-0.11404144763946533,"146":-0.1669110208749771,"147":-0.18340355157852173,"148":0.11613858491182327,"149":-0.18525250256061554,"150":-0.18961094319820404,"151":0.11228333413600922,"152":-0.027706434950232506,"153":-0.014584111981093884,"154":0.06691408902406693,"155":0.17173857986927032,"156":-0.002210813807323575,"157":-0.18912826478481293,"158":0.17057190835475922,"159":0.148885115981102,"160":-0.1631077080965042,"161":0.1544514000415802,"162":-0.022114306688308716,"163":0.03372557461261749,"164":-0.13257978856563568,"165":0.14319364726543427,"166":0.11364477127790451,"167":-0.18988695740699768,"168":0.11697153747081757,"169":0.15790410339832306,"170":0.05782940611243248,"171":-0.09343822300434113,"172":-0.12278172373771667,"173":-0.13204452395439148,"174":-0.15789571404457092,"175":-0.10659686475992203,"176":-0.10485250502824783,"177":-0.057159844785928726,"178":-0.009449489414691925,"179":-0.19273652136325836,"180":0.039912376552820206,"181":-0.10015271604061127,"182":-0.13383181393146515,"183":-0.1323186755180359,"184":-0.14323638379573822,"185":-0.13505934178829193,"186":0.04242559149861336,"187":0.07888387143611908,"188":-0.014657207764685154,"189":-0.01320609264075756,"190":-0.019470153376460075,"191":0.1201617419719696,"192":0.02313813753426075,"193":0.01736578159034252,"194":0.09367477893829346,"195":0.06438669562339783,"196":-0.03685106337070465,"197":-0.12309374660253525,"198":0.0059393784031271935,"199":0.1906430423259735,"200":0.10794363170862198,"201":-0.07209087163209915,"202":0.13276758790016174,"203":0.0738535225391388,"204":0.0013218329986557364,"205":-0.18382714688777924,"206":-0.018275761976838112,"207":0.10509257018566132,"208":-0.12466144561767578,"209":-0.039646994322538376,"210":0.05286220461130142,"211":-0.11137288808822632,"212":0.1495351642370224,"213":0.15348677337169647,"214":-0.18356859683990479,"215":0.1405356377363205,"216":0.03867194429039955,"217":0.10039954632520676,"218":0.007113253697752953,"219":0.17753958702087402,"220":0.052036602050065994,"221":0.12438440322875977,"222":0.12082377076148987,"223":-0.0971703752875328,"224":0.057808954268693924,"225":0.019593816250562668,"226":0.032288290560245514,"227":-0.12404815107584,"228":0.119552381336689,"229":-0.021213995292782784,"230":0.128983274102211,"231":-0.009547046385705471,"232":0.01416963990777731,"233":-0.06950900703668594,"234":0.047362759709358215,"235":0.07748380303382874,"236":-0.09209079295396805,"237":0.0462038628757,"238":0.0966486781835556,"239":-0.13841693103313446,"240":-0.17978090047836304,"241":0.09940803796052933,"242":0.144234299659729,"243":-0.14299415051937103,"244":0.08439149707555771,"245":-0.025341464206576347,"246":-0.11098934710025787,"247":-0.18554413318634033,"248":-0.11059591174125671,"249":-0.025306755676865578,"250":0.028760187327861786,"251":0.07309269905090332,"252":0.10060267895460129,"253":0.12439809739589691,"254":-0.1324726790189743,"255":-0.013247719965875149,"256":0.04058212786912918,"257":-0.030997537076473236,"258":0.05078870430588722,"259":0.16987980902194977,"260":-0.0362810455262661,"261":0.12531445920467377,"262":-0.0557686947286129,"263":-0.08723243325948715,"264":0.05894322693347931,"265":0.0684303492307663,"266":0.05787667632102966,"267":0.06523502618074417,"268":0.07319477945566177,"269":-0.13410572707653046,"270":0.09628837555646896,"271":0.16282562911510468,"272":0.06520763039588928,"273":0.12640973925590515}},"12":{"bias":-0.13552537560462952,"weights":{"0":-0.05752633884549141,"1":-0.04759751260280609,"2":0.11545692384243011,"3":-0.09217096120119095,"4":-0.11621808260679245,"5":0.10602880269289017,"6":0.29759612679481506,"7":-0.11894013732671738,"8":0.16187357902526855,"9":0.041792601346969604,"10":0.12305799126625061,"11":0.08729185909032822,"12":-0.1347503513097763,"13":-0.19689196348190308,"14":-0.05930756777524948,"15":-0.12954644858837128,"16":0.08304108679294586,"17":0.05170214921236038,"18":0.09942398220300674,"19":-0.22171813249588013,"20":-0.1928458958864212,"21":0.09490654617547989,"22":-0.2662932574748993,"23":-0.13556909561157227,"24":-0.05604514479637146,"25":-0.14188343286514282,"26":0.10498446226119995,"27":-0.00426371768116951,"28":-0.009219756349921227,"29":0.11173060536384583,"30":0.17018276453018188,"31":0.21419407427310944,"32":0.1566915363073349,"33":0.043584633618593216,"34":0.15555445849895477,"35":0.015623503364622593,"36":-0.035958874970674515,"37":0.11058834940195084,"38":0.18861183524131775,"39":-0.17253349721431732,"40":0.10772876441478729,"41":-0.13416197896003723,"42":0.1617070585489273,"43":-0.040696416050195694,"44":-0.02438080869615078,"45":-0.09536785632371902,"46":-0.07682749629020691,"47":-0.10944169014692307,"48":0.035948459059000015,"49":-0.05626729130744934,"50":-0.03549249470233917,"51":-0.0037888234946876764,"52":0.11771976947784424,"53":0.05611010268330574,"54":0.0005772308795712888,"55":0.07751644402742386,"56":-0.13861455023288727,"57":-0.07812701910734177,"58":0.10545558482408524,"59":0.12054614722728729,"60":0.08246861398220062,"61":-0.1663329303264618,"62":0.013903510756790638,"63":0.19610533118247986,"64":0.05706862360239029,"65":-0.003977886401116848,"66":0.13798139989376068,"67":0.0685662180185318,"68":0.0845685675740242,"69":0.09628918766975403,"70":0.13623015582561493,"71":-0.1874757707118988,"72":-0.024443797767162323,"73":-0.05432179570198059,"74":0.0649111345410347,"75":-0.1730624884366989,"76":0.052100684493780136,"77":-0.10380248725414276,"78":0.04571736231446266,"79":-0.12076465785503387,"80":0.09231862425804138,"81":-0.04493784159421921,"82":-0.1531991809606552,"83":0.029141847044229507,"84":0.022071249783039093,"85":-0.11216184496879578,"86":-0.22710563242435455,"87":0.06233604997396469,"88":0.09873665869235992,"89":-0.0116166016086936,"90":0.07185215502977371,"91":-0.15898796916007996,"92":-0.11726991087198257,"93":-0.0956219881772995,"94":-0.09161821007728577,"95":0.16020141541957855,"96":0.04721217602491379,"97":-0.1719490885734558,"98":-0.08970712125301361,"99":0.07987169176340103,"100":0.1338653266429901,"101":0.018227454274892807,"102":-0.14442317187786102,"103":0.18080739676952362,"104":0.10269421339035034,"105":0.19750210642814636,"106":0.125566303730011,"107":-0.16163182258605957,"108":-0.09250346571207047,"109":0.15606844425201416,"110":-0.10281262546777725,"111":0.06280307471752167,"112":-0.14877170324325562,"113":0.09109143167734146,"114":-0.012266090139746666,"115":-0.11332929879426956,"116":-0.09880770742893219,"117":-0.18225887417793274,"118":-0.1510981321334839,"119":0.09349630028009415,"120":-0.16734908521175385,"121":0.25266456604003906,"122":-0.11498875170946121,"123":-0.1163221001625061,"124":0.12586618959903717,"125":-0.13872866332530975,"126":0.16793285310268402,"127":0.052829571068286896,"128":0.03388027101755142,"129":0.16339373588562012,"130":-0.1323806494474411,"131":-0.05263982713222504,"132":0.011765362694859505,"133":-0.10523305833339691,"134":0.14840272068977356,"135":-0.02397085539996624,"136":-0.1724328100681305,"137":0.12471506744623184,"138":-0.12987129390239716,"139":0.13074369728565216,"140":0.029405348002910614,"141":-0.04174639657139778,"142":-0.09382300823926926,"143":0.2196238785982132,"144":-0.1505546122789383,"145":0.08189348876476288,"146":-0.06814168393611908,"147":-0.05705331638455391,"148":0.08223957568407059,"149":0.14258068799972534,"150":0.12215635180473328,"151":0.050658807158470154,"152":-0.06989764422178268,"153":-0.2306913137435913,"154":-0.21226710081100464,"155":-0.09429401904344559,"156":-0.0013508619740605354,"157":-0.02373644709587097,"158":-0.016047367826104164,"159":0.13589580357074738,"160":-0.12677232921123505,"161":-0.08911977708339691,"162":-0.16162708401679993,"163":-0.14345459640026093,"164":0.0395587757229805,"165":0.1372031718492508,"166":-0.11044800281524658,"167":-0.11809803545475006,"168":-0.20530052483081818,"169":-0.10381007939577103,"170":0.0132330022752285,"171":-0.040886737406253815,"172":-0.12793152034282684,"173":0.006145360413938761,"174":0.030674412846565247,"175":0.08756198734045029,"176":-0.10068775713443756,"177":-0.17345455288887024,"178":-0.21325010061264038,"179":-0.12560008466243744,"180":-0.09689552336931229,"181":-0.03501760959625244,"182":-0.09215328097343445,"183":0.0821329653263092,"184":0.13260160386562347,"185":0.09865933656692505,"186":-0.10827452689409256,"187":0.05559993162751198,"188":-0.15971194207668304,"189":0.0062987045384943485,"190":0.1581142693758011,"191":-0.1891564130783081,"192":-0.01831839233636856,"193":0.08788245916366577,"194":0.1353140026330948,"195":-0.1768786460161209,"196":-0.19951356947422028,"197":-0.19722862541675568,"198":-0.11796217411756516,"199":-0.19240786135196686,"200":-0.025054357945919037,"201":0.06493876874446869,"202":0.003165716305375099,"203":-0.04620043560862541,"204":-0.00042802031384781003,"205":0.06282491981983185,"206":-0.0699671283364296,"207":-0.16187942028045654,"208":0.025677330791950226,"209":-0.16273179650306702,"210":-0.12273990362882614,"211":0.14921097457408905,"212":0.08890224248170853,"213":-0.05059916526079178,"214":0.014239966869354248,"215":-0.14041651785373688,"216":-0.10525073856115341,"217":0.1491154134273529,"218":-0.15229909121990204,"219":-0.19426491856575012,"220":-0.16085177659988403,"221":0.21658270061016083,"222":0.028407951816916466,"223":0.11863677948713303,"224":0.1631482094526291,"225":0.18700705468654633,"226":0.10319440066814423,"227":0.06412691622972488,"228":-0.14580942690372467,"229":0.006547389551997185,"230":0.016257507726550102,"231":0.03443868085741997,"232":-0.021953025832772255,"233":0.1648178994655609,"234":0.10174562782049179,"235":-0.2168508619070053,"236":-0.04443841055035591,"237":-0.058420028537511826,"238":0.1769370287656784,"239":-0.13864122331142426,"240":-0.005341378506273031,"241":0.08241802453994751,"242":0.12191397696733475,"243":-0.16927054524421692,"244":0.08936605602502823,"245":-0.024731073528528214,"246":0.22497199475765228,"247":0.005828285124152899,"248":0.21963247656822205,"249":0.15465272963047028,"250":-0.06142326816916466,"251":0.05511406436562538,"252":-0.02863018587231636,"253":-0.17901386320590973,"254":-0.045438677072525024,"255":0.029351020231842995,"256":-0.22359342873096466,"257":-0.08258705586194992,"258":-0.1110646054148674,"259":0.07704582810401917,"260":0.02376759611070156,"261":0.023918280377984047,"262":0.0002924849686678499,"263":0.17879901826381683,"264":0.14604029059410095,"265":0.07444054633378983,"266":-0.2002749741077423,"267":0.09482887387275696,"268":0.0713614970445633,"269":0.0042000641115009785,"270":-0.013337979093194008,"271":-0.0021498834248632193,"272":0.14758343994617462,"273":0.1799776405096054}},"13":{"bias":-0.08894137293100357,"weights":{"0":-0.2205154299736023,"1":-0.05848730728030205,"2":0.013022314757108688,"3":0.15274563431739807,"4":0.17603525519371033,"5":-0.23688435554504395,"6":-0.06512625515460968,"7":0.10814892500638962,"8":-0.11158101260662079,"9":-0.2559591233730316,"10":-0.09742020070552826,"11":-0.06143832206726074,"12":0.06875341385602951,"13":0.1851937621831894,"14":0.2192302942276001,"15":0.15951423346996307,"16":-0.10555543005466461,"17":-0.07459205389022827,"18":-0.10028579086065292,"19":0.20905381441116333,"20":0.09879087656736374,"21":0.0615549199283123,"22":0.10189816355705261,"23":-0.05508822575211525,"24":0.01825500838458538,"25":-0.18097594380378723,"26":0.10574331134557724,"27":0.06964776664972305,"28":-0.12165284156799316,"29":-0.12557697296142578,"30":-0.09022809565067291,"31":-0.03227987512946129,"32":0.10031583160161972,"33":0.11359317600727081,"34":-0.091734878718853,"35":0.1696772575378418,"36":0.007174964528530836,"37":0.04388335347175598,"38":-0.08208564668893814,"39":-0.1499098390340805,"40":0.13742434978485107,"41":-0.0907120332121849,"42":0.04778933897614479,"43":0.024156412109732628,"44":0.19246895611286163,"45":-0.15404504537582397,"46":-0.010807856917381287,"47":-0.11413073539733887,"48":0.0551191084086895,"49":-0.1557353138923645,"50":0.005296550691127777,"51":-0.17823395133018494,"52":-0.11260277777910233,"53":-0.06695196777582169,"54":-0.052491385489702225,"55":0.18803751468658447,"56":0.18245358765125275,"57":-0.1726064383983612,"58":0.14698268473148346,"59":0.1837509572505951,"60":0.22297276556491852,"61":-0.044042035937309265,"62":-0.1995125263929367,"63":0.1387096643447876,"64":-0.10888005793094635,"65":-0.15738941729068756,"66":-0.08948834240436554,"67":0.10426148772239685,"68":0.16896502673625946,"69":0.16526731848716736,"70":0.14530451595783234,"71":0.21327237784862518,"72":0.03434894606471062,"73":-0.014062453992664814,"74":-0.2219688445329666,"75":0.10036348551511765,"76":-0.13630999624729156,"77":-0.0899067223072052,"78":0.0038177636452019215,"79":-0.26086246967315674,"80":-0.02421770617365837,"81":0.20781369507312775,"82":-0.04680375009775162,"83":-0.044861871749162674,"84":-0.07695211470127106,"85":0.21797959506511688,"86":0.11010289937257767,"87":-0.02109452523291111,"88":0.08419754356145859,"89":0.14050427079200745,"90":0.17748789489269257,"91":0.1809762418270111,"92":-0.13265971839427948,"93":-0.14046530425548553,"94":-0.08835765719413757,"95":-0.11749056726694107,"96":0.12639544904232025,"97":0.18484583497047424,"98":-0.03650397062301636,"99":-0.07664559781551361,"100":-0.18678462505340576,"101":-0.033657997846603394,"102":0.16364870965480804,"103":0.1629907339811325,"104":0.12250947952270508,"105":-0.12008699029684067,"106":0.15064769983291626,"107":-0.15248176455497742,"108":-0.029074233025312424,"109":0.09256251156330109,"110":0.1552634984254837,"111":-0.1336856186389923,"112":-0.022629473358392715,"113":-0.0014472441980615258,"114":0.06686156988143921,"115":0.0675167590379715,"116":0.028484942391514778,"117":0.07834142446517944,"118":0.19450028240680695,"119":0.1175740510225296,"120":-0.12902165949344635,"121":-0.023970816284418106,"122":0.04944846034049988,"123":0.26448744535446167,"124":-0.035746872425079346,"125":0.2233455628156662,"126":0.022287802770733833,"127":-0.18421293795108795,"128":0.00811808742582798,"129":-0.15728889405727386,"130":-0.03485976904630661,"131":-0.07852382212877274,"132":-0.1826791614294052,"133":0.079817034304142,"134":0.008672976866364479,"135":-0.15008297562599182,"136":0.20755839347839355,"137":-0.03907905891537666,"138":0.18349777162075043,"139":0.20579738914966583,"140":-0.13985446095466614,"141":0.20941828191280365,"142":0.04750967025756836,"143":-0.2047579139471054,"144":-0.05631183832883835,"145":-0.1501958668231964,"146":0.002848746720701456,"147":0.20144617557525635,"148":0.15490101277828217,"149":0.14766927063465118,"150":0.16048169136047363,"151":-0.0771806389093399,