{"classifier":{"brain":{"sizes":[274,137,2],"layers":[{"0":{},"1":{},"2":{},"3":{},"4":{},"5":{},"6":{},"7":{},"8":{},"9":{},"10":{},"11":{},"12":{},"13":{},"14":{},"15":{},"16":{},"17":{},"18":{},"19":{},"20":{},"21":{},"22":{},"23":{},"24":{},"25":{},"26":{},"27":{},"28":{},"29":{},"30":{},"31":{},"32":{},"33":{},"34":{},"35":{},"36":{},"37":{},"38":{},"39":{},"40":{},"41":{},"42":{},"43":{},"44":{},"45":{},"46":{},"47":{},"48":{},"49":{},"50":{},"51":{},"52":{},"53":{},"54":{},"55":{},"56":{},"57":{},"58":{},"59":{},"60":{},"61":{},"62":{},"63":{},"64":{},"65":{},"66":{},"67":{},"68":{},"69":{},"70":{},"71":{},"72":{},"73":{},"74":{},"75":{},"76":{},"77":{},"78":{},"79":{},"80":{},"81":{},"82":{},"83":{},"84":{},"85":{},"86":{},"87":{},"88":{},"89":{},"90":{},"91":{},"92":{},"93":{},"94":{},"95":{},"96":{},"97":{},"98":{},"99":{},"100":{},"101":{},"102":{},"103":{},"104":{},"105":{},"106":{},"107":{},"108":{},"109":{},"110":{},"111":{},"112":{},"113":{},"114":{},"115":{},"116":{},"117":{},"118":{},"119":{},"120":{},"121":{},"122":{},"123":{},"124":{},"125":{},"126":{},"127":{},"128":{},"129":{},"130":{},"131":{},"132":{},"133":{},"134":{},"135":{},"136":{},"137":{},"138":{},"139":{},"140":{},"141":{},"142":{},"143":{},"144":{},"145":{},"146":{},"147":{},"148":{},"149":{},"150":{},"151":{},"152":{},"153":{},"154":{},"155":{},"156":{},"157":{},"158":{},"159":{},"160":{},"161":{},"162":{},"163":{},"164":{},"165":{},"166":{},"167":{},"168":{},"169":{},"170":{},"171":{},"172":{},"173":{},"174":{},"175":{},"176":{},"177":{},"178":{},"179":{},"180":{},"181":{},"182":{},"183":{},"184":{},"185":{},"186":{},"187":{},"188":{},"189":{},"190":{},"191":{},"192":{},"193":{},"194":{},"195":{},"196":{},"197":{},"198":{},"199":{},"200":{},"201":{},"202":{},"203":{},"204":{},"205":{},"206":{},"207":{},"208":{},"209":{},"210":{},"211":{},"212":{},"213":{},"214":{},"215":{},"216":{},"217":{},"218":{},"219":{},"220":{},"221":{},"222":{},"223":{},"224":{},"225":{},"226":{},"227":{},"228":{},"229":{},"230":{},"231":{},"232":{},"233":{},"234":{},"235":{},"236":{},"237":{},"238":{},"239":{},"240":{},"241":{},"242":{},"243":{},"244":{},"245":{},"246":{},"247":{},"248":{},"249":{},"250":{},"251":{},"252":{},"253":{},"254":{},"255":{},"256":{},"257":{},"258":{},"259":{},"260":{},"261":{},"262":{},"263":{},"264":{},"265":{},"266":{},"267":{},"268":{},"269":{},"270":{},"271":{},"272":{},"273":{}},{"0":{"bias":-0.009930501691997051,"weights":{"0":-0.08771084249019623,"1":0.09578544646501541,"2":-0.06616062670946121,"3":0.23271168768405914,"4":0.17229977250099182,"5":-0.15439769625663757,"6":-0.3798719048500061,"7":0.036304134875535965,"8":0.052859559655189514,"9":-0.16171115636825562,"10":0.08626053482294083,"11":0.11362849175930023,"12":0.015091159380972385,"13":-0.05086636543273926,"14":0.0460461787879467,"15":-0.13481873273849487,"16":-0.1636432707309723,"17":0.0490708127617836,"18":-0.154920294880867,"19":0.21194587647914886,"20":0.11334412544965744,"21":-0.024332527071237564,"22":0.22915899753570557,"23":0.08019005507230759,"24":0.12421604990959167,"25":0.1151232197880745,"26":-0.008272754028439522,"27":-0.12128002196550369,"28":-0.1888609230518341,"29":-0.09322956204414368,"30":-0.1509428471326828,"31":-0.03985484689474106,"32":0.016606075689196587,"33":-0.1320083886384964,"34":0.16358615458011627,"35":0.03970559313893318,"36":0.06654223799705505,"37":0.06245068833231926,"38":0.0596676729619503,"39":-0.10802871733903885,"40":-0.22629499435424805,"41":0.08954930305480957,"42":-0.12135343998670578,"43":0.04793640598654747,"44":0.24076828360557556,"45":0.044092219322919846,"46":-0.08517380058765411,"47":-0.16779789328575134,"48":-0.25967860221862793,"49":-0.023041896522045135,"50":-0.12505343556404114,"51":-0.16243721544742584,"52":0.010041852481663227,"53":0.008530567400157452,"54":0.12435988336801529,"55":0.00284095318056643,"56":-0.14819981157779694,"57":0.2062562108039856,"58":0.0589679554104805,"59":0.09056980162858963,"60":0.04604622349143028,"61":-0.049015071243047714,"62":0.03254014998674393,"63":-0.043946463614702225,"64":0.02478528395295143,"65":-0.22753603756427765,"66":0.11488885432481766,"67":-0.1645275503396988,"68":0.1258433610200882,"69":-0.022881532087922096,"70":-0.16351443529129028,"71":0.23566682636737823,"72":-0.14586572349071503,"73":0.010007238015532494,"74":-0.007380140479654074,"75":-0.11487485468387604,"76":0.04429202154278755,"77":-0.2274055778980255,"78":-0.2875799834728241,"79":0.08253240585327148,"80":-0.12309589236974716,"81":0.10740327090024948,"82":0.2428949922323227,"83":0.02660275436937809,"84":-0.11669455468654633,"85":0.1261538565158844,"86":0.05714722350239754,"87":-0.016690757125616074,"88":-0.03084297478199005,"89":-0.13923558592796326,"90":-0.043014973402023315,"91":-0.10140746086835861,"92":-0.11620083451271057,"93":-0.1884515881538391,"94":-0.11629533767700195,"95":-0.21513716876506805,"96":0.11748483777046204,"97":0.13221020996570587,"98":0.1472627967596054,"99":-0.1575101613998413,"100":-0.09021347016096115,"101":0.026026489213109016,"102":-0.14884479343891144,"103":-0.12782463431358337,"104":-0.09201938658952713,"105":-0.06275752931833267,"106":-0.04447069391608238,"107":-0.22097040712833405,"108":-0.17705507576465607,"109":0.018699897453188896,"110":-0.02166672609746456,"111":-0.2132851779460907,"112":0.0867941752076149,"113":-0.16215984523296356,"114":-0.06497441977262497,"115":-0.2190234214067459,"116":-0.141280859708786,"117":-0.14324723184108734,"118":0.13386289775371552,"119":0.19836533069610596,"120":0.14370445907115936,"121":-0.11471860855817795,"122":0.03266515955328941,"123":0.06451589614152908,"124":0.22217535972595215,"125":0.23329873383045197,"126":0.15143725275993347,"127":-0.08163460344076157,"128":0.08652616292238235,"129":-0.06386744230985641,"130":-0.029338933527469635,"131":-0.2125704139471054,"132":-0.1655818372964859,"133":0.0874045118689537,"134":0.04364360123872757,"135":-0.042238086462020874,"136":0.10326223075389862,"137":0.06191233918070793,"138":0.0684293881058693,"139":-0.13519567251205444,"140":-0.1139332577586174,"141":0.1922016143798828,"142":-0.14205493032932281,"143":-0.0477060005068779,"144":-0.2327297180891037,"145":-0.07146476954221725,"146":-0.05216199904680252,"147":0.1516609936952591,"148":-0.025470247492194176,"149":0.1615569144487381,"150":0.23247219622135162,"151":-0.09299106895923615,"152":-0.029000043869018555,"153":-0.03921150788664818,"154":0.08771216124296188,"155":-0.1124967709183693,"156":0.09523012489080429,"157":0.1350303739309311,"158":-0.011380682699382305,"159":-0.1649247258901596,"160":-0.11438475549221039,"161":0.042306508868932724,"162":-0.09973656386137009,"163":0.03280222415924072,"164":-0.185768261551857,"165":-0.10715944319963455,"166":-0.11639012396335602,"167":-0.21087221801280975,"168":0.17976902425289154,"169":-0.15083125233650208,"170":0.011263941414654255,"171":0.08823508024215698,"172":-0.16080331802368164,"173":0.08188031613826752,"174":-0.08135704696178436,"175":0.06604383885860443,"176":0.023377878591418266,"177":-0.11676041036844254,"178":0.11829286068677902,"179":0.10156107693910599,"180":0.1752728521823883,"181":0.10011447221040726,"182":-0.07235987484455109,"183":-0.18464504182338715,"184":0.06516830623149872,"185":0.0731583684682846,"186":0.04682665318250656,"187":0.09186135232448578,"188":0.008378369733691216,"189":0.07147267460823059,"190":-0.02062838152050972,"191":-0.010934769175946712,"192":-0.1275138258934021,"193":0.18324124813079834,"194":-0.1696833074092865,"195":0.13407965004444122,"196":-0.03256284445524216,"197":-0.09678982198238373,"198":0.10214405506849289,"199":-0.12135554105043411,"200":-0.12659357488155365,"201":0.16990171372890472,"202":0.014057248830795288,"203":0.2187134325504303,"204":0.049744613468647,"205":0.16706231236457825,"206":-0.02180723287165165,"207":0.10993009805679321,"208":-0.054918088018894196,"209":-0.0148837361484766,"210":-0.0918608084321022,"211":-0.11772610992193222,"212":-0.20223253965377808,"213":-0.03139147534966469,"214":-0.046125613152980804,"215":-0.00016144719847943634,"216":0.014854449778795242,"217":0.11651938408613205,"218":0.18567411601543427,"219":0.13092418015003204,"220":0.04955897852778435,"221":0.1292254775762558,"222":-0.2490171194076538,"223":-0.07259155809879303,"224":0.10763390362262726,"225":-0.07985053211450577,"226":-0.15943868458271027,"227":-0.04155359044671059,"228":0.011391119100153446,"229":-0.04458814114332199,"230":-0.1499055176973343,"231":-0.02894694171845913,"232":0.019568361341953278,"233":0.13573087751865387,"234":0.1772070974111557,"235":-0.13433268666267395,"236":0.10573279112577438,"237":0.100867860019207,"238":0.21143803000450134,"239":-0.0008352752774953842,"240":0.1658647060394287,"241":-0.10224925726652145,"242":-0.2307969629764557,"243":0.04135999083518982,"244":-0.14257238805294037,"245":-0.18502509593963623,"246":-0.2515525817871094,"247":0.004393665120005608,"248":-0.11406168341636658,"249":-0.22038176655769348,"250":0.17266841232776642,"251":0.09617608040571213,"252":-0.056046340614557266,"253":-0.03912894427776337,"254":-0.005893416702747345,"255":0.12936438620090485,"256":0.14840535819530487,"257":-0.16006284952163696,"258":-0.10386292636394501,"259":0.15646079182624817,"260":-0.17579889297485352,"261":0.029904181137681007,"262":-0.06724842637777328,"263":0.02153768204152584,"264":0.033181171864271164,"265":-0.08787868171930313,"266":-0.08329299837350845,"267":-0.0615493543446064,"268":-0.1453157514333725,"269":-0.19561795890331268,"270":-0.06339699774980545,"271":-0.23616774380207062,"272":-0.15835443139076233,"273":-0.026176629588007927}},"1":{"bias":0.0907122865319252,"weights":{"0":0.13453532755374908,"1":0.1129373237490654,"2":0.09688601642847061,"3":-0.007021051831543446,"4":-0.07671535760164261,"5":0.1534818857908249,"6":-0.15337087213993073,"7":-0.188688263297081,"8":0.15015359222888947,"9":-0.19306713342666626,"10":0.1206236258149147,"11":0.13281339406967163,"12":-0.058953769505023956,"13":0.15387246012687683,"14":-0.02138143591582775,"15":0.11798924952745438,"16":-0.18928347527980804,"17":0.2016286849975586,"18":0.08903446048498154,"19":-0.1178964152932167,"20":-0.054582707583904266,"21":-0.1571165770292282,"22":0.009179153479635715,"23":0.19620683789253235,"24":-0.1484479457139969,"25":0.04266246780753136,"26":-0.13900312781333923,"27":-0.13790608942508698,"28":-0.026035692542791367,"29":0.033229243010282516,"30":0.13099181652069092,"31":-0.214699849486351,"32":0.11466773599386215,"33":-0.09182792156934738,"34":0.08340214192867279,"35":-0.14654329419136047,"36":-0.03394876420497894,"37":0.0322185680270195,"38":0.10241060703992844,"39":-0.10127575695514679,"40":-0.16772589087486267,"41":-0.04251866787672043,"42":0.16062003374099731,"43":-0.14165093004703522,"44":-0.12613360583782196,"45":0.05911005288362503,"46":0.0502159483730793,"47":0.07400199770927429,"48":0.156145840883255,"49":-0.11769445240497589,"50":-0.12297286838293076,"51":0.08474330604076385,"52":-0.1745530068874359,"53":-0.14671477675437927,"54":-0.04347112774848938,"55":0.17575715482234955,"56":0.11071817576885223,"57":-0.15360823273658752,"58":-0.02254081703722477,"59":-0.08401615172624588,"60":0.000041040137148229405,"61":0.02504337765276432,"62":0.07558894157409668,"63":-0.1706867516040802,"64":0.0985155925154686,"65":-0.09781068563461304,"66":-0.19160231947898865,"67":-0.038417916744947433,"68":0.08678943663835526,"69":-0.09409748017787933,"70":-0.18638381361961365,"71":0.13824500143527985,"72":-0.22229132056236267,"73":0.11825487017631531,"74":-0.1463748812675476,"75":-0.14405256509780884,"76":0.19122374057769775,"77":-0.2101084142923355,"78":-0.1716632843017578,"79":0.008212215267121792,"80":0.133633092045784,"81":0.16962191462516785,"82":-0.05628032609820366,"83":-0.010125696659088135,"84":-0.08413207530975342,"85":-0.0857798233628273,"86":-0.1556197702884674,"87":-0.1586700826883316,"88":-0.1404666155576706,"89":0.0721762403845787,"90":-0.19307394325733185,"91":-0.052165307104587555,"92":0.016385046765208244,"93":-0.053326837718486786,"94":0.02677762322127819,"95":-0.03918476775288582,"96":0.08111982047557831,"97":0.02097065933048725,"98":-0.06968120485544205,"99":-0.07537053525447845,"100":-0.10779304057359695,"101":0.11293603479862213,"102":0.1300039291381836,"103":-0.056133296340703964,"104":0.1232561394572258,"105":-0.14094021916389465,"106":0.03182398900389671,"107":0.02174004167318344,"108":0.07326716929674149,"109":-0.15686847269535065,"110":-0.15326137840747833,"111":0.14848418533802032,"112":0.08201251178979874,"113":0.04849393293261528,"114":0.14842893183231354,"115":-0.08364566415548325,"116":0.07863383740186691,"117":-0.10816098749637604,"118":0.15830188989639282,"119":-0.13131582736968994,"120":0.15322096645832062,"121":-0.22487206757068634,"122":-0.14629237353801727,"123":-0.14087778329849243,"124":0.20230942964553833,"125":-0.143317312002182,"126":-0.2022416740655899,"127":-0.14297039806842804,"128":0.08664359152317047,"129":0.0854894295334816,"130":0.08773282170295715,"131":0.06050722673535347,"132":0.17813052237033844,"133":0.04366031661629677,"134":0.13685743510723114,"135":-0.06988933682441711,"136":-0.1531747281551361,"137":0.013202741742134094,"138":-0.009873188100755215,"139":0.056000880897045135,"140":0.07938405126333237,"141":-0.06264282763004303,"142":-0.21344515681266785,"143":0.11215759813785553,"144":-0.16225476562976837,"145":0.09373921900987625,"146":-0.08360971510410309,"147":0.07577121257781982,"148":-0.02427169866859913,"149":-0.17985282838344574,"150":-0.0035640294663608074,"151":0.08571300655603409,"152":0.14719615876674652,"153":0.1327657848596573,"154":-0.0002821568923536688,"155":-0.09166668355464935,"156":-0.036272644996643066,"157":-0.10551486909389496,"158":-0.1420416533946991,"159":-0.1094193309545517,"160":-0.08898700028657913,"161":0.14528368413448334,"162":-0.09696460515260696,"163":0.14157874882221222,"164":-0.08902952075004578,"165":-0.189589262008667,"166":-0.19169551134109497,"167":0.040175747126340866,"168":-0.009516533464193344,"169":-0.08960960805416107,"170":-0.13610078394412994,"171":0.09340669959783554,"172":-0.10852280259132385,"173":-0.12522561848163605,"174":0.17339353263378143,"175":0.11512667685747147,"176":-0.040381383150815964,"177":-0.17843711376190186,"178":0.07158225029706955,"179":0.08634006977081299,"180":0.09871459007263184,"181":0.027855152264237404,"182":-0.01603280007839203,"183":0.15980716049671173,"184":0.019616739824414253,"185":0.18617673218250275,"186":0.1614323854446411,"187":-0.04436277970671654,"188":-0.07935655117034912,"189":0.20440196990966797,"190":-0.17849968373775482,"191":0.07374590635299683,"192":-0.07519830018281937,"193":0.1968616545200348,"194":-0.06847777962684631,"195":0.038809433579444885,"196":-0.025873646140098572,"197":0.11801627278327942,"198":-0.10791260004043579,"199":0.1680428683757782,"200":0.2023267149925232,"201":-0.1334599107503891,"202":-0.016414029523730278,"203":-0.1210569441318512,"204":0.20091208815574646,"205":-0.04614529013633728,"206":-0.08916336297988892,"207":0.15035603940486908,"208":0.10181968659162521,"209":-0.10069061815738678,"210":0.04610174521803856,"211":-0.12834973633289337,"212":-0.16924530267715454,"213":0.14588040113449097,"214":-0.06184905022382736,"215":-0.07445748895406723,"216":-0.20909692347049713,"217":0.056330546736717224,"218":-0.015612753108143806,"219":0.1122608557343483,"220":-0.0004603023699019104,"221":-0.19889873266220093,"222":-0.19204311072826385,"223":0.11774414032697678,"224":-0.19649182260036469,"225":-0.08264253288507462,"226":0.02167043648660183,"227":0.14191129803657532,"228":-0.045094043016433716,"229":-0.15457683801651,"230":-0.14100761711597443,"231":-0.0799589529633522,"232":-0.10748317092657089,"233":-0.1240544468164444,"234":0.005973248742520809,"235":0.025109073147177696,"236":0.11922339349985123,"237":-0.1872129887342453,"238":-0.1345003843307495,"239":0.1585143506526947,"240":0.016621528193354607,"241":-0.15106992423534393,"242":-0.13605687022209167,"243":0.024001741781830788,"244":0.06890127062797546,"245":0.1814519613981247,"246":0.04722580686211586,"247":-0.0016326861223205924,"248":-0.0369819812476635,"249":-0.07351023703813553,"250":-0.026965627446770668,"251":0.04732624441385269,"252":0.08856619894504547,"253":0.12597531080245972,"254":-0.006437225267291069,"255":0.0743948295712471,"256":-0.026643559336662292,"257":0.16499264538288116,"258":-0.10537736862897873,"259":0.08289583772420883,"260":0.18953324854373932,"261":-0.03693502023816109,"262":-0.13530878722667694,"263":-0.1486462950706482,"264":0.0650230273604393,"265":0.1454254686832428,"266":-0.016801033169031143,"267":-0.20829671621322632,"268":-0.025094207376241684,"269":-0.08468212932348251,"270":-0.048654988408088684,"271":-0.06342996656894684,"272":-0.1494554877281189,"273":0.160729318857193}},"2":{"bias":-0.06559222936630249,"weights":{"0":-0.15756787359714508,"1":-0.07308939844369888,"2":-0.01776246912777424,"3":0.07395520806312561,"4":0.021997744217514992,"5":0.028405850753188133,"6":-0.22038181126117706,"7":-0.040382564067840576,"8":-0.18410228192806244,"9":0.031163819134235382,"10":0.15462744235992432,"11":-0.00870022177696228,"12":0.024640578776597977,"13":0.011476607993245125,"14":-0.040407050400972366,"15":0.0343276709318161,"16":0.03877132013440132,"17":-0.07618868350982666,"18":0.2001379281282425,"19":0.20061570405960083,"20":0.0624922513961792,"21":-0.12930351495742798,"22":0.19807745516300201,"23":0.1959683746099472,"24":-0.11163832992315292,"25":-0.07984533905982971,"26":-0.00883411429822445,"27":-0.19756653904914856,"28":-0.06417207419872284,"29":-0.23815622925758362,"30":0.08832874894142151,"31":-0.14686405658721924,"32":0.07613982260227203,"33":-0.18727178871631622,"34":0.05078364163637161,"35":-0.11057847738265991,"36":-0.18319807946681976,"37":0.012467953376471996,"38":-0.24573488533496857,"39":0.11514698714017868,"40":0.06168267875909805,"41":-0.0906541720032692,"42":-0.09025700390338898,"43":-0.1229424998164177,"44":-0.01076834462583065,"45":-0.13069844245910645,"46":-0.1776515394449234,"47":-0.10029157996177673,"48":0.09740575402975082,"49":0.16895528137683868,"50":-0.1486368626356125,"51":-0.17500752210617065,"52":-0.1216302216053009,"53":-0.20056430995464325,"54":-0.18310537934303284,"55":0.2058703899383545,"56":0.13928720355033875,"57":-0.04855210706591606,"58":-0.10473816841840744,"59":-0.0022698501124978065,"60":-0.027424588799476624,"61":0.13523663580417633,"62":-0.24614357948303223,"63":0.014415317215025425,"64":-0.07600605487823486,"65":-0.001831676927395165,"66":0.11409405618906021,"67":-0.16418401896953583,"68":-0.10328122228384018,"69":0.10220356285572052,"70":-0.15485812723636627,"71":0.18266651034355164,"72":0.1339678317308426,"73":0.014908389188349247,"74":-0.15600968897342682,"75":-0.02866598777472973,"76":0.18130958080291748,"77":-0.1140645369887352,"78":0.03655846416950226,"79":-0.18247219920158386,"80":0.0026639949064701796,"81":-0.0393453873693943,"82":-0.021174678578972816,"83":-0.07290343940258026,"84":0.022101424634456635,"85":-0.12849600613117218,"86":0.13424615561962128,"87":0.191613107919693,"88":-0.08207891136407852,"89":0.07209852337837219,"90":-0.07281359285116196,"91":0.03745230659842491,"92":-0.09382856637239456,"93":-0.26082706451416016,"94":-0.1009548231959343,"95":-0.034414421766996384,"96":0.05467751622200012,"97":0.10722178220748901,"98":0.14023983478546143,"99":0.03563360497355461,"100":0.001061136252246797,"101":-0.025026822462677956,"102":0.006465050391852856,"103":-0.08333646506071091,"104":-0.145248681306839,"105":0.03137500584125519,"106":0.1575554609298706,"107":-0.17053250968456268,"108":-0.00562244700267911,"109":-0.12890709936618805,"110":0.09761809557676315,"111":0.12897807359695435,"112":-0.14440830051898956,"113":-0.2442995011806488,"114":-0.21927505731582642,"115":-0.1953229159116745,"116":0.10320130735635757,"117":-0.1522708386182785,"118":-0.0921388491988182,"119":0.19973070919513702,"120":0.16625593602657318,"121":-0.062146224081516266,"122":-0.07496153563261032,"123":0.2345893830060959,"124":-0.06044822558760643,"125":0.09197068959474564,"126":-0.12711359560489655,"127":-0.14790622889995575,"128":0.051439084112644196,"129":-0.22981755435466766,"130":-0.11482302099466324,"131":-0.14120805263519287,"132":0.090762197971344,"133":0.10347427427768707,"134":0.026949528604745865,"135":0.05089743807911873,"136":-0.16183865070343018,"137":-0.01629333756864071,"138":0.006607328541576862,"139":0.18428806960582733,"140":-0.14403587579727173,"141":-0.003680197987705469,"142":-0.011327002197504044,"143":0.14054709672927856,"144":0.05834564194083214,"145":-0.20357245206832886,"146":0.1405535191297531,"147":0.1919848769903183,"148":0.17269203066825867,"149":-0.06779975444078445,"150":0.10345883667469025,"151":-0.1718837469816208,"152":0.1933956742286682,"153":-0.027022631838917732,"154":0.19835114479064941,"155":0.11490858346223831,"156":-0.13694456219673157,"157":-0.0024733757600188255,"158":0.12127551436424255,"159":0.11881829798221588,"160":0.13919109106063843,"161":0.03318490833044052,"162":-0.1612226366996765,"163":-0.11334771662950516,"164":-0.0910588949918747,"165":0.010177543386816978,"166":-0.018103184178471565,"167":0.08619067072868347,"168":0.13267782330513,"169":0.15116086602210999,"170":-0.049259573221206665,"171":-0.14810355007648468,"172":0.20386452972888947,"173":0.12705795466899872,"174":-0.09149262309074402,"175":0.10070106387138367,"176":0.16787089407444,"177":-0.13710609078407288,"178":-0.09511067718267441,"179":-0.020166626200079918,"180":-0.07248376309871674,"181":-0.035799019038677216,"182":0.052042290568351746,"183":-0.09722080826759338,"184":0.15045811235904694,"185":-0.02892814204096794,"186":-0.12913140654563904,"187":0.16807247698307037,"188":0.08320953696966171,"189":-0.021626008674502373,"190":0.15604561567306519,"191":-0.0819610133767128,"192":0.1154296025633812,"193":0.03965165466070175,"194":0.19128301739692688,"195":-0.08287139236927032,"196":0.05765799060463905,"197":0.15452562272548676,"198":0.0456446148455143,"199":0.16361689567565918,"200":-0.08190180361270905,"201":0.0069284578785300255,"202":0.04508679732680321,"203":0.10309059917926788,"204":0.15917479991912842,"205":0.002668722765520215,"206":0.12071444094181061,"207":-0.11872794479131699,"208":-0.00464531360194087,"209":0.0958307608962059,"210":0.1358555257320404,"211":0.12099212408065796,"212":0.15991346538066864,"213":-0.0031036483123898506,"214":-0.15713587403297424,"215":-0.18849392235279083,"216":-0.06332588195800781,"217":-0.015418894588947296,"218":0.0574294775724411,"219":0.19704847037792206,"220":-0.0261493269354105,"221":0.07039384543895721,"222":-0.2221233993768692,"223":-0.18126043677330017,"224":-0.22855587303638458,"225":0.03799855336546898,"226":-0.21613788604736328,"227":0.1275600641965866,"228":0.012929601594805717,"229":0.11816313117742538,"230":-0.08672035485506058,"231":-0.09689808636903763,"232":0.05304335430264473,"233":0.027145177125930786,"234":0.06109768897294998,"235":-0.09544657915830612,"236":0.16585606336593628,"237":0.05260539427399635,"238":0.12234979122877121,"239":0.12193118035793304,"240":-0.13091175258159637,"241":-0.16688665747642517,"242":0.00220377161167562,"243":-0.05454222857952118,"244":-0.10839610546827316,"245":0.09876756370067596,"246":0.15478354692459106,"247":0.03875218704342842,"248":-0.1675749570131302,"249":0.10130444169044495,"250":-0.1192832738161087,"251":-0.17112943530082703,"252":0.2188904732465744,"253":0.034158140420913696,"254":0.20062650740146637,"255":0.13741964101791382,"256":0.1332520693540573,"257":0.0032504978589713573,"258":-0.17042215168476105,"259":-0.1486300826072693,"260":0.1859792172908783,"261":0.11648381501436234,"262":-0.1824948638677597,"263":-0.001431027427315712,"264":-0.07352994382381439,"265":0.1303350031375885,"266":0.04288062825798988,"267":-0.2284046709537506,"268":-0.16505134105682373,"269":-0.1905389130115509,"270":-0.08077673614025116,"271":-0.17222006618976593,"272":-0.019424354657530785,"273":0.07178333401679993}},"3":{"bias":-0.16603194177150726,"weights":{"0":-0.03928987681865692,"1":-0.16060256958007812,"2":0.14682097733020782,"3":-0.09078232198953629,"4":-0.11383242160081863,"5":-0.14238034188747406,"6":0.12289724498987198,"7":0.18013189733028412,"8":0.17415018379688263,"9":0.15823975205421448,"10":-0.13151417672634125,"11":0.039443790912628174,"12":0.09089252352714539,"13":-0.11082009971141815,"14":0.09833694994449615,"15":0.1206824854016304,"16":0.092484250664711,"17":0.11791057884693146,"18":0.14701876044273376,"19":-0.027862954884767532,"20":-0.07676522433757782,"21":0.1450246423482895,"22":-0.10719005763530731,"23":0.016419552266597748,"24":0.015007191337645054,"25":0.09105349332094193,"26":0.05282628536224365,"27":0.07968467473983765,"28":0.15600401163101196,"29":0.22924628853797913,"30":-0.005014436785131693,"31":0.21739286184310913,"32":-0.05952725559473038,"33":0.13068991899490356,"34":0.06996362656354904,"35":-0.1052408292889595,"36":-0.05261923372745514,"37":0.16901232302188873,"38":-0.03798467665910721,"39":-0.16571208834648132,"40":0.17745326459407806,"41":-0.11669471114873886,"42":0.14122134447097778,"43":-0.17671474814414978,"44":-0.13788853585720062,"45":0.1824323982000351,"46":-0.07028912007808685,"47":0.034154053777456284,"48":0.22919070720672607,"49":-0.14039114117622375,"50":-0.0033507843036204576,"51":-0.14333927631378174,"52":0.21775105595588684,"53":0.11062708497047424,"54":0.11466827988624573,"55":-0.11291499435901642,"56":0.15105308592319489,"57":0.16036023199558258,"58":-0.13457609713077545,"59":0.06112689897418022,"60":-0.04384967312216759,"61":0.061389051377773285,"62":-0.05362614989280701,"63":0.12689822912216187,"64":0.06631051003932953,"65":-0.14142097532749176,"66":0.04590212553739548,"67":-0.03414382413029671,"68":0.012353464029729366,"69":0.06711707264184952,"70":0.09198690205812454,"71":-0.0908498764038086,"72":-0.037451453506946564,"73":-0.01757718436419964,"74":-0.0028457019943743944,"75":-0.06310628354549408,"76":0.09672674536705017,"77":0.014736867509782314,"78":-0.0794001966714859,"79":-0.0726456418633461,"80":-0.12616950273513794,"81":-0.20836474001407623,"82":-0.127358540892601,"83":-0.10536173731088638,"84":-0.051512472331523895,"85":0.09079684317111969,"86":0.0714045912027359,"87":-0.13176961243152618,"88":-0.0005925891455262899,"89":0.03942963480949402,"90":0.03392254561185837,"91":0.04996807873249054,"92":-0.15586648881435394,"93":-0.06060495972633362,"94":0.1347382813692093,"95":0.06739271432161331,"96":0.059904154390096664,"97":0.15991300344467163,"98":-0.19535373151302338,"99":0.022697439417243004,"100":0.005783609580248594,"101":-0.08940591663122177,"102":0.0783180370926857,"103":-0.10776025801897049,"104":0.08754527568817139,"105":-0.1390674114227295,"106":-0.024380244314670563,"107":0.09053507447242737,"108":0.002268813084810972,"109":0.005834490060806274,"110":0.17073331773281097,"111":-0.16112367808818817,"112":-0.10876869410276413,"113":-0.14267507195472717,"114":-0.1194552481174469,"115":-0.08160744607448578,"116":0.094304658472538,"117":-0.14395277202129364,"118":0.12715816497802734,"119":0.037281155586242676,"120":0.16745421290397644,"121":0.2282780259847641,"122":-0.01554607879370451,"123":0.11526687443256378,"124":0.038725972175598145,"125":0.10267745703458786,"126":-0.0532563179731369,"127":0.049895722419023514,"128":-0.06167249009013176,"129":0.16505874693393707,"130":0.14608515799045563,"131":0.1317927986383438,"132":0.1282133013010025,"133":-0.08377166092395782,"134":0.10024042427539825,"135":0.08761435002088547,"136":-0.032946035265922546,"137":0.015424913726747036,"138":-0.09584446251392365,"139":-0.10025859624147415,"140":0.09225182235240936,"141":0.008723391219973564,"142":-0.14608249068260193,"143":0.12636427581310272,"144":-0.08965671807527542,"145":0.09958162903785706,"146":0.16258206963539124,"147":0.12010569125413895,"148":-0.02250862680375576,"149":-0.19606976211071014,"150":-0.11690881848335266,"151":-0.03416454419493675,"152":0.11382182687520981,"153":0.04254421964287758,"154":-0.07385437935590744,"155":-0.15653599798679352,"156":0.09111589193344116,"157":-0.04059801623225212,"158":0.04030240699648857,"159":-0.0030141035094857216,"160":-0.014634408988058567,"161":0.16404397785663605,"162":-0.08237933367490768,"163":-0.047162819653749466,"164":0.018019692972302437,"165":-0.15244242548942566,"166":-0.18455639481544495,"167":0.10578183829784393,"168":0.12935495376586914,"169":-0.16533163189888,"170":0.08598808199167252,"171":-0.0018010056810453534,"172":0.0717586874961853,"173":-0.1454191952943802,"174":-0.0237546656280756,"175":-0.10959182679653168,"176":0.10591806471347809,"177":0.13236133754253387,"178":-0.08455561101436615,"179":0.07589656859636307,"180":0.04226624220609665,"181":0.10715502500534058,"182":-0.07560784369707108,"183":0.18345963954925537,"184":0.17650803923606873,"185":0.12317237257957458,"186":0.016412321478128433,"187":-0.2185656577348709,"188":-0.15130051970481873,"189":0.13997319340705872,"190":-0.04653626307845116,"191":0.10173513740301132,"192":-0.06512664258480072,"193":0.047790221869945526,"194":0.16965532302856445,"195":-0.14759115874767303,"196":-0.20209115743637085,"197":0.10255640000104904,"198":0.08091013878583908,"199":0.1111718937754631,"200":-0.031186185777187347,"201":-0.1567586064338684,"202":-0.16766859591007233,"203":0.0887259766459465,"204":0.03252071887254715,"205":-0.10050149261951447,"206":0.1304091364145279,"207":-0.16879810392856598,"208":-0.09182820469141006,"209":0.0758746936917305,"210":0.10327362269163132,"211":0.02366381511092186,"212":0.20557324588298798,"213":0.1651049256324768,"214":0.06283105164766312,"215":0.19221027195453644,"216":-0.038753923028707504,"217":0.20634102821350098,"218":-0.1880468726158142,"219":-0.15158361196517944,"220":0.0723508819937706,"221":-0.11370396614074707,"222":0.09632671624422073,"223":0.09214280545711517,"224":0.1224011555314064,"225":0.0662771612405777,"226":0.06697943806648254,"227":0.16657698154449463,"228":0.0493416003882885,"229":0.060515742748975754,"230":0.0915963351726532,"231":-0.15905261039733887,"232":0.10047733783721924,"233":-0.006144082173705101,"234":-0.07551766186952591,"235":0.0829768255352974,"236":0.09649784117937088,"237":-0.144703671336174,"238":-0.16450417041778564,"239":0.19256038963794708,"240":0.13016487658023834,"241":-0.023323092609643936,"242":-0.08578266203403473,"243":0.1502208113670349,"244":0.15338440239429474,"245":-0.14837411046028137,"246":0.13202640414237976,"247":-0.03930994123220444,"248":-0.0842089056968689,"249":0.024858277291059494,"250":-0.16129298508167267,"251":-0.08010696619749069,"252":-0.22088493406772614,"253":-0.2209373414516449,"254":0.09021884948015213,"255":-0.18067075312137604,"256":0.0982331708073616,"257":0.03604792803525925,"258":0.10829385370016098,"259":0.17674888670444489,"260":0.08090997487306595,"261":-0.0118443313986063,"262":0.03321826830506325,"263":0.19106368720531464,"264":-0.04508759826421738,"265":0.04762142896652222,"266":-0.155079185962677,"267":-0.13798721134662628,"268":-0.1439724564552307,"269":-0.07094241678714752,"270":-0.031120575964450836,"271":0.13246773183345795,"272":-0.006603164132684469,"273":0.06087331101298332}},"4":{"bias":-0.21663375198841095,"weights":{"0":0.1473221480846405,"1":-0.20401498675346375,"2":0.060837555676698685,"3":0.10514139384031296,"4":-0.08554623275995255,"5":-0.13077107071876526,"6":0.16615544259548187,"7":-0.10075149685144424,"8":-0.1792486608028412,"9":-0.03049054928123951,"10":0.06222318485379219,"11":-0.032212093472480774,"12":0.15358233451843262,"13":0.03305906429886818,"14":0.04952365905046463,"15":-0.03005640208721161,"16":-0.006401493679732084,"17":0.07134965807199478,"18":-0.16305041313171387,"19":-0.2334469109773636,"20":-0.08590194582939148,"21":0.03224428370594978,"22":-0.17278660833835602,"23":-0.21847201883792877,"24":0.0023401016369462013,"25":0.07121803611516953,"26":0.20245397090911865,"27":0.2509418725967407,"28":0.08270175755023956,"29":0.18792493641376495,"30":0.09660840034484863,"31":0.034402623772621155,"32":0.20940804481506348,"33":-0.04123220220208168,"34":0.01275013666599989,"35":-0.018421415239572525,"36":-0.09178142994642258,"37":0.10997550934553146,"38":0.09575076401233673,"39":0.07725443691015244,"40":0.053433310240507126,"41":-0.1975364238023758,"42":-0.22173966467380524,"43":0.07435303181409836,"44":-0.18073983490467072,"45":-0.21382175385951996,"46":-0.16431428492069244,"47":0.12165634334087372,"48":0.16998445987701416,"49":-0.10510557144880295,"50":0.12427303940057755,"51":0.20938590168952942,"52":-0.10557606816291809,"53":0.21618466079235077,"54":-0.07432858645915985,"55":-0.1358593851327896,"56":0.14093123376369476,"57":0.16904781758785248,"58":-0.04724617302417755,"59":0.13842405378818512,"60":0.09224691241979599,"61":0.07657777518033981,"62":-0.12356794625520706,"63":-0.0653974637389183,"64":0.09673676639795303,"65":0.0371474027633667,"66":0.14796584844589233,"67":0.20469717681407928,"68":0.0868963673710823,"69":0.17291782796382904,"70":0.06905894726514816,"71":0.13329088687896729,"72":-0.1280399113893509,"73":0.1533329337835312,"74":-0.09703248739242554,"75":-0.06191524863243103,"76":0.11568404734134674,"77":0.17492160201072693,"78":0.10491686314344406,"79":0.17779603600502014,"80":-0.11979146301746368,"81":-0.15236099064350128,"82":-0.21065174043178558,"83":0.09271541237831116,"84":0.09164311736822128,"85":-0.1778479665517807,"86":0.03203684464097023,"87":-0.20672093331813812,"88":0.08634622395038605,"89":-0.06878793239593506,"90":-0.10981016606092453,"91":0.03370700031518936,"92":-0.0037175719626247883,"93":0.1413920372724533,"94":-0.14140956103801727,"95":0.047770678997039795,"96":0.06667044013738632,"97":0.04525351896882057,"98":0.1499304175376892,"99":-0.07604800164699554,"100":0.11964468657970428,"101":-0.1773943156003952,"102":0.06993439793586731,"103":-0.15957319736480713,"104":-0.09697836637496948,"105":-0.12354662269353867,"106":-0.178331658244133,"107":0.16985902190208435,"108":-0.014357143081724644,"109":-0.08974812179803848,"110":-0.1791369467973709,"111":0.20639556646347046,"112":0.008543974719941616,"113":0.08845105022192001,"114":0.2529582381248474,"115":0.25228679180145264,"116":0.035514913499355316,"117":-0.2251744270324707,"118":0.12298452109098434,"119":-0.006166747771203518,"120":0.04110374301671982,"121":-0.10686258971691132,"122":0.11282094568014145,"123":-0.15683816373348236,"124":-0.07387638092041016,"125":0.06039104610681534,"126":-0.04252079501748085,"127":0.15218320488929749,"128":0.17030975222587585,"129":0.19798779487609863,"130":0.18574757874011993,"131":0.20282551646232605,"132":0.19206158816814423,"133":0.1515648365020752,"134":0.18615180253982544,"135":-0.02247367985546589,"136":0.0871300920844078,"137":-0.08380957692861557,"138":0.019453205168247223,"139":0.01979236677289009,"140":-0.12027029693126678,"141":-0.014900906942784786,"142":-0.11167648434638977,"143":0.06917224079370499,"144":-0.1070898249745369,"145":-0.1501730978488922,"146":-0.07745769619941711,"147":0.003744622925296426,"148":0.033561527729034424,"149":-0.2024199515581131,"150":-0.10218861699104309,"151":0.2727946937084198,"152":0.09735577553510666,"153":-0.0031853143591433764,"154":0.05460002273321152,"155":0.14691497385501862,"156":0.03741779923439026,"157":0.041637446731328964,"158":0.07798366248607635,"159":0.013866222463548183,"160":-0.12137317657470703,"161":-0.027021542191505432,"162":-0.039568737149238586,"163":-0.1049853041768074,"164":0.003055270528420806,"165":0.1331256777048111,"166":-0.09064434468746185,"167":0.04269430413842201,"168":0.1669876128435135,"169":-0.15859246253967285,"170":0.04123209789395332,"171":0.05110329017043114,"172":0.012641306035220623,"173":0.1382749080657959,"174":0.04085893556475639,"175":-0.05194218084216118,"176":-0.04494192823767662,"177":0.18795624375343323,"178":0.13691791892051697,"179":0.08110037446022034,"180":-0.08388832211494446,"181":-0.039354853332042694,"182":-0.12119682878255844,"183":0.11733713746070862,"184":-0.05726712569594383,"185":-0.026318904012441635,"186":-0.11552626639604568,"187":-0.03478192538022995,"188":0.0909479558467865,"189":0.1411581039428711,"190":-0.19279497861862183,"191":0.06433197110891342,"192":0.13922788202762604,"193":-0.172200009226799,"194":-0.1175430491566658,"195":-0.16746163368225098,"196":0.09561359137296677,"197":0.18871118128299713,"198":-0.08295352756977081,"199":0.059106022119522095,"200":-0.06825395673513412,"201":-0.18888206779956818,"202":-0.07827633619308472,"203":-0.1808445006608963,"204":-0.20464849472045898,"205":-0.19449195265769958,"206":0.026667537167668343,"207":0.10596220940351486,"208":-0.13116775453090668,"209":0.20542824268341064,"210":0.18407833576202393,"211":0.10508064925670624,"212":-0.10759565979242325,"213":-0.131395161151886,"214":0.04135828837752342,"215":0.0973505973815918,"216":-0.15649807453155518,"217":-0.16632309556007385,"218":-0.021791905164718628,"219":-0.17042715847492218,"220":0.03153836727142334,"221":-0.1391143500804901,"222":-0.1316279172897339,"223":-0.1165018379688263,"224":-0.12719736993312836,"225":-0.12665310502052307,"226":0.1770642250776291,"227":0.1440158486366272,"228":0.03539566695690155,"229":0.2310858517885208,"230":0.05488569289445877,"231":-0.04992681369185448,"232":0.115162692964077,"233":0.10128049552440643,"234":-0.043345820158720016,"235":0.14977695047855377,"236":-0.016933267936110497,"237":-0.06087725609540939,"238":-0.11720244586467743,"239":0.07799603790044785,"240":0.1770142763853073,"241":0.04625463858246803,"242":0.06749647855758667,"243":0.22911211848258972,"244":-0.1433062106370926,"245":0.2209177166223526,"246":-0.03455066308379173,"247":-0.12726441025733948,"248":0.003527049906551838,"249":-0.09401024878025055,"250":-0.22096537053585052,"251":-0.020080113783478737,"252":0.13944882154464722,"253":-0.17971524596214294,"254":-0.052784815430641174,"255":0.060276616364717484,"256":-0.00419553741812706,"257":0.18526394665241241,"258":-0.128068208694458,"259":-0.047984082251787186,"260":-0.1664392650127411,"261":0.10219630599021912,"262":0.16921961307525635,"263":-0.20219069719314575,"264":0.09286780655384064,"265":0.09857320040464401,"266":-0.09253125637769699,"267":-0.06967959553003311,"268":0.06993803381919861,"269":0.004651197232306004,"270":-0.040820807218551636,"271":-0.14760233461856842,"272":0.07544178515672684,"273":0.09406112134456635}},"5":{"bias":0.04738066345453262,"weights":{"0":-0.053605858236551285,"1":0.09216909110546112,"2":0.09066848456859589,"3":0.13484060764312744,"4":0.13082993030548096,"5":0.1783175766468048,"6":0.08271759003400803,"7":0.18110986053943634,"8":-0.16503342986106873,"9":0.16085274517536163,"10":0.09804476052522659,"11":0.1571630984544754,"12":0.015472758561372757,"13":0.1608421802520752,"14":0.060521241277456284,"15":0.13287006318569183,"16":-0.09946976602077484,"17":0.0529993511736393,"18":-0.12837593257427216,"19":0.04364790767431259,"20":0.12415241450071335,"21":0.020130176097154617,"22":-0.07127828896045685,"23":-0.18529950082302094,"24":0.03739019110798836,"25":-0.10153739154338837,"26":0.1199212446808815,"27":0.14086520671844482,"28":-0.05887085571885109,"29":-0.1531253606081009,"30":0.006970659829676151,"31":-0.03125227987766266,"32":0.13621743023395538,"33":-0.14575426280498505,"34":-0.10519818216562271,"35":0.11139178276062012,"36":0.1423255354166031,"37":0.026670092716813087,"38":-0.03918025642633438,"39":-0.1726154386997223,"40":-0.008272177539765835,"41":-0.17300084233283997,"42":-0.1719595491886139,"43":0.04722026363015175,"44":0.1886373609304428,"45":0.1275339424610138,"46":-0.026760544627904892,"47":-0.08570148795843124,"48":-0.16007515788078308,"49":0.05353794991970062,"50":0.09249868243932724,"51":-0.10328815132379532,"52":-0.19960494339466095,"53":0.08767905831336975,"54":-0.0906531810760498,"55":0.15745975077152252,"56":0.16174419224262238,"57":-0.021629299968481064,"58":0.10410788655281067,"59":-0.02320648916065693,"60":-0.14604289829730988,"61":-0.01586165465414524,"62":0.017060957849025726,"63":-0.10929353535175323,"64":-0.0663699060678482,"65":0.1471952497959137,"66":-0.06390345841646194,"67":0.10153823345899582,"68":-0.0804704949259758,"69":-0.049435093998909,"70":0.11595997959375381,"71":-0.1407991498708725,"72":0.09320410341024399,"73":-0.07701822370290756,"74":0.07248178869485855,"75":0.011351660825312138,"76":0.0349104106426239,"77":0.12309522926807404,"78":0.013808483257889748,"79":-0.04220258817076683,"80":-0.038420502096414566,"81":-0.1655818074941635,"82":-0.08701781928539276,"83":0.06534288823604584,"84":0.191484734416008,"85":-0.15715336799621582,"86":0.11840131878852844,"87":0.08469174057245255,"88":-0.0674716904759407,"89":0.08550959080457687,"90":-0.02133798412978649,"91":0.0077409506775438786,"92":0.09004037082195282,"93":-0.09128556400537491,"94":-0.08501940220594406,"95":-0.0921989381313324,"96":-0.05611283704638481,"97":-0.049020491540431976,"98":-0.056225311011075974,"99":-0.08877700567245483,"100":-0.09735030680894852,"101":-0.1780688613653183,"102":0.0029926171991974115,"103":0.18922331929206848,"104":0.06801731884479523,"105":-0.07849431782960892,"106":-0.00838182307779789,"107":-0.051704734563827515,"108":-0.20351122319698334,"109":0.09576611965894699,"110":-0.06296396255493164,"111":-0.09103455394506454,"112":0.03551352024078369,"113":0.029705941677093506,"114":0.18639642000198364,"115":-0.1083923950791359,"116":-0.0010958644561469555,"117":-0.05367933213710785,"118":-0.00548942806199193,"119":0.07191082090139389,"120":0.16466587781906128,"121":-0.04981350898742676,"122":0.10097234696149826,"123":-0.09455407410860062,"124":-0.12636275589466095,"125":-0.04844250902533531,"126":-0.07663960754871368,"127":0.18406127393245697,"128":0.07041430473327637,"129":-0.2004891335964203,"130":-0.026627762243151665,"131":0.00570379663258791,"132":-0.14304886758327484,"133":0.15889249742031097,"134":-0.047114551067352295,"135":-0.16529980301856995,"136":-0.0245661661028862,"137":-0.09236784279346466,"138":0.03078349679708481,"139":0.02500683069229126,"140":-0.14513909816741943,"141":0.07059377431869507,"142":0.11227594316005707,"143":-0.011800362728536129,"144":-0.1384711116552353,"145":-0.02310306392610073,"146":-0.12780487537384033,"147":0.08936979621648788,"148":0.12095881253480911,"149":-0.13548368215560913,"150":-0.03781166300177574,"151":-0.018537621945142746,"152":0.05370132625102997,"153":0.20639991760253906,"154":-0.05289802327752113,"155":-0.09093103557825089,"156":0.09944090247154236,"157":0.1059160977602005,"158":0.04074728861451149,"159":-0.12296607345342636,"160":-0.1456434577703476,"161":0.02858620323240757,"162":-0.16143447160720825,"163":0.08354965597391129,"164":-0.15505121648311615,"165":-0.09328655898571014,"166":0.013551152311265469,"167":0.07604151964187622,"168":0.0144094442948699,"169":0.19971030950546265,"170":0.1305481195449829,"171":0.09140325337648392,"172":0.17014212906360626,"173":0.09762255102396011,"174":-0.18185245990753174,"175":0.051810018718242645,"176":-0.16810956597328186,"177":-0.10088229179382324,"178":0.03552895784378052,"179":0.0804758369922638,"180":-0.15511682629585266,"181":-0.03964851796627045,"182":0.17765220999717712,"183":-0.036256853491067886,"184":-0.014809676446020603,"185":0.10723350197076797,"186":0.07384384423494339,"187":-0.17476090788841248,"188":0.04646526649594307,"189":0.027437550947070122,"190":-0.056938860565423965,"191":0.1449946165084839,"192":-0.11946094781160355,"193":-0.15026482939720154,"194":0.19643113017082214,"195":0.08175276964902878,"196":0.14577846229076385,"197":-0.17858028411865234,"198":-0.17151959240436554,"199":-0.09373105317354202,"200":0.05847909674048424,"201":-0.023885641247034073,"202":-0.13511328399181366,"203":0.14250044524669647,"204":0.20297954976558685,"205":-0.0439249724149704,"206":0.15717920660972595,"207":0.11519251763820648,"208":-0.13114821910858154,"209":-0.03578558936715126,"210":0.07748882472515106,"211":-0.10005293041467667,"212":0.14517182111740112,"213":-0.14119423925876617,"214":-0.20584869384765625,"215":0.08910556137561798,"216":-0.06268759816884995,"217":0.14290744066238403,"218":0.09921497106552124,"219":-0.19787010550498962,"220":-0.10979027301073074,"221":-0.07858213782310486,"222":-0.14488670229911804,"223":-0.020761562511324883,"224":-0.08657515794038773,"225":-0.11261707544326782,"226":-0.20761792361736298,"227":-0.1729951798915863,"228":-0.17001821100711823,"229":-0.08249663561582565,"230":-0.11594969034194946,"231":-0.10697144269943237,"232":-0.03582462668418884,"233":-0.1502215415239334,"234":0.010979993268847466,"235":0.18090194463729858,"236":-0.10571406036615372,"237":-0.07685209810733795,"238":0.19648775458335876,"239":-0.10536444187164307,"240":-0.05591791495680809,"241":-0.06366799771785736,"242":-0.024322155863046646,"243":0.01005501952022314,"244":-0.20595644414424896,"245":0.15698647499084473,"246":0.12286428362131119,"247":0.14642192423343658,"248":-0.16016018390655518,"249":0.14659470319747925,"250":0.17226362228393555,"251":-0.1004672423005104,"252":0.0354498028755188,"253":0.13835038244724274,"254":0.1540156751871109,"255":-0.04478159174323082,"256":0.04484139382839203,"257":-0.028002073988318443,"258":-0.0672396644949913,"259":-0.07369814813137054,"260":0.02289806306362152,"261":-0.10214386135339737,"262":-0.041053708642721176,"263":-0.10959295928478241,"264":0.145472913980484,"265":0.1585661768913269,"266":0.04733673855662346,"267":0.17276184260845184,"268":-0.039046935737133026,"269":-0.19149886071681976,"270":0.09065812826156616,"271":-0.05896129086613655,"272":0.1125241369009018,"273":0.14615848660469055}},"6":{"bias":-0.06611321866512299,"weights":{"0":0.1215289831161499,"1":-0.16145093739032745,"2":-0.05726521462202072,"3":0.055067278444767,"4":0.13851170241832733,"5":-0.09026666730642319,"6":-0.017130320891737938,"7":-0.12503565847873688,"8":-0.010228726081550121,"9":0.10697193443775177,"10":-0.166184663772583,"11":-0.23253649473190308,"12":0.13230639696121216,"13":-0.0799848660826683,"14":0.10444117337465286,"15":0.032145772129297256,"16":-0.1354314535856247,"17":0.0789438933134079,"18":0.03938658908009529,"19":0.2365000694990158,"20":0.034031759947538376,"21":-0.18542702496051788,"22":0.22168615460395813,"23":-0.0059762075543403625,"24":0.11369245499372482,"25":-0.1900024563074112,"26":-0.1992427110671997,"27":0.11474664509296417,"28":0.017865898087620735,"29":-0.017558710649609566,"30":-0.12493730336427689,"31":0.09678908437490463,"32":-0.12486989051103592,"33":-0.012548585422337055,"34":-0.06901390105485916,"35":0.10572692006826401,"36":-0.2279585301876068,"37":-0.16850896179676056,"38":-0.22313028573989868,"39":-0.15980693697929382,"40":0.1702338457107544,"41":-0.17118462920188904,"42":0.1643238663673401,"43":0.10984543710947037,"44":-0.11181867867708206,"45":-0.15097202360630035,"46":0.05051402747631073,"47":-0.07390880584716797,"48":0.1343858689069748,"49":-0.14118988811969757,"50":-0.06511218845844269,"51":-0.19375549256801605,"52":0.0029912390746176243,"53":-0.0751025527715683,"54":-0.14427320659160614,"55":0.1332218199968338,"56":0.20950853824615479,"57":-0.04996120184659958,"58":-0.013668540865182877,"59":-0.10935970395803452,"60":0.171234592795372,"61":-0.000004546585842035711,"62":-0.07279060035943985,"63":-0.159960076212883,"64":-0.15082155168056488,"65":0.15308037400245667,"66":0.0703677088022232,"67":-0.09781146794557571,"68":0.062464360147714615,"69":-0.07565118372440338,"70":0.003541800193488598,"71":0.025993723422288895,"72":-0.193704292178154,"73":-0.03718207776546478,"74":-0.18832427263259888,"75":0.0786285549402237,"76":-0.15904657542705536,"77":0.10708628594875336,"78":-0.19181430339813232,"79":0.06344977766275406,"80":-0.1600286215543747,"81":-0.013632443733513355,"82":-0.13044840097427368,"83":-0.16154783964157104,"84":0.09004765748977661,"85":0.0797148048877716,"86":0.12701715528964996,"87":-0.010254114866256714,"88":-0.11681842058897018,"89":0.0017915647476911545,"90":0.05929174646735191,"91":-0.15221424400806427,"92":-0.16325247287750244,"93":-0.0640416219830513,"94":-0.2312244325876236,"95":-0.18763181567192078,"96":-0.044178400188684464,"97":0.13841228187084198,"98":-0.048778366297483444,"99":0.14963002502918243,"100":0.07138098031282425,"101":-0.0759102925658226,"102":-0.030892079696059227,"103":0.07683850824832916,"104":0.03937901556491852,"105":-0.10797108709812164,"106":0.17699536681175232,"107":0.1254090666770935,"108":-0.1942761391401291,"109":0.1386539787054062,"110":-0.014076931402087212,"111":-0.2142276167869568,"112":0.08853691071271896,"113":0.14251068234443665,"114":-0.0846189633011818,"115":0.03670717403292656,"116":0.09842366725206375,"117":0.026386044919490814,"118":0.04982496052980423,"119":0.16721419990062714,"120":-0.005555273033678532,"121":-0.14530330896377563,"122":-0.25673171877861023,"123":0.21670234203338623,"124":0.12040188908576965,"125":-0.06655988842248917,"126":0.06357049942016602,"127":-0.11880876868963242,"128":-0.02457808144390583,"129":-0.15973374247550964,"130":-0.11485965549945831,"131":-0.20391671359539032,"132":-0.11838153749704361,"133":0.09268065541982651,"134":-0.17135727405548096,"135":0.029435530304908752,"136":0.15616515278816223,"137":0.2176532745361328,"138":-0.07256733626127243,"139":0.0898762121796608,"140":0.024306612089276314,"141":0.18237897753715515,"142":0.11393217742443085,"143":-0.02732205018401146,"144":-0.04445037245750427,"145":-0.0979425385594368,"146":0.13966426253318787,"147":0.10632248967885971,"148":0.04149461165070534,"149":0.16717007756233215,"150":0.08327535539865494,"151":-0.06290210038423538,"152":0.154770627617836,"153":0.016838999465107918,"154":0.229980930685997,"155":-0.039871249347925186,"156":-0.08387497067451477,"157":0.03140635043382645,"158":-0.1589294672012329,"159":-0.17849642038345337,"160":0.07112109661102295,"161":-0.11648545414209366,"162":0.12504416704177856,"163":-0.05681207403540611,"164":0.09997664391994476,"165":-0.14832249283790588,"166":0.09442475438117981,"167":0.1523580700159073,"168":-0.09372489899396896,"169":0.020451819524168968,"170":0.035193271934986115,"171":-0.00911514088511467,"172":0.04063476249575615,"173":0.13252954185009003,"174":-0.07002651691436768,"175":-0.04790807142853737,"176":-0.08593132346868515,"177":0.08655914664268494,"178":0.018408313393592834,"179":0.06679835170507431,"180":0.1560145914554596,"181":0.176880344748497,"182":0.050917305052280426,"183":0.04797937348484993,"184":0.13044673204421997,"185":-0.028726480901241302,"186":-0.06198528781533241,"187":-0.0486685112118721,"188":-0.12918487191200256,"189":-0.1150926873087883,"190":-0.08124992251396179,"191":0.19634321331977844,"192":-0.16123749315738678,"193":0.1811063587665558,"194":0.10525500774383545,"195":0.026275506243109703,"196":-0.01549086719751358,"197":0.009590595960617065,"198":0.04638936370611191,"199":0.04302003234624863,"200":-0.10170769691467285,"201":-0.029276713728904724,"202":0.041739366948604584,"203":0.12113448977470398,"204":0.18259038031101227,"205":-0.08661089837551117,"206":0.17507202923297882,"207":0.1154225766658783,"208":0.1872679591178894,"209":-0.21410320699214935,"210":-0.055754780769348145,"211":-0.13386735320091248,"212":-0.062198977917432785,"213":-0.039221249520778656,"214":-0.022676298394799232,"215":0.05762293189764023,"216":0.16171374917030334,"217":-0.09895726293325424,"218":0.022791847586631775,"219":-0.013882437720894814,"220":-0.1263766884803772,"221":0.08902736008167267,"222":-0.07744625955820084,"223":0.13179069757461548,"224":0.07267148047685623,"225":0.08029240369796753,"226":-0.021404344588518143,"227":-0.02172483690083027,"228":-0.10062295943498611,"229":-0.08412683010101318,"230":-0.02980256825685501,"231":0.05178265646100044,"232":0.0880010724067688,"233":0.13148942589759827,"234":0.10484017431735992,"235":0.1724732220172882,"236":-0.10197624564170837,"237":-0.08048376441001892,"238":0.16872268915176392,"239":-0.21026793122291565,"240":-0.04787889122962952,"241":-0.21343441307544708,"242":-0.03406867757439613,"243":-0.15235139429569244,"244":-0.09468581527471542,"245":-0.03828168287873268,"246":0.021015111356973648,"247":-0.10153255611658096,"248":-0.05484083294868469,"249":0.1352216601371765,"250":-0.02135494351387024,"251":0.005923974793404341,"252":0.013092964887619019,"253":0.18073534965515137,"254":0.01505463756620884,"255":-0.06687354296445847,"256":0.18275122344493866,"257":0.18431565165519714,"258":-0.13857217133045197,"259":-0.06273669004440308,"260":-0.033056169748306274,"261":0.061241429299116135,"262":-0.031129959970712662,"263":0.13427065312862396,"264":-0.011655193753540516,"265":-0.005015136208385229,"266":-0.019934361800551414,"267":-0.2296937257051468,"268":-0.19037972390651703,"269":0.0001231485221069306,"270":0.0008364311070181429,"271":-0.017435623332858086,"272":0.02249886468052864,"273":-0.11910795420408249}},"7":{"bias":-0.051595963537693024,"weights":{"0":0.160421684384346,"1":-0.06772904098033905,"2":0.014592061750590801,"3":-0.05608389526605606,"4":-0.011085252277553082,"5":-0.010793815366923809,"6":0.21319910883903503,"7":-0.10755511373281479,"8":0.15841597318649292,"9":0.08887465298175812,"10":0.014203961938619614,"11":-0.048198360949754715,"12":-0.16752678155899048,"13":-0.13269852101802826,"14":-0.003562436904758215,"15":0.05583301931619644,"16":-0.20204678177833557,"17":0.15804874897003174,"18":0.09329069405794144,"19":0.13082052767276764,"20":-0.040597304701805115,"21":-0.012521822936832905,"22":0.11604315042495728,"23":-0.010694438591599464,"24":0.10982724279165268,"25":0.08834105730056763,"26":-0.16498911380767822,"27":0.1223539337515831,"28":0.21163523197174072,"29":-0.14336933195590973,"30":-0.15190920233726501,"31":-0.028478793799877167,"32":-0.04482395574450493,"33":0.1516963541507721,"34":0.006749311927706003,"35":0.09318676590919495,"36":-0.13226871192455292,"37":0.12323649972677231,"38":-0.010486864484846592,"39":0.2028946578502655,"40":-0.09350558370351791,"41":-0.09935527294874191,"42":-0.0696554109454155,"43":-0.017810966819524765,"44":-0.24050110578536987,"45":-0.03032703883945942,"46":-0.015121023170650005,"47":-0.043947432190179825,"48":0.15296493470668793,"49":-0.02008260227739811,"50":0.0023749545216560364,"51":-0.09293423593044281,"52":0.010530773550271988,"53":0.19295626878738403,"54":0.15455833077430725,"55":0.017688678577542305,"56":-0.019659575074911118,"57":0.023497814312577248,"58":0.012401956133544445,"59":-0.11233353614807129,"60":0.09706078469753265,"61":-0.19798307120800018,"62":0.21040768921375275,"63":-0.13511718809604645,"64":0.20814071595668793,"65":0.03806229308247566,"66":0.005403364077210426,"67":-0.03573370724916458,"68":-0.0970853790640831,"69":0.006403801962733269,"70":0.14991971850395203,"71":0.08798819780349731,"72":0.018275093287229538,"73":0.026225384324789047,"74":-0.13919809460639954,"75":0.024156194180250168,"76":0.19159412384033203,"77":-0.16903038322925568,"78":0.22919075191020966,"79":0.10117806494235992,"80":0.12124400585889816,"81":0.1196870282292366,"82":0.0949358195066452,"83":0.0727047398686409,"84":-0.15738147497177124,"85":-0.20813265442848206,"86":-0.12170956283807755,"87":-0.07151112705469131,"88":0.17502835392951965,"89":0.09102225303649902,"90":-0.12378278374671936,"91":0.06372101604938507,"92":-0.1511238068342209,"93":0.07436610758304596,"94":0.2022106647491455,"95":0.15705057978630066,"96":0.04677049443125725,"97":0.07760629057884216,"98":-0.19726824760437012,"99":-0.12718933820724487,"100":-0.06929463893175125,"101":-0.14514301717281342,"102":-0.1659102886915207,"103":-0.0064489529468119144,"104":0.053332243114709854,"105":-0.0951138585805893,"106":0.1054520532488823,"107":0.11642807722091675,"108":-0.05669853836297989,"109":-0.09706141799688339,"110":0.19285817444324493,"111":0.07486464828252792,"112":-0.1157967671751976,"113":0.007672837935388088,"114":0.055907513946294785,"115":0.030370518565177917,"116":0.03636427968740463,"117":-0.09816712141036987,"118":0.1510428637266159,"119":0.08924774080514908,"120":0.0702466070652008,"121":0.1124078780412674,"122":-0.13788029551506042,"123":0.0559203065931797,"124":-0.17465774714946747,"125":0.002241359790787101,"126":-0.16008658707141876,"127":-0.04491831734776497,"128":-0.04209234192967415,"129":-0.03545664995908737,"130":0.07772983610630035,"131":0.06733718514442444,"132":-0.12563030421733856,"133":0.16014364361763,"134":0.15062040090560913,"135":-0.16261829435825348,"136":-0.2141532003879547,"137":-0.06707759946584702,"138":-0.13099174201488495,"139":-0.01737833209335804,"140":0.16983777284622192,"141":0.12206877768039703,"142":-0.034463781863451004,"143":0.11853154748678207,"144":-0.01488873828202486,"145":0.20034657418727875,"146":0.2139832228422165,"147":0.02108452282845974,"148":-0.12667392194271088,"149":0.02908015251159668,"150":-0.1321364939212799,"151":0.06184876710176468,"152":-0.010114630684256554,"153":0.07098212838172913,"154":0.14822177588939667,"155":0.05184907093644142,"156":-0.029325289651751518,"157":0.13595889508724213,"158":0.0811956599354744,"159":-0.022186534479260445,"160":-0.09291018545627594,"161":0.05022060498595238,"162":0.15057313442230225,"163":0.06676670163869858,"164":0.014495844952762127,"165":-0.02943871170282364,"166":0.009366299957036972,"167":-0.0029816715978085995,"168":-0.11413159221410751,"169":-0.03660639375448227,"170":-0.09877736866474152,"171":0.15384961664676666,"172":-0.032996971160173416,"173":0.13838212192058563,"174":-0.1892542541027069,"175":0.18026208877563477,"176":0.01235282514244318,"177":0.07100879400968552,"178":-0.04756597429513931,"179":0.17546065151691437,"180":0.038067691028118134,"181":0.13415929675102234,"182":-0.18267016112804413,"183":0.05504673719406128,"184":-0.13245050609111786,"185":0.051759302616119385,"186":0.02541130781173706,"187":0.1226552277803421,"188":0.1384190022945404,"189":-0.11216861009597778,"190":-0.18889307975769043,"191":-0.0837244987487793,"192":-0.08858472853899002,"193":0.13940320909023285,"194":-0.09347182512283325,"195":-0.09821554273366928,"196":0.09483019262552261,"197":0.09851402044296265,"198":-0.019844841212034225,"199":0.1451522558927536,"200":-0.17716115713119507,"201":-0.040940847247838974,"202":0.0010463367216289043,"203":0.16137026250362396,"204":-0.047566596418619156,"205":0.040070708841085434,"206":0.17185547947883606,"207":0.12864504754543304,"208":-0.1658652126789093,"209":-0.12665438652038574,"210":0.16425547003746033,"211":0.029826173558831215,"212":-0.005898050498217344,"213":0.07089808583259583,"214":0.12456277012825012,"215":-0.10898340493440628,"216":0.021960364654660225,"217":0.13689357042312622,"218":0.18467143177986145,"219":0.1606070101261139,"220":-0.14308960735797882,"221":-0.08109830319881439,"222":0.18404382467269897,"223":-0.01753084547817707,"224":-0.060368914157152176,"225":0.01394997350871563,"226":0.08139218389987946,"227":-0.09246467053890228,"228":-0.1301550269126892,"229":0.02524355612695217,"230":0.13312920928001404,"231":0.11999839544296265,"232":0.19835983216762543,"233":0.042546939104795456,"234":-0.06957653909921646,"235":-0.16763898730278015,"236":-0.05700529366731644,"237":-0.016980821266770363,"238":-0.1271614134311676,"239":0.08627333492040634,"240":0.05599449947476387,"241":-0.0819428488612175,"242":0.10787522047758102,"243":-0.11776121705770493,"244":0.1872795820236206,"245":0.15071159601211548,"246":0.03703306242823601,"247":0.06244736537337303,"248":-0.07730092853307724,"249":-0.08158285170793533,"250":-0.038555797189474106,"251":0.0593038909137249,"252":0.0278566125780344,"253":0.01310636568814516,"254":0.17595523595809937,"255":0.0018778839148581028,"256":-0.12389179319143295,"257":-0.15269581973552704,"258":0.004436883144080639,"259":-0.08034143596887589,"260":-0.11803071945905685,"261":0.11617171764373779,"262":0.1169334426522255,"263":-0.052481453865766525,"264":-0.0887666866183281,"265":-0.1353086680173874,"266":-0.06755415350198746,"267":0.12594620883464813,"268":0.038550809025764465,"269":0.019445493817329407,"270":-0.10063944011926651,"271":-0.16771455109119415,"272":0.05268200859427452,"273":-0.08549923449754715}},"8":{"bias":-0.14560969173908234,"weights":{"0":0.10032768547534943,"1":-0.13082297146320343,"2":-0.0641268938779831,"3":0.1858142465353012,"4":-0.12597303092479706,"5":-0.1941867619752884,"6":0.017494209110736847,"7":0.006893611513078213,"8":0.10550510883331299,"9":-0.03779158741235733,"10":0.15787173807621002,"11":0.19252455234527588,"12":-0.055635642260313034,"13":0.01790190488100052,"14":0.03011172264814377,"15":-0.19398382306098938,"16":-0.014235295355319977,"17":0.15990710258483887,"18":-0.1945108324289322,"19":-0.023081975057721138,"20":0.09805263578891754,"21":0.006675684358924627,"22":0.14618037641048431,"23":-0.12129823863506317,"24":-0.06598405539989471,"25":-0.18059243261814117,"26":-0.20017404854297638,"27":-0.09306330978870392,"28":-0.06272740662097931,"29":-0.16549471020698547,"30":-0.16529737412929535,"31":-0.08291541785001755,"32":-0.047759197652339935,"33":-0.1894518882036209,"34":0.17102119326591492,"35":0.09522193670272827,"36":0.10014533251523972,"37":0.18769697844982147,"38":0.13728734850883484,"39":0.15593598783016205,"40":-0.040683675557374954,"41":-0.05318409204483032,"42":-0.04674484580755234,"43":-0.03527723625302315,"44":0.02514416165649891,"45":0.09127072244882584,"46":-0.027111945673823357,"47":-0.08615455776453018,"48":0.1164909228682518,"49":-0.19994430243968964,"50":-0.1506071537733078,"51":-0.13177035748958588,"52":-0.039751552045345306,"53":0.012397710233926773,"54":-0.18141525983810425,"55":0.19826531410217285,"56":0.12778232991695404,"57":-0.06559408456087112,"58":0.19817139208316803,"59":-0.07847405225038528,"60":-0.18314427137374878,"61":-0.04818395897746086,"62":0.1713360846042633,"63":0.1807117462158203,"64":0.09624967724084854,"65":-0.07106448709964752,"66":0.018967388197779655,"67":0.08188778907060623,"68":0.10674098134040833,"69":0.08717058598995209,"70":0.06724651157855988,"71":-0.024625133723020554,"72":-0.002356163924559951,"73":-0.07084056735038757,"74":-0.040206409990787506,"75":-0.07449296116828918,"76":0.018665846437215805,"77":0.058356959372758865,"78":-0.11378678679466248,"79":-0.02498447708785534,"80":0.12290768325328827,"81":0.06113622710108757,"82":0.03170311078429222,"83":-0.05446809157729149,"84":-0.17471255362033844,"85":-0.06640523672103882,"86":0.02512449398636818,"87":0.05974894016981125,"88":0.16922861337661743,"89":-0.09858285635709763,"90":0.16848446428775787,"91":0.197329580783844,"92":-0.028657980263233185,"93":-0.07154285162687302,"94":0.14047785103321075,"95":-0.0006388574838638306,"96":0.18367299437522888,"97":0.162821426987648,"98":0.0959937795996666,"99":-0.16193953156471252,"100":-0.04134885221719742,"101":0.13371217250823975,"102":-0.029452471062541008,"103":0.08398018032312393,"104":-0.11017864942550659,"105":-0.11484679579734802,"106":0.18552029132843018,"107":0.03576922044157982,"108":0.09928692877292633,"109":0.06560856848955154,"110":-0.0954103171825409,"111":0.16431614756584167,"112":0.03943586349487305,"113":0.18691694736480713,"114":0.05215335637331009,"115":-0.1061583161354065,"116":0.10275810211896896,"117":-0.12251105159521103,"118":0.12640546262264252,"119":0.054901111871004105,"120":0.08624901622533798,"121":0.1089719831943512,"122":-0.1810705065727234,"123":-0.16789638996124268,"124":-0.19033963978290558,"125":0.0783018171787262,"126":0.19012868404388428,"127":-0.041586171835660934,"128":0.18132705986499786,"129":-0.07712189108133316,"130":0.18869896233081818,"131":0.16793036460876465,"132":0.0205503199249506,"133":-0.06355968862771988,"134":-0.03991878032684326,"135":0.1398402899503708,"136":0.1530119776725769,"137":-0.17238162457942963,"138":0.10036687552928925,"139":0.16189973056316376,"140":0.09164608269929886,"141":0.10719755291938782,"142":-0.09184876829385757,"143":0.16352155804634094,"144":0.15765006840229034,"145":0.06834713369607925,"146":0.12301125377416611,"147":0.08795853704214096,"148":0.13322556018829346,"149":-0.09498701989650726,"150":-0.13313515484333038,"151":0.15673823654651642,"152":-0.06283225864171982,"153":0.15393072366714478,"154":0.05884143337607384,"155":-0.02735026180744171,"156":0.07776714861392975,"157":0.14480923116207123,"158":0.08021258562803268,"159":-0.031209396198391914,"160":-0.1534295529127121,"161":0.11740002781152725,"162":-0.03908833861351013,"163":0.024697471410036087,"164":-0.14790640771389008,"165":-0.12162642925977707,"166":0.057680435478687286,"167":0.03251809999346733,"168":-0.06413165479898453,"169":0.1794113665819168,"170":0.18891707062721252,"171":0.11829176545143127,"172":0.03218430280685425,"173":0.1393486112356186,"174":0.05981188639998436,"175":-0.1378503143787384,"176":0.18755151331424713,"177":0.04957987740635872,"178":0.05678357556462288,"179":-0.1423012614250183,"180":0.13276894390583038,"181":-0.15512019395828247,"182":0.13067369163036346,"183":-0.13569673895835876,"184":-0.07803431153297424,"185":0.16457237303256989,"186":0.16269813477993011,"187":0.021484950557351112,"188":-0.1939612179994583,"189":0.1316329538822174,"190":-0.1870882511138916,"191":-0.13828426599502563,"192":0.17814791202545166,"193":0.12049578130245209,"194":-0.08809395879507065,"195":0.08270090073347092,"196":0.07545006275177002,"197":0.1509067416191101,"198":-0.03276114538311958,"199":0.06829032301902771,"200":0.1140279620885849,"201":-0.11484202742576599,"202":-0.09840228408575058,"203":-0.184982031583786,"204":0.01054411567747593,"205":-0.003067813813686371,"206":-0.11319734901189804,"207":0.03519304469227791,"208":-0.17386656999588013,"209":0.12567605078220367,"210":-0.032486725598573685,"211":0.11416470259428024,"212":-0.07834308594465256,"213":-0.19645516574382782,"214":-0.05943837761878967,"215":-0.09576382488012314,"216":-0.056988462805747986,"217":-0.1493508368730545,"218":-0.011045983992516994,"219":-0.18903788924217224,"220":-0.117493636906147,"221":0.04018017277121544,"222":-0.04097095504403114,"223":0.023759014904499054,"224":0.11702962219715118,"225":0.16674044728279114,"226":-0.19691702723503113,"227":-0.1648203730583191,"228":-0.18222954869270325,"229":0.18005768954753876,"230":-0.11224418133497238,"231":-0.123345747590065,"232":-0.18823912739753723,"233":0.19469353556632996,"234":-0.1828920692205429,"235":0.09915958344936371,"236":0.054328516125679016,"237":-0.10398534685373306,"238":0.10968590527772903,"239":0.19311310350894928,"240":-0.011227051727473736,"241":0.014444589614868164,"242":0.11572349071502686,"243":-0.10185607522726059,"244":0.029538951814174652,"245":0.06853151321411133,"246":0.06290630251169205,"247":0.07219924032688141,"248":-0.027136731892824173,"249":-0.1118115559220314,"250":0.018510228022933006,"251":-0.15647198259830475,"252":-0.15473930537700653,"253":-0.14874352514743805,"254":0.008301238529384136,"255":0.003315785899758339,"256":0.005753051955252886,"257":0.09769492596387863,"258":0.16914500296115875,"259":0.10148537158966064,"260":-0.18558472394943237,"261":-0.06686192005872726,"262":0.16340525448322296,"263":-0.1228199303150177,"264":0.16835418343544006,"265":0.1579233855009079,"266":-0.06650818884372711,"267":-0.06351611018180847,"268":-0.15589456260204315,"269":-0.0728502944111824,"270":-0.04731745645403862,"271":-0.019410159438848495,"272":0.057929571717977524,"273":-0.04618017375469208}},"9":{"bias":0.022098032757639885,"weights":{"0":0.07799261808395386,"1":0.03512588515877724,"2":-0.17689566314220428,"3":0.06811665743589401,"4":-0.12539173662662506,"5":-0.08718852698802948,"6":-0.019961966201663017,"7":0.05478990077972412,"8":0.18481040000915527,"9":0.14261552691459656,"10":0.19430753588676453,"11":-0.058223240077495575,"12":0.2134885936975479,"13":-0.08493664115667343,"14":0.1894773691892624,"15":-0.15987876057624817,"16":-0.07772836089134216,"17":-0.028033379465341568,"18":0.1409987211227417,"19":-0.00008670182432979345,"20":-0.04758215695619583,"21":-0.07002279907464981,"22":0.05671490728855133,"23":-0.17123523354530334,"24":0.012812637723982334,"25":-0.11392369866371155,"26":0.11752751469612122,"27":-0.18231506645679474,"28":-0.08940637111663818,"29":-0.20834171772003174,"30":0.06378147751092911,"31":0.05090251937508583,"32":-0.10291149467229843,"33":0.06528357416391373,"34":-0.20146924257278442,"35":0.12053791433572769,"36":0.04215792194008827,"37":-0.18026769161224365,"38":-0.08284417539834976,"39":0.10045338422060013,"40":0.0019727174658328295,"41":0.174196258187294,"42":0.08979141712188721,"43":0.09246042370796204,"44":-0.014081215485930443,"45":0.13950954377651215,"46":-0.048350151628255844,"47":0.031350720673799515,"48":-0.08272504806518555,"49":0.031755056232213974,"50":0.013227625750005245,"51":-0.03155519813299179,"52":-0.196739062666893,"53":-0.17375855147838593,"54":-0.17882873117923737,"55":-0.08085928857326508,"56":0.08691498637199402,"57":-0.09093329310417175,"58":0.02148638665676117,"59":-0.0010751673253253102,"60":0.10404805839061737,"61":0.09421488642692566,"62":-0.2049984484910965,"63":-0.04114334285259247,"64":0.14034733176231384,"65":0.11979407072067261,"66":-0.09396208822727203,"67":-0.03528556972742081,"68":0.10594478994607925,"69":-0.034017227590084076,"70":0.010476693511009216,"71":0.14059698581695557,"72":0.09866981953382492,"73":-0.2191295027732849,"74":0.10139493644237518,"75":0.1294686496257782,"76":0.018163707107305527,"77":-0.2281702160835266,"78":-0.08778500556945801,"79":0.13032132387161255,"80":-0.1313609629869461,"81":-0.08028928935527802,"82":0.03045903518795967,"83":-0.03748882934451103,"84":0.14500051736831665,"85":0.052451327443122864,"86":-0.06340562552213669,"87":0.13792547583580017,"88":0.03235040232539177,"89":-0.08054784685373306,"90":-0.03020690381526947,"91":0.1664990335702896,"92":0.0934908390045166,"93":0.13003967702388763,"94":-0.13074858486652374,"95":0.12588249146938324,"96":-0.047093894332647324,"97":0.20452377200126648,"98":-0.189035102725029,"99":-0.1358896791934967,"100":-0.1852855235338211,"101":-0.09695601463317871,"102":-0.14814364910125732,"103":-0.16461601853370667,"104":-0.06675205379724503,"105":-0.01880045048892498,"106":0.16621866822242737,"107":0.16320393979549408,"108":0.04151983559131622,"109":0.060122378170490265,"110":0.11704897880554199,"111":-0.014347013086080551,"112":-0.1650385558605194,"113":-0.2147640734910965,"114":-0.02924509346485138,"115":-0.14176006615161896,"116":-0.017113767564296722,"117":0.04499097540974617,"118":-0.1645190566778183,"119":-0.03795431926846504,"120":-0.008370989002287388,"121":-0.16397981345653534,"122":0.08567588031291962,"123":-0.0700283795595169,"124":0.07467945665121078,"125":0.038490526378154755,"126":0.00345069682225585,"127":-0.018044782802462578,"128":-0.1469193696975708,"129":0.166358083486557,"130":-0.04038834199309349,"131":0.15014168620109558,"132":-0.18212246894836426,"133":-0.0756172463297844,"134":0.10268161445856094,"135":-0.038621485233306885,"136":-0.06823789328336716,"137":0.1781289130449295,"138":0.15910552442073822,"139":-0.04762690141797066,"140":-0.07577451318502426,"141":-0.0946090891957283,"142":-0.0525640994310379,"143":-0.05470258742570877,"144":-0.05354028940200806,"145":-0.0442536324262619,"146":-0.06905367225408554,"147":0.12051749229431152,"148":-0.12419408559799194,"149":0.16373476386070251,"150":-0.08140619844198227,"151":-0.20755355060100555,"152":0.05026803910732269,"153":-0.045244552195072174,"154":0.19640648365020752,"155":-0.12803606688976288,"156":-0.051969051361083984,"157":0.17449435591697693,"158":-0.09962127357721329,"159":-0.13881295919418335,"160":0.0264675784856081,"161":0.19792945683002472,"162":0.1442982703447342,"163":-0.004407722968608141,"164":-0.07013073563575745,"165":0.07290001213550568,"166":0.023611564189195633,"167":-0.012641498818993568,"168":-0.057712312787771225,"169":0.1075267493724823,"170":0.1760404109954834,"171":-0.06343884021043777,"172":-0.10672270506620407,"173":0.04669101908802986,"174":-0.12904825806617737,"175":-0.15807649493217468,"176":-0.11852842569351196,"177":0.13241595029830933,"178":0.19710473716259003,"179":-0.16629022359848022,"180":-0.1586102694272995,"181":-0.038913317024707794,"182":0.12949830293655396,"183":-0.05191512778401375,"184":-0.04379023239016533,"185":0.0540451817214489,"186":-0.11922097206115723,"187":0.044637199491262436,"188":0.10105690360069275,"189":-0.07820641994476318,"190":-0.045643776655197144,"191":-0.016081519424915314,"192":-0.0019191153114661574,"193":-0.0197067242115736,"194":0.16231068968772888,"195":-0.04040961340069771,"196":0.07027338445186615,"197":0.044491957873106,"198":-0.08666375279426575,"199":-0.13498914241790771,"200":0.20454391837120056,"201":0.03133544698357582,"202":-0.09003319591283798,"203":-0.10622929036617279,"204":-0.11039654910564423,"205":0.20877550542354584,"206":0.19895479083061218,"207":-0.09631314873695374,"208":0.16231843829154968,"209":0.128494530916214,"210":-0.07103933393955231,"211":0.16449801623821259,"212":-0.13879895210266113,"213":-0.06064995750784874,"214":-0.08368155360221863,"215":0.0036480978596955538,"216":-0.02054695412516594,"217":0.12440954148769379,"218":0.1600668579339981,"219":0.08103211224079132,"220":0.07270343601703644,"221":-0.19503745436668396,"222":-0.0737505853176117,"223":-0.10681860893964767,"224":-0.06863415241241455,"225":-0.13762488961219788,"226":0.07513124495744705,"227":-0.0021173434797674417,"228":0.15055307745933533,"229":0.08395695686340332,"230":0.04903322830796242,"231":-0.06893915683031082,"232":-0.22075504064559937,"233":-0.005966383498162031,"234":-0.03570922464132309,"235":-0.039926547557115555,"236":0.007925041951239109,"237":0.07260337471961975,"238":0.0004687784821726382,"239":0.10236810147762299,"240":0.06234819442033768,"241":-0.05637984350323677,"242":-0.09725212305784225,"243":-0.15837526321411133,"244":-0.11482711136341095,"245":-0.125473290681839,"246":0.12143268436193466,"247":0.019137678667902946,"248":0.051155947148799896,"249":0.08883235603570938,"250":-0.16370943188667297,"251":-0.12084121257066727,"252":-0.013980078510940075,"253":0.039976999163627625,"254":-0.1446285843849182,"255":0.04764265939593315,"256":-0.1466883271932602,"257":-0.11360327899456024,"258":0.15007735788822174,"259":-0.1881544440984726,"260":0.19088730216026306,"261":0.13984689116477966,"262":-0.023141246289014816,"263":-0.11745993793010712,"264":0.09285354614257812,"265":-0.044126756489276886,"266":-0.01071805041283369,"267":0.017956912517547607,"268":0.03852333873510361,"269":0.16789735853672028,"270":-0.07601999491453171,"271":-0.007086935453116894,"272":-0.0010110610164701939,"273":-0.062369536608457565}},"10":{"bias":-0.14653271436691284,"weights":{"0":-0.09625507891178131,"1":-0.07574576884508133,"2":-0.041743237525224686,"3":-0.21473777294158936,"4":0.02527375891804695,"5":0.1367701143026352,"6":0.039864055812358856,"7":-0.0532451793551445,"8":-0.08854137361049652,"9":0.09630075097084045,"10":-0.08492619544267654,"11":0.17970183491706848,"12":0.03427758067846298,"13":-0.038554973900318146,"14":0.13001567125320435,"15":-0.03824013099074364,"16":-0.0686713233590126,"17":-0.15506872534751892,"18":-0.13860441744327545,"19":-0.1554676592350006,"20":0.13173069059848785,"21":-0.10467816889286041,"22":-0.3026520013809204,"23":-0.0350838340818882,"24":-0.0046514952555298805,"25":-0.028943924233317375,"26":-0.03775493800640106,"27":-0.12480109930038452,"28":0.16583891212940216,"29":0.11905678361654282,"30":0.0008062731940299273,"31":0.11891791969537735,"32":0.18631315231323242,"33":-0.0667818933725357,"34":0.16856208443641663,"35":0.14245639741420746,"36":0.10626780986785889,"37":-0.06555461883544922,"38":0.006191267166286707,"39":0.06615576148033142,"40":0.14751644432544708,"41":-0.12935732305049896,"42":-0.16336418688297272,"43":0.08790621161460876,"44":0.08323203027248383,"45":-0.16693702340126038,"46":-0.036066193133592606,"47":-0.13646450638771057,"48":0.12212616950273514,"49":0.10874772816896439,"50":0.18697357177734375,"51":-0.10407547652721405,"52":0.15117473900318146,"53":-0.004260228946805,"54":-0.044984154403209686,"55":-0.20724959671497345,"56":0.02532319910824299,"57":-0.05133747681975365,"58":0.07283660024404526,"59":0.11709331721067429,"60":-0.1667100191116333,"61":0.04558053985238075,"62":0.11696822941303253,"63":0.04103727266192436,"64":0.03877434879541397,"65":0.045443058013916016,"66":0.16000394523143768,"67":-0.052186232060194016,"68":0.07940554618835449,"69":-0.14805011451244354,"70":0.030808303505182266,"71":0.12816518545150757,"72":0.19894802570343018,"73":0.10252393782138824,"74":-0.01747342199087143,"75":-0.14893953502178192,"76":0.06278323382139206,"77":0.1854652315378189,"78":0.039192553609609604,"79":-0.07062740623950958,"80":-0.07572510838508606,"81":-0.062021780759096146,"82":-0.07074000686407089,"83":-0.14490056037902832,"84":-0.19839802384376526,"85":-0.1741885542869568,"86":-0.01702149771153927,"87":-0.10857035219669342,"88":-0.022224148735404015,"89":-0.0747220516204834,"90":0.1763991415500641,"91":0.03281993791460991,"92":0.07644164562225342,"93":-0.03578631579875946,"94":-0.17566078901290894,"95":-0.0909847840666771,"96":0.09316663444042206,"97":0.03312485292553902,"98":-0.06651460379362106,"99":-0.008363595232367516,"100":-0.1709323227405548,"101":0.0066116489470005035,"102":0.1495993286371231,"103":0.015367408283054829,"104":0.1773659586906433,"105":0.02104342356324196,"106":-0.062274787575006485,"107":0.016154978424310684,"108":0.10838508605957031,"109":0.1602470576763153,"110":0.13361942768096924,"111":-0.02632058970630169,"112":-0.13668885827064514,"113":0.14351321756839752,"114":0.19471782445907593,"115":-0.12922458350658417,"116":-0.015225550159811974,"117":-0.13833636045455933,"118":0.018516037613153458,"119":0.10848122090101242,"120":0.09426859021186829,"121":0.07475447654724121,"122":-0.06609540432691574,"123":-0.17355877161026,"124":-0.08772610127925873,"125":0.13266539573669434,"126":0.0682668387889862,"127":0.19641967117786407,"128":0.0572785884141922,"129":0.1006459966301918,"130":0.15504583716392517,"131":0.10047727078199387,"132":0.16652557253837585,"133":0.03416284918785095,"134":0.08891256153583527,"135":0.02860625647008419,"136":0.017597712576389313,"137":0.06434634327888489,"138":0.10769376158714294,"139":-0.20132283866405487,"140":-0.1696155071258545,"141":0.05276191234588623,"142":0.10560677945613861,"143":0.018952853977680206,"144":0.10353528708219528,"145":-0.1651580035686493,"146":0.07524499297142029,"147":-0.22612310945987701,"148":0.07897485792636871,"149":0.10793904215097427,"150":0.13867329061031342,"151":0.05132739990949631,"152":-0.15603743493556976,"153":0.0476590096950531,"154":0.08596479147672653,"155":0.1368926763534546,"156":-0.12931209802627563,"157":-0.10171086341142654,"158":0.13748952746391296,"159":-0.18090341985225677,"160":0.1733218878507614,"161":-0.17064498364925385,"162":-0.04699781537055969,"163":0.09429048001766205,"164":-0.039056356996297836,"165":0.10368844866752625,"166":-0.11988236755132675,"167":0.11870157718658447,"168":-0.19398623704910278,"169":0.11660902947187424,"170":0.024249635636806488,"171":0.015319802798330784,"172":-0.006761911790817976,"173":0.15715788304805756,"174":-0.05286816880106926,"175":-0.1369123011827469,"176":-0.17748050391674042,"177":0.17537088692188263,"178":-0.016702521592378616,"179":-0.008140083402395248,"180":0.06608955562114716,"181":0.07479513436555862,"182":-0.034927848726511,"183":-0.0023828139528632164,"184":-0.06278912723064423,"185":0.029120583087205887,"186":-0.16781143844127655,"187":-0.045521605759859085,"188":0.12315653264522552,"189":0.09447968751192093,"190":-0.20690396428108215,"191":-0.20591628551483154,"192":0.1758320927619934,"193":-0.11019241809844971,"194":-0.001072075916454196,"195":0.013853953219950199,"196":0.03275072202086449,"197":0.05646664276719093,"198":0.05925292521715164,"199":0.004486909601837397,"200":-0.13202409446239471,"201":0.13184989988803864,"202":-0.17198076844215393,"203":-0.08723914623260498,"204":-0.0776045173406601,"205":0.11588957905769348,"206":0.020259661599993706,"207":0.007616373244673014,"208":-0.17728754878044128,"209":0.2099989652633667,"210":0.054735586047172546,"211":-0.08939450234174728,"212":-0.04850992560386658,"213":0.1693652868270874,"214":0.02710818126797676,"215":-0.17278164625167847,"216":0.14303432404994965,"217":0.04731566458940506,"218":0.11666522920131683,"219":-0.025108059868216515,"220":-0.06164095178246498,"221":0.04510792717337608,"222":-0.023131994530558586,"223":-0.15957482159137726,"224":-0.04570785537362099,"225":-0.057075753808021545,"226":0.10766060650348663,"227":0.03901996463537216,"228":0.02017117477953434,"229":0.10787305980920792,"230":-0.055697958916425705,"231":-0.15026837587356567,"232":0.0004639455582946539,"233":-0.11537110060453415,"234":-0.08205331861972809,"235":-0.004449127707630396,"236":0.02229008823633194,"237":-0.1317029446363449,"238":0.05633469298481941,"239":0.16710235178470612,"240":0.1068958267569542,"241":0.09439723193645477,"242":-0.03415364772081375,"243":0.06180884316563606,"244":-0.1250271201133728,"245":0.0856819674372673,"246":-0.04108675569295883,"247":-0.0017302432097494602,"248":-0.15718092024326324,"249":0.07799449563026428,"250":-0.015619369223713875,"251":0.02231920138001442,"252":-0.08117798715829849,"253":-0.023511413484811783,"254":-0.03879561647772789,"255":-0.19759513437747955,"256":0.1417294293642044,"257":0.023604828864336014,"258":-0.18326400220394135,"259":-0.04442526027560234,"260":-0.08090513944625854,"261":0.05814627557992935,"262":0.005148029420524836,"263":-0.036156751215457916,"264":-0.13811612129211426,"265":-0.025831101462244987,"266":-0.17680348455905914,"267":-0.06645970791578293,"268":0.21377551555633545,"269":-0.013721897266805172,"270":0.03365910425782204,"271":-0.07640761137008667,"272":0.022366963326931,"273":-0.14121811091899872}},"11":{"bias":0.05616609379649162,"weights":{"0":0.18175673484802246,"1":0.009219083935022354,"2":-0.17343537509441376,"3":-0.03705528378486633,"4":0.1567784547805786,"5":-0.1096300557255745,"6":-0.0005344878882169724,"7":-0.130524680018425,"8":0.05193271487951279,"9":-0.11351864784955978,"10":-0.11115135997533798,"11":0.027354517951607704,"12":0.0494580939412117,"13":0.14797157049179077,"14":0.03116643987596035,"15":-0.09631776064634323,"16":-0.07127024978399277,"17":-0.01542737241834402,"18":0.02914070524275303,"19":-0.003407927230000496,"20":0.10478924959897995,"21":0.1759524792432785,"22":-0.12461116164922714,"23":-0.17267106473445892,"24":-0.07757551968097687,"25":-0.16833283007144928,"26":0.1541181057691574,"27":-0.08389318734407425,"28":0.11200577020645142,"29":-0.13635283708572388,"30":0.15318527817726135,"31":-0.10761342942714691,"32":-0.18220902979373932,"33":0.1735745370388031,"34":0.050723593682050705,"35":-0.10662180185317993,"36":-0.10754159837961197,"37":0.19280613958835602,"38":-0.11893536895513535,"39":0.11812863498926163,"40":-0.19111818075180054,"41":0.07307513803243637,"42":0.060004156082868576,"43":-0.12544915080070496,"44":-0.2005763053894043,"45":0.01660405844449997,"46":-0.09677115082740784,"47":-0.10588216781616211,"48":-0.17773252725601196,"49":0.1678510159254074,"50":0.08564384281635284,"51":0.002985697239637375,"52":-0.09600687026977539,"53":0.09357025474309921,"54":0.11978011578321457,"55":-0.16894695162773132,"56":-0.0996161624789238,"57":-0.1704690158367157,"58":-0.13957123458385468,"59":-0.07912784814834595,"60":-0.1493731141090393,"61":0.1497378796339035,"62":0.000769871287047863,"63":-0.16534040868282318,"64":-0.07655194401741028,"65":0.19266708195209503,"66":-0.11433398723602295,"67":-0.026306767016649246,"68":-0.006474948488175869,"69":-0.04489697143435478,"70":-0.03650879114866257,"71":0.17152701318264008,"72":0.17351244390010834,"73":-0.025523381307721138,"74":-0.19150300323963165,"75":-0.005141168367117643,"76":-0.06078207120299339,"77":-0.14199776947498322,"78":0.16495829820632935,"79":0.18975721299648285,"80":-0.009710150770843029,"81":0.047733861953020096,"82":-0.04294015094637871,"83":0.1691865622997284,"84":0.15985195338726044,"85":0.07812686264514923,"86":-0.03648624196648598,"87":-0.14919385313987732,"88":0.09496340900659561,"89":-0.13067235052585602,"90":-0.05974168702960014,"91":-0.0867471769452095,"92":0.01125633530318737,"93":-0.1748427301645279,"94":0.0002763954398687929,"95":0.16111090779304504,"96":0.0017512807389721274,"97":-0.03201150521636009,"98":0.1564941257238388,"99":0.013455281965434551,"100":0.06159806251525879,"101":0.18788038194179535,"102":-0.12133117020130157,"103":0.19957780838012695,"104":-0.19662687182426453,"105":-0.10784357786178589,"106":-0.029882259666919708,"107":0.11770976334810257,"108":-0.11774183064699173,"109":0.09175460040569305,"110":-0.17700627446174622,"111":-0.10203055292367935,"112":-0.029100505635142326,"113":0.15798360109329224,"114":-0.13364362716674805,"115":0.017431218177080154,"116":-0.08042261749505997,"117":-0.04665568470954895,"118":-0.06180983781814575,"119":0.07080844789743423,"120":0.14468364417552948,"121":0.18526601791381836,"122":-0.17284013330936432,"123":0.00827046949416399,"124":-0.113409623503685,"125":0.15829257667064667,"126":0.042303189635276794,"127":-0.15964068472385406,"128":0.1666981428861618,"129":-0.031320031732320786,"130":0.012422974221408367,"131":-0.03731231391429901,"132":0.01491567213088274,"133":-0.018716569989919662,"134":-0.06285574287176132,"135":-0.18237915635108948,"136":0.0813734158873558,"137":0.12402327358722687,"138":-0.19456036388874054,"139":0.004847948905080557,"140":-0.010649600997567177,"141":0.10133371502161026,"142":-0.19910363852977753,"143":0.11395429819822311,"144":0.05607070401310921,"145":-0.015254294499754906,"146":0.04290927201509476,"147":0.023044735193252563,"148":0.1719786524772644,"149":0.011930546723306179,"150":0.054911572486162186,"151":-0.19442594051361084,"152":-0.0596553198993206,"153":-0.11504032462835312,"154":-0.0951482430100441,"155":0.07120390236377716,"156":-0.021989641711115837,"157":-0.175819531083107,"158":-0.08543526381254196,"159":0.16935130953788757,"160":-0.02322031557559967,"161":0.001993898767977953,"162":0.15159977972507477,"163":-0.036779336631298065,"164":0.0871860459446907,"165":0.007997711189091206,"166":0.07064130157232285,"167":0.19624143838882446,"168":-0.08109436184167862,"169":0.09272796660661697,"170":-0.16167940199375153,"171":0.13972297310829163,"172":0.16757258772850037,"173":0.004439095035195351,"174":0.14524856209754944,"175":0.09852967411279678,"176":0.08684908598661423,"177":-0.16924960911273956,"178":0.1633775234222412,"179":-0.19413073360919952,"180":0.04714640602469444,"181":-0.032735392451286316,"182":-0.0006845702882856131,"183":0.004405119456350803,"184":0.1770748496055603,"185":-0.08743533492088318,"186":-0.047846075147390366,"187":0.14106595516204834,"188":-0.15267843008041382,"189":0.08261949568986893,"190":0.11389551311731339,"191":-0.12291403114795685,"192":0.16374200582504272,"193":0.045484188944101334,"194":0.019707651808857918,"195":0.14196914434432983,"196":0.14620885252952576,"197":-0.15159103274345398,"198":-0.0774918645620346,"199":-0.0940881073474884,"200":0.1676388382911682,"201":-0.047978125512599945,"202":0.05013911798596382,"203":-0.14672592282295227,"204":0.011001157574355602,"205":0.01800832338631153,"206":0.14531651139259338,"207":-0.06427779048681259,"208":-0.050009727478027344,"209":-0.09480668604373932,"210":0.02146047353744507,"211":-0.05338886007666588,"212":-0.1836245208978653,"213":-0.016314949840307236,"214":0.010013825260102749,"215":-0.19237855076789856,"216":-0.10407659411430359,"217":0.16619661450386047,"218":-0.05456497147679329,"219":-0.0585244856774807,"220":-0.008476282469928265,"221":0.0534488745033741,"222":-0.13538147509098053,"223":-0.03567477688193321,"224":0.18094773590564728,"225":-0.02503887377679348,"226":0.08711880445480347,"227":0.11470668017864227,"228":-0.06737164407968521,"229":0.19358396530151367,"230":-0.13436894118785858,"231":-0.16765181720256805,"232":0.13987962901592255,"233":0.19602523744106293,"234":-0.16240540146827698,"235":0.17255353927612305,"236":0.05716453865170479,"237":0.05136192962527275,"238":0.08195490390062332,"239":0.00511984433978796,"240":-0.15630479156970978,"241":0.06967654824256897,"242":-0.006504762452095747,"243":0.04327377304434776,"244":0.09284405410289764,"245":-0.17639456689357758,"246":0.1691250503063202,"247":0.1253613978624344,"248":-0.15248718857765198,"249":0.1588214933872223,"250":-0.1420661062002182,"251":0.0025444054044783115,"252":0.1842450052499771,"253":0.03601982444524765,"254":-0.10227741301059723,"255":-0.05004843324422836,"256":0.11743909120559692,"257":0.1981302797794342,"258":-0.10889683663845062,"259":-0.17592480778694153,"260":-0.062101297080516815,"261":0.11404886841773987,"262":-0.016640642657876015,"263":0.09315607696771622,"264":0.18978500366210938,"265":0.14452789723873138,"266":-0.07037561386823654,"267":-0.011420272290706635,"268":0.12357376515865326,"269":0.13952955603599548,"270":-0.0855548158288002,"271":-0.06041257455945015,"272":-0.09620266407728195,"273":-0.11928411573171616}},"12":{"bias":0.03786352276802063,"weights":{"0":-0.0947161540389061,"1":-0.08962475508451462,"2":0.1499173790216446,"3":-0.18312734365463257,"4":0.07620682567358017,"5":0.2233332395553589,"6":0.24635522067546844,"7":0.07130467891693115,"8":-0.016052337363362312,"9":-0.15116608142852783,"10":-0.20050203800201416,"11":-0.10619542747735977,"12":-0.15223000943660736,"13":0.11982996016740799,"14":-0.03869320824742317,"15":-0.09748346358537674,"16":0.00752763357013464,"17":0.08272390067577362,"18":-0.18532265722751617,"19":-0.13198168575763702,"20":-0.11539097875356674,"21":-0.15875227749347687,"22":-0.29230451583862305,"23":-0.04334438964724541,"24":0.04072548821568489,"25":0.03225893899798393,"26":-0.150124192237854,"27":0.009613755159080029,"28":0.12521858513355255,"29":0.0011191621888428926,"30":0.24215029180049896,"31":0.1105751022696495,"32":0.06985592097043991,"33":0.03140012547373772,"34":0.2000754177570343,"35":0.1878015547990799,"36":0.1984582543373108,"37":-0.18024198710918427,"38":0.031119508668780327,"39":0.07900143414735794,"40":-0.06326852738857269,"41":0.14732201397418976,"42":-0.20438361167907715,"43":-0.08769828826189041,"44":0.08295079320669174,"45":-0.2023395448923111,"46":-0.1467810869216919,"47":-0.10320793837308884,"48":0.12421321868896484,"49":0.017064517363905907,"50":-0.17505885660648346,"51":0.009966827929019928,"52":0.14822284877300262,"53":0.1529485434293747,"54":0.15655769407749176,"55":0.1813507080078125,"56":-0.04033469781279564,"57":0.04635670781135559,"58":-0.16301201283931732,"59":-0.0551484152674675,"60":0.05332570523023605,"61":0.06303016096353531,"62":0.19251950085163116,"63":0.03446533530950546,"64":0.05138440802693367,"65":-0.05500318109989166,"66":-0.17288042604923248,"67":-0.039199184626340866,"68":-0.15459707379341125,"69":0.21412499248981476,"70":0.09132756292819977,"71":-0.044025495648384094,"72":-0.004607555456459522,"73":0.1016593873500824,"74":0.1621561050415039,"75":-0.09574349224567413,"76":0.030465083196759224,"77":-0.054767344146966934,"78":-0.05534454807639122,"79":0.23576802015304565,"80":-0.1560499519109726,"81":-0.13724251091480255,"82":-0.19589239358901978,"83":-0.04014391079545021,"84":0.07832454144954681,"85":0.18091903626918793,"86":-0.0049621039070189,"87":-0.10538581758737564,"88":-0.0018515506526455283,"89":-0.017012599855661392,"90":0.12316332757472992,"91":-0.1024218499660492,"92":-0.0685805231332779,"93":-0.11696063727140427,"94":-0.17684796452522278,"95":0.2624271512031555,"96":-0.12206654995679855,"97":0.1809476763010025,"98":-0.08675849437713623,"99":-0.0831623524427414,"100":0.05473950132727623,"101":-0.12013275176286697,"102":0.15938135981559753,"103":0.2100609391927719,"104":-0.11609810590744019,"105":-0.04563397169113159,"106":0.06393396854400635,"107":-0.025224754586815834,"108":0.17033591866493225,"109":0.07923000305891037,"110":0.13738423585891724,"111":-0.12534907460212708,"112":-0.08266346156597137,"113":-0.00011345889652147889,"114":0.13134150207042694,"115":-0.016226354986429214,"116":0.020585481077432632,"117":-0.14997592568397522,"118":-0.08772380650043488,"119":-0.17716510593891144,"120":0.17956587672233582,"121":0.030173232778906822,"122":0.25800806283950806,"123":-0.09258703887462616,"124":-0.169075146317482,"125":-0.1544639617204666,"126":0.08944079279899597,"127":-0.16191208362579346,"128":-0.15238840878009796,"129":0.20923912525177002,"130":-0.037121858447790146,"131":-0.006409213412553072,"132":0.05392253026366234,"133":-0.13004542887210846,"134":0.047382671386003494,"135":-0.0984911099076271,"136":0.14624924957752228,"137":0.06689802557229996,"138":-0.011151380836963654,"139":-0.09080827236175537,"140":-0.1379644125699997,"141":0.10540668666362762,"142":0.03080480545759201,"143":-0.16722486913204193,"144":0.1923733353614807,"145":0.21239741146564484,"146":0.1374804526567459,"147":-0.07580374926328659,"148":0.047097958624362946,"149":-0.1572461575269699,"150":-0.017842819914221764,"151":0.03127176687121391,"152":-0.1195896565914154,"153":0.0916399285197258,"154":0.16055873036384583,"155":-0.04325643181800842,"156":0.09683892875909805,"157":-0.14613017439842224,"158":0.15630125999450684,"159":0.20219899713993073,"160":-0.08394000679254532,"161":-0.0626865029335022,"162":-0.1707570105791092,"163":0.19778791069984436,"164":0.08016258478164673,"165":0.17695161700248718,"166":0.1929374635219574,"167":-0.007957945577800274,"168":-0.11769535392522812,"169":-0.09032142907381058,"170":-0.12902139127254486,"171":-0.09627161920070648,"172":0.08555358648300171,"173":0.20010071992874146,"174":-0.026748349890112877,"175":0.1232735887169838,"176":0.001177951809950173,"177":0.18505550920963287,"178":0.019862055778503418,"179":-0.06295740604400635,"180":0.07768869400024414,"181":-0.18867193162441254,"182":0.0598410964012146,"183":0.16021403670310974,"184":0.026368221268057823,"185":-0.10229191929101944,"186":0.14657656848430634,"187":-0.21667823195457458,"188":-0.21784761548042297,"189":0.024821240454912186,"190":-0.17684270441532135,"191":-0.17064647376537323,"192":0.016137873753905296,"193":0.012220875360071659,"194":0.10071797668933868,"195":-0.09958025813102722,"196":-0.18217648565769196,"197":0.1837802231311798,"198":0.06329231709241867,"199":-0.15952827036380768,"200":-0.10030104219913483,"201":0.1416085958480835,"202":-0.18289847671985626,"203":0.1282847374677658,"204":-0.0891331136226654,"205":0.04460115730762482,"206":0.043679188936948776,"207":0.10959022492170334,"208":0.07634849846363068,"209":0.06080762669444084,"210":0.10176633298397064,"211":-0.17602881789207458,"212":0.1011815294623375,"213":0.16639968752861023,"214":0.0398108996450901,"215":-0.1456700563430786,"216":0.16387732326984406,"217":-0.0978081151843071,"218":0.08509398996829987,"219":0.13452009856700897,"220":-0.021202096715569496,"221":-0.022292982786893845,"222":0.08244665712118149,"223":-0.1143832877278328,"224":-0.06715217232704163,"225":0.2246888428926468,"226":-0.1475754827260971,"227":-0.013751442544162273,"228":0.1815738081932068,"229":-0.00983660388737917,"230":0.03442458063364029,"231":-0.06222555413842201,"232":-0.08174294978380203,"233":-0.07995918393135071,"234":-0.1823722869157791,"235":-0.12375225126743317,"236":-0.06487336754798889,"237":0.09238167852163315,"238":0.16632682085037231,"239":0.009051024913787842,"240":0.139039546251297,"241":-0.14967699348926544,"242":-0.07728560268878937,"243":0.20325690507888794,"244":0.011058814823627472,"245":-0.1563766449689865,"246":-0.06757929176092148,"247":-0.13801135122776031,"248":0.20387783646583557,"249":0.07880186289548874,"250":-0.003972249571233988,"251":-0.13741159439086914,"252":-0.1130996122956276,"253":-0.18165308237075806,"254":-0.061215437948703766,"255":-0.0036768396385014057,"256":-0.15650342404842377,"257":-0.14821699261665344,"258":0.19613929092884064,"259":0.024852195754647255,"260":0.12174969166517258,"261":0.040459778159856796,"262":0.11592444777488708,"263":0.06873881816864014,"264":-0.1191234141588211,"265":0.07803826779127121,"266":0.14125020802021027,"267":0.07151571661233902,"268":0.06592507660388947,"269":-0.10195887833833694,"270":-0.04219426214694977,"271":0.03418354317545891,"272":0.12472271174192429,"273":0.13666556775569916}},"13":{"bias":-0.2084190845489502,"weights":{"0":0.10487529635429382,"1":-0.0839194655418396,"2":-0.11445292830467224,"3":-0.1780405342578888,"4":0.049808528274297714,"5":-0.12328872829675674,"6":0.11885779350996017,"7":0.17467233538627625,"8":0.1545000821352005,"9":-0.010933458805084229,"10":0.11393945664167404,"11":-0.04822305217385292,"12":0.174205482006073,"13":-0.19634895026683807,"14":0.1171165183186531,"15":-0.20150339603424072,"16":-0.10480240732431412,"17":-0.18089962005615234,"18":-0.10944052785634995,"19":-0.11242026090621948,"20":0.02556949481368065,"21":-0.026597950607538223,"22":-0.2375136911869049,"23":0.0892355889081955,"24":-0.08202408999204636,"25":-0.035145748406648636,"26":0.001012455322779715,"27":-0.13361847400665283,"28":-0.13410617411136627,"29":0.19866569340229034,"30":0.07575266063213348,"31":0.17343442142009735,"32":-0.034330882132053375,"33":-0.03520069643855095,"34":-0.13625438511371613,"35":0.06597735732793808,"36":0.15943583846092224,"37":0.13902901113033295,"38":-0.12490570545196533,"39":0.03559088334441185,"40":0.024508187547326088,"41":-0.05813247337937355,"42":-0.0397057980298996,"43":0.04445595294237137,"44":0.13464947044849396,"45":-0.16604071855545044,"46":-0.15864335000514984,"47":0.09727144986391068,"48":-0.01929743029177189,"49":-0.16398724913597107,"50":0.09389643371105194,"51":-0.10930286347866058,"52":-0.16022290289402008,"53":-0.1383293867111206,"54":-0.08766921609640121,"55":-0.1892489343881607,"56":-0.1713283210992813,"57":0.14347364008426666,"58":0.06573029607534409,"59":-0.12366464734077454,"60":-0.11760301887989044,"61":0.15359453856945038,"62":0.08566365391016006,"63":-0.033333033323287964,"64":0.18136616051197052,"65":-0.04303810000419617,"66":-0.018687117844820023,"67":-0.11475658416748047,"68":0.10602749139070511,"69":-0.10773421078920364,"70":0.155129075050354,"71":-0.20204412937164307,"72":0.1401539146900177,"73":-0.1454012095928192,"74":-0.011346723884344101,"75":0.06187240779399872,"76":0.14623309671878815,"77":-0.08037782460451126,"78":0.22562788426876068,"79":-0.020271066576242447,"80":0.05741776525974274,"81":0.011352752335369587,"82":0.03859236091375351,"83":0.05482255667448044,"84":0.14334069192409515,"85":0.07903778553009033,"86":-0.16121621429920197,"87":-0.16126686334609985,"88":-0.19248352944850922,"89":-0.1462496966123581,"90":-0.03042321652173996,"91":-0.12929727137088776,"92":0.1916821449995041,"93":0.04651545360684395,"94":-0.15864837169647217,"95":0.1349346935749054,"96":-0.14652462303638458,"97":0.1868683248758316,"98":-0.1791619211435318,"99":-0.11378081887960434,"100":0.09270121902227402,"101":0.055203329771757126,"102":0.18760859966278076,"103":0.05344727635383606,"104":0.013785473071038723,"105":-0.061240844428539276,"106":0.04298895224928856,"107":0.14067904651165009,"108":-0.03969519957900047,"109":-0.20223791897296906,"110":-0.13551634550094604,"111":-0.09113072603940964,"112":0.04786190763115883,"113":0.06289153546094894,"114":0.08735238760709763,"115":0.11363336443901062,"116":0.12383106350898743,"117":-0.04864171892404556,"118":-0.08040811866521835,"119":0.044433921575546265,"120":-0.10563810914754868,"121":0.06279361248016357,"122":-0.02044684812426567,"123":-0.0781729519367218,"124":-0.21938768029212952,"125":0.013762223534286022,"126":-0.17138642072677612,"127":0.18515664339065552,"128":0.18978460133075714,"129":0.006866344716399908,"130":-0.11898612976074219,"131":-0.1577768176794052,"132":-0.014459767378866673,"133":0.07068268954753876,"134":-0.16242988407611847,"135":-0.14649078249931335,"136":0.14327652752399445,"137":0.03565932437777519,"138":0.043156903237104416,"139":-0.18409164249897003,"140":0.06437133997678757,"141":-0.15783965587615967,"142":0.12674260139465332,"143":-0.006246468052268028,"144":0.0034994808956980705,"145":0.0959482342004776,"146":-0.08214989304542542,"147":-0.2026439905166626,"148":0.11030864715576172,"149":0.05640095844864845,"150":-0.03159916400909424,"151":-0.08205129206180573,"152":0.08440228551626205,