{"classifier":{"brain":{"sizes":[463,231,2],"layers":[{"0":{},"1":{},"2":{},"3":{},"4":{},"5":{},"6":{},"7":{},"8":{},"9":{},"10":{},"11":{},"12":{},"13":{},"14":{},"15":{},"16":{},"17":{},"18":{},"19":{},"20":{},"21":{},"22":{},"23":{},"24":{},"25":{},"26":{},"27":{},"28":{},"29":{},"30":{},"31":{},"32":{},"33":{},"34":{},"35":{},"36":{},"37":{},"38":{},"39":{},"40":{},"41":{},"42":{},"43":{},"44":{},"45":{},"46":{},"47":{},"48":{},"49":{},"50":{},"51":{},"52":{},"53":{},"54":{},"55":{},"56":{},"57":{},"58":{},"59":{},"60":{},"61":{},"62":{},"63":{},"64":{},"65":{},"66":{},"67":{},"68":{},"69":{},"70":{},"71":{},"72":{},"73":{},"74":{},"75":{},"76":{},"77":{},"78":{},"79":{},"80":{},"81":{},"82":{},"83":{},"84":{},"85":{},"86":{},"87":{},"88":{},"89":{},"90":{},"91":{},"92":{},"93":{},"94":{},"95":{},"96":{},"97":{},"98":{},"99":{},"100":{},"101":{},"102":{},"103":{},"104":{},"105":{},"106":{},"107":{},"108":{},"109":{},"110":{},"111":{},"112":{},"113":{},"114":{},"115":{},"116":{},"117":{},"118":{},"119":{},"120":{},"121":{},"122":{},"123":{},"124":{},"125":{},"126":{},"127":{},"128":{},"129":{},"130":{},"131":{},"132":{},"133":{},"134":{},"135":{},"136":{},"137":{},"138":{},"139":{},"140":{},"141":{},"142":{},"143":{},"144":{},"145":{},"146":{},"147":{},"148":{},"149":{},"150":{},"151":{},"152":{},"153":{},"154":{},"155":{},"156":{},"157":{},"158":{},"159":{},"160":{},"161":{},"162":{},"163":{},"164":{},"165":{},"166":{},"167":{},"168":{},"169":{},"170":{},"171":{},"172":{},"173":{},"174":{},"175":{},"176":{},"177":{},"178":{},"179":{},"180":{},"181":{},"182":{},"183":{},"184":{},"185":{},"186":{},"187":{},"188":{},"189":{},"190":{},"191":{},"192":{},"193":{},"194":{},"195":{},"196":{},"197":{},"198":{},"199":{},"200":{},"201":{},"202":{},"203":{},"204":{},"205":{},"206":{},"207":{},"208":{},"209":{},"210":{},"211":{},"212":{},"213":{},"214":{},"215":{},"216":{},"217":{},"218":{},"219":{},"220":{},"221":{},"222":{},"223":{},"224":{},"225":{},"226":{},"227":{},"228":{},"229":{},"230":{},"231":{},"232":{},"233":{},"234":{},"235":{},"236":{},"237":{},"238":{},"239":{},"240":{},"241":{},"242":{},"243":{},"244":{},"245":{},"246":{},"247":{},"248":{},"249":{},"250":{},"251":{},"252":{},"253":{},"254":{},"255":{},"256":{},"257":{},"258":{},"259":{},"260":{},"261":{},"262":{},"263":{},"264":{},"265":{},"266":{},"267":{},"268":{},"269":{},"270":{},"271":{},"272":{},"273":{},"274":{},"275":{},"276":{},"277":{},"278":{},"279":{},"280":{},"281":{},"282":{},"283":{},"284":{},"285":{},"286":{},"287":{},"288":{},"289":{},"290":{},"291":{},"292":{},"293":{},"294":{},"295":{},"296":{},"297":{},"298":{},"299":{},"300":{},"301":{},"302":{},"303":{},"304":{},"305":{},"306":{},"307":{},"308":{},"309":{},"310":{},"311":{},"312":{},"313":{},"314":{},"315":{},"316":{},"317":{},"318":{},"319":{},"320":{},"321":{},"322":{},"323":{},"324":{},"325":{},"326":{},"327":{},"328":{},"329":{},"330":{},"331":{},"332":{},"333":{},"334":{},"335":{},"336":{},"337":{},"338":{},"339":{},"340":{},"341":{},"342":{},"343":{},"344":{},"345":{},"346":{},"347":{},"348":{},"349":{},"350":{},"351":{},"352":{},"353":{},"354":{},"355":{},"356":{},"357":{},"358":{},"359":{},"360":{},"361":{},"362":{},"363":{},"364":{},"365":{},"366":{},"367":{},"368":{},"369":{},"370":{},"371":{},"372":{},"373":{},"374":{},"375":{},"376":{},"377":{},"378":{},"379":{},"380":{},"381":{},"382":{},"383":{},"384":{},"385":{},"386":{},"387":{},"388":{},"389":{},"390":{},"391":{},"392":{},"393":{},"394":{},"395":{},"396":{},"397":{},"398":{},"399":{},"400":{},"401":{},"402":{},"403":{},"404":{},"405":{},"406":{},"407":{},"408":{},"409":{},"410":{},"411":{},"412":{},"413":{},"414":{},"415":{},"416":{},"417":{},"418":{},"419":{},"420":{},"421":{},"422":{},"423":{},"424":{},"425":{},"426":{},"427":{},"428":{},"429":{},"430":{},"431":{},"432":{},"433":{},"434":{},"435":{},"436":{},"437":{},"438":{},"439":{},"440":{},"441":{},"442":{},"443":{},"444":{},"445":{},"446":{},"447":{},"448":{},"449":{},"450":{},"451":{},"452":{},"453":{},"454":{},"455":{},"456":{},"457":{},"458":{},"459":{},"460":{},"461":{},"462":{}},{"0":{"bias":-0.014535769820213318,"weights":{"0":-0.0830237865447998,"1":-0.21116088330745697,"2":-0.10945698618888855,"3":-0.1681891232728958,"4":0.1472312957048416,"5":-0.11792013794183731,"6":0.1397697627544403,"7":-0.1748993694782257,"8":-0.0718207135796547,"9":0.05731605365872383,"10":0.09851324558258057,"11":-0.19450348615646362,"12":0.051818083971738815,"13":0.16295954585075378,"14":0.02983669936656952,"15":0.09033779054880142,"16":-0.004847271833568811,"17":-0.1273510456085205,"18":0.07603904604911804,"19":0.06362184137105942,"20":0.004096822813153267,"21":0.06352109462022781,"22":-0.04250556230545044,"23":-0.21446514129638672,"24":-0.10734103620052338,"25":0.06261629611253738,"26":0.1472189873456955,"27":0.03178288787603378,"28":-0.14878275990486145,"29":-0.01270517148077488,"30":-0.012545164674520493,"31":0.2063620686531067,"32":0.08429457992315292,"33":0.06914996355772018,"34":-0.021823890507221222,"35":-0.1622525304555893,"36":0.1530739814043045,"37":0.13461211323738098,"38":-0.18230754137039185,"39":0.02222234010696411,"40":-0.07615206390619278,"41":0.018674137070775032,"42":-0.15386967360973358,"43":-0.04088623449206352,"44":-0.01884249784052372,"45":-0.15641266107559204,"46":-0.04512352868914604,"47":0.017108706757426262,"48":0.17426082491874695,"49":0.14067186415195465,"50":0.15126162767410278,"51":0.010501670651137829,"52":-0.19845998287200928,"53":-0.05583403632044792,"54":-0.06569507718086243,"55":0.16459542512893677,"56":0.19385609030723572,"57":-0.14126253128051758,"58":0.11883115023374557,"59":-0.016004184260964394,"60":0.183670312166214,"61":-0.13686776161193848,"62":0.060624297708272934,"63":0.1773398518562317,"64":0.16776405274868011,"65":-0.1808241754770279,"66":-0.08276930451393127,"67":0.00290988152846694,"68":0.09040501713752747,"69":0.10824855417013168,"70":0.047934506088495255,"71":-0.15131688117980957,"72":0.002634200267493725,"73":0.036525849252939224,"74":-0.04440103471279144,"75":0.036779940128326416,"76":0.23497183620929718,"77":-0.004011897370219231,"78":0.1495852917432785,"79":0.06754862517118454,"80":-0.031711261719465256,"81":0.19571669399738312,"82":0.12475533783435822,"83":0.01267088670283556,"84":0.04878990724682808,"85":0.12787406146526337,"86":-0.21375229954719543,"87":-0.0017604551976546645,"88":-0.19005346298217773,"89":-0.12384610623121262,"90":0.1467360258102417,"91":0.07156982272863388,"92":-0.17873606085777283,"93":0.020474571734666824,"94":0.16344334185123444,"95":-0.1370755434036255,"96":0.08024945855140686,"97":0.13289208710193634,"98":0.17162105441093445,"99":-0.09582477807998657,"100":-0.1615532487630844,"101":0.13524499535560608,"102":0.12239024043083191,"103":-0.0976189374923706,"104":-0.17912164330482483,"105":0.007134239189326763,"106":-0.04094630852341652,"107":0.07146776467561722,"108":0.04357138276100159,"109":0.18436917662620544,"110":0.07808662950992584,"111":-0.15171438455581665,"112":-0.09507739543914795,"113":0.008437792770564556,"114":-0.07592553645372391,"115":0.16005823016166687,"116":0.23978246748447418,"117":-0.09162181615829468,"118":0.17286433279514313,"119":-0.008633364923298359,"120":-0.153731107711792,"121":0.15612782537937164,"122":-0.001473129726946354,"123":0.0024970564991235733,"124":-0.014573819003999233,"125":-0.09303762018680573,"126":-0.07703141868114471,"127":-0.11701403558254242,"128":-0.14117905497550964,"129":-0.08050742745399475,"130":-0.01545898150652647,"131":0.09906831383705139,"132":-0.12045160681009293,"133":-0.05685720220208168,"134":-0.020767267793416977,"135":0.04140629991889,"136":0.2043796330690384,"137":-0.09954273700714111,"138":-0.14152595400810242,"139":-0.0869825929403305,"140":-0.13433179259300232,"141":0.07477645576000214,"142":-0.03737428039312363,"143":-0.16563940048217773,"144":-0.18676255643367767,"145":0.03895947337150574,"146":0.16797684133052826,"147":0.040801968425512314,"148":0.02338539995253086,"149":0.053043633699417114,"150":0.0354015938937664,"151":0.14749419689178467,"152":-0.0005144767928868532,"153":-0.20159387588500977,"154":0.11190274357795715,"155":0.13828806579113007,"156":0.00047387825907208025,"157":-0.039313849061727524,"158":-0.19098533689975739,"159":0.049211230129003525,"160":-0.0939682349562645,"161":-0.2056584656238556,"162":-0.15195301175117493,"163":0.10350257158279419,"164":-0.05817607790231705,"165":0.0017731223488226533,"166":0.0105964420363307,"167":0.08756767958402634,"168":0.08105558156967163,"169":-0.006091760005801916,"170":-0.02663547359406948,"171":-0.05449112877249718,"172":-0.010317305102944374,"173":0.10648339241743088,"174":0.03356533870100975,"175":-0.18716728687286377,"176":-0.04437044635415077,"177":0.06472945213317871,"178":-0.09606515616178513,"179":0.18586838245391846,"180":-0.09931201487779617,"181":0.029219551011919975,"182":0.006613441277295351,"183":0.01716570369899273,"184":0.026930667459964752,"185":-0.012744204141199589,"186":-0.01179453358054161,"187":0.12775608897209167,"188":-0.07040158659219742,"189":-0.018015053123235703,"190":-0.17188796401023865,"191":-0.17885079979896545,"192":0.1895253211259842,"193":-0.1385241001844406,"194":0.10581902414560318,"195":0.11611274629831314,"196":0.0043493700213730335,"197":0.11946263909339905,"198":0.11001619696617126,"199":0.173629492521286,"200":-0.00671760318800807,"201":0.06499191373586655,"202":0.05852501094341278,"203":0.15192188322544098,"204":-0.14948832988739014,"205":-0.04404068365693092,"206":0.10922081023454666,"207":0.05936271324753761,"208":0.20340362191200256,"209":-0.014891820028424263,"210":0.06767340749502182,"211":0.22270846366882324,"212":0.15303845703601837,"213":-0.1117810383439064,"214":-0.021874889731407166,"215":-0.14259248971939087,"216":-0.06932272762060165,"217":0.029683906584978104,"218":-0.07082868367433548,"219":0.22521008551120758,"220":-0.050899237394332886,"221":0.18164248764514923,"222":0.011513381265103817,"223":-0.047622378915548325,"224":-0.14269962906837463,"225":0.0838480070233345,"226":0.10897346585988998,"227":0.059349093586206436,"228":0.15656638145446777,"229":0.15867272019386292,"230":0.02814462035894394,"231":-0.05106067657470703,"232":0.2318727672100067,"233":0.11051768809556961,"234":0.2115735411643982,"235":0.08272690325975418,"236":0.16791214048862457,"237":-0.09204403311014175,"238":0.16044189035892487,"239":-0.07645810395479202,"240":0.13145992159843445,"241":0.19364479184150696,"242":-0.16386006772518158,"243":0.053835924714803696,"244":0.1624242067337036,"245":-0.08271701633930206,"246":0.08331925421953201,"247":-0.05517365038394928,"248":0.055121827870607376,"249":0.1257156878709793,"250":0.01677221618592739,"251":0.1461573839187622,"252":-0.17860645055770874,"253":-0.007530176546424627,"254":0.15081492066383362,"255":-0.08462430536746979,"256":0.05837012454867363,"257":-0.00831065233796835,"258":0.15124046802520752,"259":0.0934571698307991,"260":0.13342203199863434,"261":-0.0441950187087059,"262":0.010123791173100471,"263":-0.02561751753091812,"264":-0.2049809843301773,"265":-0.12950095534324646,"266":0.056136343628168106,"267":0.10383857041597366,"268":-0.10233044624328613,"269":-0.1592402458190918,"270":-0.09018446505069733,"271":0.12338448315858841,"272":-0.2267019897699356,"273":-0.043965283781290054,"274":0.10887154191732407,"275":-0.13779374957084656,"276":0.10782449692487717,"277":0.19245338439941406,"278":0.1672210842370987,"279":-0.13245250284671783,"280":0.13710743188858032,"281":-0.16424806416034698,"282":-0.12244042009115219,"283":-0.1589822769165039,"284":0.1414869725704193,"285":0.12579475343227386,"286":-0.1707107573747635,"287":0.10911905020475388,"288":0.019629886373877525,"289":0.01277924980968237,"290":-0.09661802649497986,"291":-0.1628720611333847,"292":-0.1898355633020401,"293":0.08645157516002655,"294":-0.07477022707462311,"295":0.07585016638040543,"296":-0.044098999351263046,"297":0.15555840730667114,"298":-0.22374407947063446,"299":-0.16526448726654053,"300":0.18724144995212555,"301":-0.04389553517103195,"302":0.028110405430197716,"303":-0.1212863028049469,"304":-0.09367519617080688,"305":0.170737162232399,"306":-0.10551752150058746,"307":0.2109597623348236,"308":0.09403842687606812,"309":0.15934304893016815,"310":-0.05257274955511093,"311":-0.13853305578231812,"312":0.06800541281700134,"313":-0.09926536679267883,"314":-0.22123022377490997,"315":-0.13515707850456238,"316":0.024382630363106728,"317":-0.05694420263171196,"318":-0.1980731040239334,"319":0.04921150207519531,"320":-0.144680917263031,"321":-0.17553219199180603,"322":-0.029152745380997658,"323":0.06474360823631287,"324":-0.11100272834300995,"325":-0.03421355038881302,"326":0.07434380054473877,"327":-0.11589284241199493,"328":0.08553606271743774,"329":-0.17333605885505676,"330":-0.02811489626765251,"331":-0.15635664761066437,"332":-0.02536960504949093,"333":-0.12974528968334198,"334":-0.0025300849229097366,"335":-0.14159426093101501,"336":-0.012715361081063747,"337":-0.19597972929477692,"338":0.030359845608472824,"339":-0.05943911150097847,"340":-0.20025111734867096,"341":-0.13567465543746948,"342":-0.07142718881368637,"343":0.19556568562984467,"344":-0.12202785164117813,"345":0.13024547696113586,"346":-0.0018472461961209774,"347":0.2123573124408722,"348":0.03110542893409729,"349":0.1162235289812088,"350":-0.14761453866958618,"351":0.17798785865306854,"352":-0.08596880733966827,"353":-0.19624696671962738,"354":0.043990280479192734,"355":0.10671216249465942,"356":-0.2125941812992096,"357":-0.18544669449329376,"358":-0.10553935170173645,"359":-0.016730260103940964,"360":0.05777326598763466,"361":0.15424521267414093,"362":-0.01073735486716032,"363":-0.11378183960914612,"364":-0.06342875212430954,"365":0.03311542421579361,"366":0.12774404883384705,"367":-0.090868279337883,"368":-0.10836688429117203,"369":0.17368721961975098,"370":-0.02995380386710167,"371":0.17198044061660767,"372":0.1604788899421692,"373":-0.0746130421757698,"374":-0.055292077362537384,"375":0.17860807478427887,"376":0.09334198385477066,"377":-0.07154832035303116,"378":-0.17258040606975555,"379":0.16942360997200012,"380":-0.19421114027500153,"381":0.0972045511007309,"382":0.028306210413575172,"383":0.10724617540836334,"384":-0.0514967106282711,"385":0.20206071436405182,"386":-0.01652185432612896,"387":-0.07080090790987015,"388":0.032817449420690536,"389":-0.11596223711967468,"390":-0.1774885207414627,"391":-0.22246809303760529,"392":-0.010627380572259426,"393":-0.10458875447511673,"394":0.08138729631900787,"395":-0.06847532838582993,"396":-0.02922007441520691,"397":0.18327093124389648,"398":-0.07748783379793167,"399":-0.15050698816776276,"400":-0.13518476486206055,"401":0.19861049950122833,"402":0.04694822058081627,"403":-0.143203467130661,"404":-0.09309643507003784,"405":0.103410504758358,"406":0.010277951136231422,"407":-0.17642737925052643,"408":0.10224466770887375,"409":-0.07079261541366577,"410":-0.0367959588766098,"411":-0.05841319262981415,"412":0.054450131952762604,"413":0.1348670870065689,"414":0.19850978255271912,"415":-0.006045420654118061,"416":0.1891077607870102,"417":0.09125285595655441,"418":-0.011926610954105854,"419":0.08117429167032242,"420":-0.019732996821403503,"421":0.04227232187986374,"422":-0.1406095325946808,"423":0.19290056824684143,"424":-0.13790777325630188,"425":-0.2153785079717636,"426":-0.010359007865190506,"427":-0.132436603307724,"428":-0.1544421911239624,"429":-0.1320197433233261,"430":-0.1626604199409485,"431":-0.18589964509010315,"432":-0.04455529898405075,"433":-0.17907829582691193,"434":-0.059191327542066574,"435":-0.03318250924348831,"436":0.07447797060012817,"437":0.04132190719246864,"438":-0.16289149224758148,"439":0.15004733204841614,"440":0.1631222814321518,"441":-0.13657082617282867,"442":0.03626847639679909,"443":-0.02803157828748226,"444":-0.11043055355548859,"445":0.06252360343933105,"446":0.017007526010274887,"447":0.026567749679088593,"448":-0.10653101652860641,"449":0.17440882325172424,"450":-0.17251062393188477,"451":0.05138431116938591,"452":-0.14795204997062683,"453":-0.06775941699743271,"454":0.07270476222038269,"455":0.08215675503015518,"456":-0.07825770974159241,"457":0.15136300027370453,"458":0.1516895294189453,"459":0.014712605625391006,"460":0.19145391881465912,"461":0.031046874821186066,"462":-0.07049032300710678}},"1":{"bias":0.04238278791308403,"weights":{"0":0.08016014099121094,"1":0.008603788912296295,"2":-0.0825001448392868,"3":0.156122088432312,"4":0.17926396429538727,"5":-0.00864981859922409,"6":-0.06841183453798294,"7":0.1191474199295044,"8":-0.18724775314331055,"9":0.11150240898132324,"10":0.2394678294658661,"11":0.005536835640668869,"12":-0.08502668142318726,"13":0.04771660268306732,"14":-0.07612591981887817,"15":-0.12935498356819153,"16":0.04757964238524437,"17":0.12130776047706604,"18":0.016425158828496933,"19":0.17119009792804718,"20":0.1180276870727539,"21":-0.201468363404274,"22":-0.21901638805866241,"23":-0.07622727006673813,"24":-0.11943230032920837,"25":-0.2896832525730133,"26":0.09694342315196991,"27":0.12686124444007874,"28":-0.009289599023759365,"29":0.0014095770893618464,"30":-0.09164920449256897,"31":-0.0832238644361496,"32":0.2003520429134369,"33":0.13318434357643127,"34":0.1483750194311142,"35":-0.17060169577598572,"36":0.003069246420636773,"37":0.06782694160938263,"38":0.10247284173965454,"39":0.07028760015964508,"40":0.21113969385623932,"41":0.05267040431499481,"42":-0.1320834755897522,"43":0.20077116787433624,"44":0.05387463793158531,"45":0.11922579258680344,"46":-0.12813493609428406,"47":-0.17151620984077454,"48":-0.16185110807418823,"49":-0.08921819180250168,"50":-0.060857828706502914,"51":0.05727803334593773,"52":0.07163836061954498,"53":-0.10994085669517517,"54":-0.15444426238536835,"55":0.20949137210845947,"56":0.2023664265871048,"57":-0.07697705179452896,"58":0.14589539170265198,"59":-0.18536624312400818,"60":0.15686050057411194,"61":-0.06304041296243668,"62":0.12407120317220688,"63":-0.0013597902143374085,"64":0.14301998913288116,"65":0.15407852828502655,"66":0.24254409968852997,"67":0.14127273857593536,"68":0.09527613967657089,"69":0.009285377338528633,"70":0.015410496853291988,"71":0.05546913668513298,"72":0.043412841856479645,"73":0.20738008618354797,"74":-0.2314349263906479,"75":0.061140064150094986,"76":0.023320481181144714,"77":-0.10857970267534256,"78":-0.060440048575401306,"79":0.002436663256958127,"80":0.09053879231214523,"81":0.01400289498269558,"82":0.12362067401409149,"83":0.14900629222393036,"84":0.018577590584754944,"85":-0.13057458400726318,"86":0.1613135039806366,"87":0.16794079542160034,"88":-0.037934523075819016,"89":-0.23976923525333405,"90":0.14805002510547638,"91":0.20297926664352417,"92":0.15868401527404785,"93":0.1507035493850708,"94":-0.03658730536699295,"95":0.10008367896080017,"96":0.21259833872318268,"97":0.11740841716527939,"98":0.11451099067926407,"99":-0.19161419570446014,"100":-0.035586871206760406,"101":-0.06448695063591003,"102":-0.0007446497911587358,"103":0.17443528771400452,"104":-0.13640305399894714,"105":-0.08605413138866425,"106":0.028482025489211082,"107":0.13405342400074005,"108":-0.08013929426670074,"109":0.17497310042381287,"110":0.06549018621444702,"111":0.14248915016651154,"112":0.08674516528844833,"113":0.17963482439517975,"114":0.1799549162387848,"115":-0.10047262161970139,"116":-0.13877378404140472,"117":0.11037718504667282,"118":-0.03385170176625252,"119":-0.17111901938915253,"120":-0.02454298362135887,"121":-0.21730990707874298,"122":-0.17071925103664398,"123":0.12289535254240036,"124":0.1472337543964386,"125":-0.012464126572012901,"126":-0.23402144014835358,"127":0.05615925043821335,"128":-0.0031149217393249273,"129":0.06539522111415863,"130":0.11851523816585541,"131":-0.1669873148202896,"132":-0.06070945784449577,"133":-0.04784289747476578,"134":-0.1670842319726944,"135":-0.02451940067112446,"136":0.09335300326347351,"137":-0.08786419034004211,"138":0.06752131134271622,"139":-0.0452752485871315,"140":-0.016931094229221344,"141":-0.19359730184078217,"142":-0.15543676912784576,"143":0.1719544380903244,"144":0.1701796054840088,"145":0.1335969716310501,"146":-0.007985765114426613,"147":0.0990871861577034,"148":-0.16318818926811218,"149":-0.16748444736003876,"150":0.03535861521959305,"151":0.041002336889505386,"152":-0.20653904974460602,"153":0.03705429658293724,"154":0.16470526158809662,"155":0.08355732262134552,"156":-0.12207108736038208,"157":0.1259811967611313,"158":-0.19692428410053253,"159":0.10029745101928711,"160":-0.04533753916621208,"161":0.03252522274851799,"162":-0.082893006503582,"163":-0.15712781250476837,"164":-0.09533295035362244,"165":-0.1512111872434616,"166":-0.0322662852704525,"167":-0.0281602181494236,"168":0.12271421402692795,"169":-0.08291680365800858,"170":-0.17147383093833923,"171":-0.030891312286257744,"172":-0.20512402057647705,"173":-0.07007439434528351,"174":-0.057695381343364716,"175":-0.09254501760005951,"176":0.05125368386507034,"177":-0.0876239538192749,"178":0.13220840692520142,"179":0.15091323852539062,"180":-0.11080864816904068,"181":-0.15219034254550934,"182":0.09331279993057251,"183":-0.21072055399417877,"184":0.054016996175050735,"185":0.1209862232208252,"186":-0.11519447714090347,"187":-0.013533511199057102,"188":-0.05481630563735962,"189":0.14912749826908112,"190":-0.15654194355010986,"191":0.15914657711982727,"192":-0.16102419793605804,"193":-0.13075020909309387,"194":0.009277637116611004,"195":-0.14735209941864014,"196":-0.25044745206832886,"197":-0.10687433928251266,"198":-0.16201812028884888,"199":0.14832976460456848,"200":-0.17147351801395416,"201":0.13740795850753784,"202":0.12389346957206726,"203":0.08276267349720001,"204":-0.11804515868425369,"205":-0.07716144621372223,"206":0.18611542880535126,"207":0.03139571100473404,"208":0.037096332758665085,"209":-0.03390299901366234,"210":-0.06969493627548218,"211":0.23420122265815735,"212":-0.06446388363838196,"213":-0.07892284542322159,"214":-0.01477527804672718,"215":0.11890421062707901,"216":0.0738736167550087,"217":0.025486411526799202,"218":0.027253085747361183,"219":-0.028459686785936356,"220":-0.08463182300329208,"221":-0.024145158007740974,"222":0.092044398188591,"223":0.15628314018249512,"224":0.1491146981716156,"225":0.15945351123809814,"226":0.22078260779380798,"227":0.1258489042520523,"228":0.1641649305820465,"229":0.09440222382545471,"230":0.18801067769527435,"231":-0.12861628830432892,"232":-0.09566989541053772,"233":0.013301234692335129,"234":0.09865792095661163,"235":0.19092167913913727,"236":0.03184822201728821,"237":0.08064930886030197,"238":0.10401840507984161,"239":0.13176710903644562,"240":-0.1152195855975151,"241":0.16376811265945435,"242":-0.16502852737903595,"243":0.03668508678674698,"244":-0.15595486760139465,"245":-0.044357139617204666,"246":-0.14393900334835052,"247":-0.006351500283926725,"248":-0.16773656010627747,"249":-0.08501053601503372,"250":-0.02570250816643238,"251":0.07285793870687485,"252":0.09383020550012589,"253":-0.14046411216259003,"254":0.02317623235285282,"255":0.11756773293018341,"256":0.16485732793807983,"257":0.17409679293632507,"258":0.17994214594364166,"259":0.13789401948451996,"260":0.19137412309646606,"261":0.03921772167086601,"262":0.17879478633403778,"263":0.18962305784225464,"264":-0.039139166474342346,"265":0.09692244231700897,"266":0.011752283200621605,"267":-0.11795704066753387,"268":-0.12717388570308685,"269":0.10448482632637024,"270":-0.013322306796908379,"271":0.0831359401345253,"272":-0.056154847145080566,"273":0.09684523195028305,"274":-0.23262910544872284,"275":-0.17105574905872345,"276":-0.015168528072535992,"277":0.03554682806134224,"278":-0.09402749687433243,"279":0.04759074002504349,"280":-0.016410216689109802,"281":-0.047344956547021866,"282":-0.041670817881822586,"283":0.0032543183770030737,"284":0.2553574740886688,"285":0.011364414356648922,"286":0.14491482079029083,"287":0.10516262799501419,"288":0.08819496631622314,"289":0.10588181018829346,"290":-0.025485677644610405,"291":-0.1887248456478119,"292":-0.01817026361823082,"293":-0.05666159838438034,"294":0.0865807756781578,"295":-0.042933423072099686,"296":-0.1063884049654007,"297":0.07013969123363495,"298":-0.19652016460895538,"299":0.00874460767954588,"300":-0.005552531685680151,"301":0.1428116261959076,"302":-0.1195797398686409,"303":0.11157497018575668,"304":-0.1277364045381546,"305":0.07069244980812073,"306":-0.04255024343729019,"307":-0.09674380719661713,"308":0.0494195893406868,"309":-0.09415891766548157,"310":0.03858819231390953,"311":-0.025952763855457306,"312":-0.16722598671913147,"313":0.20881840586662292,"314":-0.12319443374872208,"315":0.01664336957037449,"316":-0.06388907134532928,"317":-0.052462100982666016,"318":0.13992854952812195,"319":0.11983170360326767,"320":-0.1179661676287651,"321":0.08544973284006119,"322":0.11424638330936432,"323":0.09163202345371246,"324":0.07132718712091446,"325":0.07068555057048798,"326":0.06872192025184631,"327":0.18912667036056519,"328":-0.09279081970453262,"329":0.06720511615276337,"330":0.10800568014383316,"331":-0.16637161374092102,"332":-0.07167638093233109,"333":-0.07235969603061676,"334":0.1426657736301422,"335":-0.06536815315485,"336":-0.17396694421768188,"337":0.09180214256048203,"338":-0.13324764370918274,"339":-0.14775337278842926,"340":-0.20688144862651825,"341":-0.11636395007371902,"342":-0.012924086302518845,"343":0.004839220084249973,"344":0.128359854221344,"345":-0.16953304409980774,"346":0.1395232379436493,"347":0.150944784283638,"348":0.08553016930818558,"349":-0.12289361655712128,"350":-0.11269257217645645,"351":0.08417952805757523,"352":-0.03054654225707054,"353":0.06864824146032333,"354":-0.08356797695159912,"355":-0.20570030808448792,"356":-0.18698129057884216,"357":-0.0064154379069805145,"358":0.04433735832571983,"359":-0.09769101440906525,"360":-0.19282230734825134,"361":0.030287951231002808,"362":0.1817168891429901,"363":0.09731946140527725,"364":-0.0877138301730156,"365":0.10140702873468399,"366":0.14562490582466125,"367":-0.15227992832660675,"368":-0.1170329675078392,"369":0.1423204392194748,"370":0.017997639253735542,"371":-0.023871760815382004,"372":0.029665924608707428,"373":-0.03251603618264198,"374":0.1196206659078598,"375":0.07517769187688828,"376":-0.07909290492534637,"377":0.15570293366909027,"378":0.1043977215886116,"379":-0.20112033188343048,"380":-0.20686835050582886,"381":0.15638436377048492,"382":0.1729157567024231,"383":-0.11112555861473083,"384":0.11015138030052185,"385":0.13413631916046143,"386":0.08569030463695526,"387":-0.06027839705348015,"388":-0.07295683026313782,"389":0.13657307624816895,"390":-0.03696256875991821,"391":0.11644016206264496,"392":-0.04492468386888504,"393":0.09044276177883148,"394":0.026132188737392426,"395":-0.08576995134353638,"396":-0.043804656714200974,"397":0.006678018253296614,"398":-0.13759630918502808,"399":0.10726995021104813,"400":-0.1289733499288559,"401":0.04136304184794426,"402":0.19320593774318695,"403":0.19642077386379242,"404":-0.10521303117275238,"405":0.09934359788894653,"406":-0.19094929099082947,"407":0.17485693097114563,"408":0.11178108304738998,"409":-0.07618009299039841,"410":-0.18954899907112122,"411":0.008652414195239544,"412":0.18812601268291473,"413":-0.13338354229927063,"414":-0.07327351719141006,"415":-0.04537375643849373,"416":-0.004989363253116608,"417":-0.08855725824832916,"418":-0.007561007514595985,"419":-0.08449402451515198,"420":0.04130671173334122,"421":-0.0008407999994233251,"422":-0.02605154737830162,"423":0.0777554139494896,"424":-0.2111080437898636,"425":-0.1564427614212036,"426":0.028487691655755043,"427":-0.23629328608512878,"428":-0.09289701282978058,"429":0.017190413549542427,"430":0.13569772243499756,"431":0.0745789036154747,"432":0.14594493806362152,"433":-0.15910238027572632,"434":0.12143497914075851,"435":-0.13003668189048767,"436":-0.17221036553382874,"437":-0.17744773626327515,"438":0.07564207911491394,"439":-0.12992824614048004,"440":-0.0010922508081421256,"441":-0.19083566963672638,"442":0.12111936509609222,"443":0.17631421983242035,"444":0.2380944788455963,"445":-0.07038860023021698,"446":0.13023772835731506,"447":0.02005252055823803,"448":0.1840222030878067,"449":-0.09208226203918457,"450":0.04744988679885864,"451":0.13890689611434937,"452":-0.06820321083068848,"453":-0.09082519263029099,"454":0.12344463169574738,"455":0.06137470528483391,"456":0.0044169039465487,"457":-0.046223435550928116,"458":0.015228191390633583,"459":-0.03706265240907669,"460":0.010134445503354073,"461":0.08334740996360779,"462":-0.11829613894224167}},"2":{"bias":-0.04689077287912369,"weights":{"0":0.07444880902767181,"1":0.19346673786640167,"2":-0.1311112940311432,"3":-0.1085771843791008,"4":0.09250112622976303,"5":-0.20773611962795258,"6":0.018327496945858,"7":0.012175646610558033,"8":0.1415633112192154,"9":-0.1092720627784729,"10":-0.10232871770858765,"11":0.042973101139068604,"12":0.1151677742600441,"13":0.04777168482542038,"14":-0.13528341054916382,"15":-0.02822514995932579,"16":-0.008917156606912613,"17":0.09017560631036758,"18":-0.10719998925924301,"19":-0.10882658511400223,"20":0.062356915324926376,"21":-0.15803363919258118,"22":-0.0074060894548892975,"23":0.08651100844144821,"24":0.12815508246421814,"25":-0.06181712448596954,"26":0.03220003470778465,"27":-0.04840870946645737,"28":-0.06080922111868858,"29":-0.2030785083770752,"30":0.0017747824313119054,"31":0.007740749046206474,"32":-0.03243635967373848,"33":0.05990609526634216,"34":-0.22616322338581085,"35":-0.1989966779947281,"36":-0.010830320417881012,"37":-0.16674692928791046,"38":0.16534274816513062,"39":0.17824605107307434,"40":-0.02524716965854168,"41":-0.06219896674156189,"42":0.05416722595691681,"43":0.002100622747093439,"44":0.18206408619880676,"45":-0.06663773208856583,"46":-0.22348688542842865,"47":-0.05486622080206871,"48":0.10032010823488235,"49":-0.030031267553567886,"50":0.010183358564972878,"51":0.15194213390350342,"52":0.17754127085208893,"53":-0.07571759074926376,"54":-0.1977134793996811,"55":0.14012028276920319,"56":0.1221848651766777,"57":-0.07563438266515732,"58":-0.03777597099542618,"59":-0.0070792376063764095,"60":0.2014896422624588,"61":-0.15946191549301147,"62":-0.11783938854932785,"63":0.039591409265995026,"64":-0.058421678841114044,"65":-0.11058104783296585,"66":0.11215098947286606,"67":0.08271301537752151,"68":0.14319021999835968,"69":-0.14906221628189087,"70":-0.20612628757953644,"71":-0.14656057953834534,"72":-0.13141047954559326,"73":0.0738786831498146,"74":0.18247275054454803,"75":0.020599182695150375,"76":-0.19695378839969635,"77":0.021507035940885544,"78":-0.11764269322156906,"79":-0.003824450308457017,"80":-0.09602672606706619,"81":0.08907141536474228,"82":0.014089833945035934,"83":-0.06848067045211792,"84":0.008233655244112015,"85":-0.10574865341186523,"86":0.050032418221235275,"87":0.08820836246013641,"88":0.21765927970409393,"89":-0.018414901569485664,"90":0.041322723031044006,"91":0.09393184632062912,"92":-0.09872152656316757,"93":0.06484095752239227,"94":0.058711376041173935,"95":0.07600070536136627,"96":-0.06673683226108551,"97":-0.2100898027420044,"98":-0.01202552579343319,"99":-0.14369866251945496,"100":0.0660649761557579,"101":0.009813413955271244,"102":-0.012279528193175793,"103":0.05519919469952583,"104":-0.11103140562772751,"105":-0.09849344193935394,"106":-0.004645638633519411,"107":-0.0912552922964096,"108":0.14577797055244446,"109":0.09169197082519531,"110":-0.07927001267671585,"111":-0.19675065577030182,"112":-0.15675590932369232,"113":0.012851066887378693,"114":0.12782728672027588,"115":0.004923180676996708,"116":-0.15684698522090912,"117":0.15406566858291626,"118":0.11063165217638016,"119":-0.09436465054750443,"120":-0.04918128252029419,"121":0.07482977211475372,"122":-0.1431184858083725,"123":0.011582167819142342,"124":-0.17741741240024567,"125":-0.23866082727909088,"126":0.1272389441728592,"127":-0.02995685674250126,"128":0.12969180941581726,"129":-0.07506615668535233,"130":-0.06167927384376526,"131":-0.10042477399110794,"132":0.01546885259449482,"133":0.1823272407054901,"134":-0.02474522404372692,"135":0.15601135790348053,"136":0.1306508630514145,"137":0.09973155707120895,"138":-0.16042710840702057,"139":0.12956713140010834,"140":0.1283455640077591,"141":0.019291367381811142,"142":-0.15961194038391113,"143":-0.13676032423973083,"144":0.1430923044681549,"145":-0.0127452053129673,"146":0.015072459354996681,"147":0.048196133226156235,"148":0.05919600650668144,"149":0.20278410613536835,"150":0.17870795726776123,"151":0.09829966723918915,"152":0.07624445110559464,"153":0.05212216079235077,"154":0.05212918296456337,"155":-0.17687979340553284,"156":0.05108785256743431,"157":0.12404536455869675,"158":-0.15980654954910278,"159":0.16940417885780334,"160":0.018428072333335876,"161":0.14552228152751923,"162":0.07962220907211304,"163":0.0271252803504467,"164":0.012211109511554241,"165":0.06365393102169037,"166":-0.07149410247802734,"167":0.20874379575252533,"168":-0.07881028205156326,"169":0.18969674408435822,"170":0.19191212952136993,"171":0.003859379328787327,"172":0.18024460971355438,"173":0.05320519208908081,"174":-0.1266726851463318,"175":-0.1260845959186554,"176":0.1533861607313156,"177":0.03802797198295593,"178":0.027776382863521576,"179":0.052871499210596085,"180":-0.16514979302883148,"181":-0.053617529571056366,"182":-0.08224034309387207,"183":0.20290620625019073,"184":0.01655060239136219,"185":0.1697048544883728,"186":0.12349148094654083,"187":0.13901402056217194,"188":0.035412367433309555,"189":0.0816507339477539,"190":0.01234661228954792,"191":-0.08439462631940842,"192":0.015450041741132736,"193":0.0477370023727417,"194":0.050630711019039154,"195":0.0766664668917656,"196":0.11076067388057709,"197":-0.013801341876387596,"198":-0.08864440768957138,"199":-0.08780542761087418,"200":0.15875738859176636,"201":-0.05721826106309891,"202":-0.07063554972410202,"203":0.15847553312778473,"204":0.023731715977191925,"205":0.09453724324703217,"206":0.10632805526256561,"207":-0.163313627243042,"208":-0.22405362129211426,"209":-0.07959011197090149,"210":-0.12129479646682739,"211":-0.09343507140874863,"212":0.03249967098236084,"213":-0.15259237587451935,"214":0.1581610143184662,"215":0.04322242736816406,"216":0.033730924129486084,"217":-0.11729314923286438,"218":0.17754235863685608,"219":-0.22253382205963135,"220":0.023717420175671577,"221":0.08794087171554565,"222":-0.19925516843795776,"223":-0.19415321946144104,"224":0.06876172870397568,"225":-0.15368549525737762,"226":0.06314775347709656,"227":0.05346105247735977,"228":-0.09876906871795654,"229":-0.03904663771390915,"230":0.1882229596376419,"231":-0.1129179298877716,"232":-0.23120801150798798,"233":-0.040818143635988235,"234":-0.05626997351646423,"235":-0.14372235536575317,"236":-0.06576522439718246,"237":-0.18780843913555145,"238":0.11803853511810303,"239":-0.06106641888618469,"240":0.1607249230146408,"241":-0.07689337432384491,"242":-0.06730663776397705,"243":-0.07794228941202164,"244":0.13409142196178436,"245":0.06417538970708847,"246":-0.18511903285980225,"247":0.057020995765924454,"248":0.07520122826099396,"249":0.1326434165239334,"250":-0.06315456330776215,"251":0.06597193330526352,"252":0.0013509193668141961,"253":0.09767049551010132,"254":0.1498449295759201,"255":-0.12768463790416718,"256":-0.12003900855779648,"257":0.07606126368045807,"258":-0.12220487743616104,"259":-0.17568336427211761,"260":-0.11741698533296585,"261":-0.02647264674305916,"262":-0.0648249164223671,"263":-0.11676324158906937,"264":-0.03889352083206177,"265":0.07475971430540085,"266":-0.009657214395701885,"267":0.06764793395996094,"268":0.09252022206783295,"269":-0.0339602492749691,"270":0.17826664447784424,"271":-0.15617381036281586,"272":0.1935153603553772,"273":0.21000005304813385,"274":0.14359864592552185,"275":-0.016320999711751938,"276":0.02807925082743168,"277":-0.16649654507637024,"278":-0.08349902927875519,"279":-0.07267794013023376,"280":-0.18743737041950226,"281":0.06876331567764282,"282":-0.016029872000217438,"283":0.07295341789722443,"284":-0.038448676466941833,"285":-0.017428243532776833,"286":-0.017997680231928825,"287":-0.02844405174255371,"288":0.07061398774385452,"289":0.1264735609292984,"290":-0.07343406230211258,"291":0.20721755921840668,"292":-0.11003183573484421,"293":-0.1075780987739563,"294":-0.09391691535711288,"295":0.11839603632688522,"296":-0.04492693394422531,"297":0.2008819729089737,"298":-0.07695672661066055,"299":-0.12710613012313843,"300":-0.08064478635787964,"301":0.07635622471570969,"302":0.13202504813671112,"303":-0.16793562471866608,"304":-0.14001159369945526,"305":-0.051432862877845764,"306":0.11338867247104645,"307":-0.16706810891628265,"308":0.047799039632081985,"309":0.013535784557461739,"310":0.02278893068432808,"311":-0.07433374226093292,"312":0.06990767270326614,"313":-0.023096131160855293,"314":-0.02718537673354149,"315":-0.03682173043489456,"316":-0.019628601148724556,"317":-0.14738932251930237,"318":0.007819983176887035,"319":0.10221005976200104,"320":0.06935852766036987,"321":-0.0449446402490139,"322":-0.07878060638904572,"323":0.00022310740314424038,"324":0.08204316347837448,"325":0.09868291020393372,"326":-0.09758471697568893,"327":0.04768490791320801,"328":-0.05471136048436165,"329":-0.11706145107746124,"330":0.029861928895115852,"331":0.11738742142915726,"332":-0.007179571781307459,"333":-0.02635018713772297,"334":-0.039797984063625336,"335":0.18138620257377625,"336":-0.05118954926729202,"337":-0.10099571198225021,"338":0.04433427378535271,"339":0.07783810794353485,"340":-0.17023515701293945,"341":-0.01411516685038805,"342":-0.01437358558177948,"343":0.02845112606883049,"344":0.07486023008823395,"345":-0.19417360424995422,"346":-0.11836890131235123,"347":0.14162445068359375,"348":-0.10097511857748032,"349":0.20670974254608154,"350":-0.0013387429062277079,"351":0.19680431485176086,"352":0.10326972603797913,"353":0.17938850820064545,"354":0.06401290744543076,"355":-0.07148115336894989,"356":0.08778008818626404,"357":0.20449431240558624,"358":0.11061201989650726,"359":-0.17342334985733032,"360":-0.005649476777762175,"361":0.12864400446414948,"362":-0.0033675015438348055,"363":-0.15726998448371887,"364":0.11995813995599747,"365":0.15086781978607178,"366":-0.08013012260198593,"367":0.15730856359004974,"368":-0.14639297127723694,"369":-0.06620059162378311,"370":0.1665654182434082,"371":-0.0014805762330070138,"372":-0.13089506328105927,"373":-0.09871236979961395,"374":-0.12728863954544067,"375":0.06094643101096153,"376":0.03592803329229355,"377":-0.013965248130261898,"378":0.09972058236598969,"379":0.10251613706350327,"380":0.11875572800636292,"381":0.09710545092821121,"382":-0.003571057226508856,"383":0.1294119507074356,"384":0.17907948791980743,"385":-0.14313390851020813,"386":-0.1867387741804123,"387":-0.13794907927513123,"388":0.01655854843556881,"389":-0.010931182652711868,"390":0.16314759850502014,"391":0.18105436861515045,"392":-0.07224143296480179,"393":0.152978777885437,"394":-0.030446475371718407,"395":-0.1196766123175621,"396":0.1078529804944992,"397":0.15728765726089478,"398":-0.08480200916528702,"399":0.10034451633691788,"400":-0.06904034316539764,"401":0.14929160475730896,"402":-0.15011605620384216,"403":-0.05252144858241081,"404":-0.1357988566160202,"405":0.16028957068920135,"406":-0.17616117000579834,"407":-0.1363564133644104,"408":-0.05091320350766182,"409":-0.12865352630615234,"410":0.20559582114219666,"411":0.14402922987937927,"412":-0.014070347882807255,"413":-0.11752026528120041,"414":0.10781750082969666,"415":-0.11367189139127731,"416":0.11806563287973404,"417":0.09996961802244186,"418":-0.00605160603299737,"419":0.15800541639328003,"420":0.1268160045146942,"421":0.1599496304988861,"422":0.1423736959695816,"423":0.004206896293908358,"424":0.07791194319725037,"425":0.04255704581737518,"426":-0.17245261371135712,"427":0.18496032059192657,"428":0.14940406382083893,"429":0.036355264484882355,"430":-0.008508522063493729,"431":-0.1089940220117569,"432":-0.015021249651908875,"433":0.04505418241024017,"434":0.17890672385692596,"435":0.21232135593891144,"436":0.11366160959005356,"437":0.17612603306770325,"438":-0.08266619592905045,"439":0.08176974952220917,"440":-0.038843050599098206,"441":0.19342103600502014,"442":0.09825751930475235,"443":0.19165921211242676,"444":0.11978601664304733,"445":-0.0007301017758436501,"446":0.14441733062267303,"447":-0.1481795608997345,"448":-0.09866905212402344,"449":-0.15641693770885468,"450":0.014180826023221016,"451":0.13924157619476318,"452":-0.06771278381347656,"453":-0.20893587172031403,"454":0.16458456218242645,"455":0.1021273136138916,"456":-0.011583606712520123,"457":0.09503720700740814,"458":-0.13655301928520203,"459":0.08215569704771042,"460":-0.13034461438655853,"461":-0.21125750243663788,"462":0.031545743346214294}},"3":{"bias":-0.2083665281534195,"weights":{"0":-0.17947877943515778,"1":0.12963655591011047,"2":0.00184359319973737,"3":-0.138824924826622,"4":0.06686647981405258,"5":-0.29033610224723816,"6":0.12438144534826279,"7":0.00036608995287679136,"8":0.0480416864156723,"9":0.04182124137878418,"10":-0.21230383217334747,"11":0.2034812718629837,"12":0.09441922605037689,"13":-0.17807331681251526,"14":-0.1356300711631775,"15":0.1940484493970871,"16":-0.06443632394075394,"17":-0.16955313086509705,"18":0.1078418642282486,"19":-0.044222086668014526,"20":-0.1458675116300583,"21":0.17011739313602448,"22":-0.08622126281261444,"23":-0.13746729493141174,"24":-0.05712668225169182,"25":0.09617877751588821,"26":-0.03713184967637062,"27":-0.103157639503479,"28":-0.06772780418395996,"29":-0.13959398865699768,"30":-0.029394017532467842,"31":-0.1074996292591095,"32":-0.15822215378284454,"33":-0.03780752792954445,"34":0.0157106202095747,"35":-0.004544264171272516,"36":-0.13380959630012512,"37":-0.19750460982322693,"38":0.0074588037095963955,"39":0.026736313477158546,"40":0.10513179004192352,"41":-0.017240623012185097,"42":-0.09573983401060104,"43":-0.13641256093978882,"44":-0.0029965091962367296,"45":0.030249083414673805,"46":0.008584086783230305,"47":-0.03834115341305733,"48":-0.20371638238430023,"49":0.1791461557149887,"50":-0.01974968984723091,"51":-0.02380192093551159,"52":-0.049550678580999374,"53":-0.060830190777778625,"54":-0.10187532752752304,"55":0.14304359257221222,"56":0.1348150074481964,"57":-0.057633571326732635,"58":0.035679470747709274,"59":-0.039132729172706604,"60":-0.13221952319145203,"61":-0.17296913266181946,"62":0.06616555899381638,"63":-0.042951442301273346,"64":0.1697724163532257,"65":0.05414561182260513,"66":-0.27898138761520386,"67":0.1128208339214325,"68":-0.12171297520399094,"69":-0.027985932305455208,"70":-0.07693071663379669,"71":-0.02241988480091095,"72":-0.0573703795671463,"73":0.01778472401201725,"74":0.2084767073392868,"75":-0.10136212408542633,"76":-0.22877684235572815,"77":0.0656065046787262,"78":0.21377907693386078,"79":0.020940350368618965,"80":-0.09455415606498718,"81":-0.10482654720544815,"82":0.029922861605882645,"83":0.043101221323013306,"84":0.09567087888717651,"85":0.23066076636314392,"86":-0.0774499699473381,"87":0.003524399595335126,"88":0.05243644863367081,"89":-0.038726430386304855,"90":0.22538958489894867,"91":-0.08059172332286835,"92":-0.0740455687046051,"93":-0.036318253725767136,"94":0.1465604454278946,"95":0.05596776679158211,"96":-0.20775464177131653,"97":0.03263881430029869,"98":-0.21490612626075745,"99":-0.05721096694469452,"100":-0.14471055567264557,"101":-0.14164374768733978,"102":-0.01919538900256157,"103":-0.0506928376853466,"104":0.18991675972938538,"105":-0.006660072598606348,"106":0.17101460695266724,"107":-0.10073176771402359,"108":0.07152968645095825,"109":0.16482208669185638,"110":0.11401379108428955,"111":-0.18168587982654572,"112":0.13026875257492065,"113":0.032423682510852814,"114":-0.17348895967006683,"115":0.11556671559810638,"116":0.11161793768405914,"117":-0.20618626475334167,"118":-0.1887068897485733,"119":0.20509742200374603,"120":-0.08139010518789291,"121":-0.06669197976589203,"122":-0.06137034296989441,"123":0.14368268847465515,"124":-0.09274827688932419,"125":-0.22464735805988312,"126":-0.032584190368652344,"127":-0.03090592846274376,"128":0.05768570676445961,"129":-0.061852794140577316,"130":0.14925631880760193,"131":0.07667328417301178,"132":-0.09584245085716248,"133":-0.12608632445335388,"134":0.11782904714345932,"135":0.05624070018529892,"136":-0.19084562361240387,"137":-0.14452554285526276,"138":-0.1461174041032791,"139":-0.05319366231560707,"140":0.14604933559894562,"141":-0.06357242166996002,"142":0.03454947844147682,"143":-0.18368418514728546,"144":0.16262243688106537,"145":-0.07327261567115784,"146":-0.13938094675540924,"147":0.16483014822006226,"148":0.08911748230457306,"149":0.08276534825563431,"150":0.02790994755923748,"151":0.006087712477892637,"152":0.11188285797834396,"153":-0.08523339033126831,"154":-0.26936328411102295,"155":0.028714267536997795,"156":0.006874843966215849,"157":-0.19432124495506287,"158":-0.19002661108970642,"159":0.23131097853183746,"160":0.10661905258893967,"161":-0.15747661888599396,"162":-0.0138785969465971,"163":0.0006124964565970004,"164":-0.053950048983097076,"165":-0.0035716784186661243,"166":-0.06529683619737625,"167":0.17030863463878632,"168":0.03164368122816086,"169":-0.06666037440299988,"170":0.017987949773669243,"171":-0.14673393964767456,"172":-0.13618585467338562,"173":0.15301154553890228,"174":-0.11010991036891937,"175":0.0038973866030573845,"176":-0.18364346027374268,"177":-0.06844376772642136,"178":-0.053814373910427094,"179":0.07516839355230331,"180":-0.08450542390346527,"181":-0.020461738109588623,"182":-0.0980115681886673,"183":0.11986054480075836,"184":-0.07377982139587402,"185":-0.16256925463676453,"186":-0.1530107855796814,"187":0.06501569598913193,"188":0.13141067326068878,"189":-0.17014944553375244,"190":0.05429781973361969,"191":0.17547912895679474,"192":0.15061497688293457,"193":0.08090782910585403,"194":-0.16765472292900085,"195":-0.12271074205636978,"196":-0.0639670267701149,"197":0.10738999396562576,"198":-0.005115415435284376,"199":-0.030602993443608284,"200":-0.07429585605859756,"201":0.12170250713825226,"202":0.11667397618293762,"203":0.13374415040016174,"204":-0.02695310302078724,"205":-0.21645811200141907,"206":0.11617688089609146,"207":-0.0341358408331871,"208":-0.15798059105873108,"209":-0.050815146416425705,"210":-0.25709807872772217,"211":0.136368989944458,"212":-0.18308240175247192,"213":-0.027626678347587585,"214":-0.1716228574514389,"215":0.1862124651670456,"216":0.10418298840522766,"217":-0.07504492253065109,"218":0.07413241267204285,"219":0.056754663586616516,"220":-0.0767766609787941,"221":0.12102600932121277,"222":-0.09316964447498322,"223":-0.23169003427028656,"224":0.16071033477783203,"225":0.10821567475795746,"226":-0.022559793666005135,"227":-0.06660035252571106,"228":-0.0888962522149086,"229":-0.16040807962417603,"230":-0.19234807789325714,"231":0.005641634110361338,"232":-0.16555267572402954,"233":0.07657267153263092,"234":-0.21502497792243958,"235":0.008381005376577377,"236":0.1392403244972229,"237":0.18995384871959686,"238":-0.15817607939243317,"239":0.03617660328745842,"240":0.16668184101581573,"241":0.13283312320709229,"242":-0.08584373444318771,"243":-0.13501088321208954,"244":-0.026267921552062035,"245":0.09663569927215576,"246":-0.024803481996059418,"247":-0.06589458882808685,"248":-0.08715855330228806,"249":-0.17194658517837524,"250":-0.07920590043067932,"251":-0.015756947919726372,"252":-0.15769539773464203,"253":0.18141235411167145,"254":-0.08015266060829163,"255":0.08363146334886551,"256":-0.0337950773537159,"257":0.15412890911102295,"258":-0.18301504850387573,"259":-0.15879757702350616,"260":-0.21862879395484924,"261":-0.20090916752815247,"262":-0.07706888765096664,"263":-0.20666027069091797,"264":-0.12230780720710754,"265":0.14808736741542816,"266":-0.009654214605689049,"267":-0.24230922758579254,"268":0.19148372113704681,"269":-0.06065820902585983,"270":0.14046627283096313,"271":0.11887762695550919,"272":0.0857025608420372,"273":0.12935177981853485,"274":0.18407723307609558,"275":0.11749590933322906,"276":-0.031277235597372055,"277":-0.14278531074523926,"278":0.1891227662563324,"279":-0.014187054708600044,"280":0.12793318927288055,"281":-0.16197827458381653,"282":-0.12948882579803467,"283":0.00990189891308546,"284":-0.16779279708862305,"285":-0.005534190218895674,"286":0.09339496493339539,"287":-0.10789526253938675,"288":0.12042739242315292,"289":-0.05530128255486488,"290":-0.006780532188713551,"291":-0.013270965777337551,"292":-0.14197006821632385,"293":0.21628135442733765,"294":0.19922754168510437,"295":-0.04995254427194595,"296":0.11681796610355377,"297":-0.08625727891921997,"298":0.01598089188337326,"299":0.14774630963802338,"300":-0.005945857148617506,"301":-0.2086733877658844,"302":-0.1421627402305603,"303":-0.041275348514318466,"304":-0.1817956268787384,"305":0.07169412076473236,"306":-0.007637117989361286,"307":0.06675410270690918,"308":0.09496679902076721,"309":-0.07980791479349136,"310":0.032459232956171036,"311":-0.10073816031217575,"312":0.10170002281665802,"313":-0.11650220304727554,"314":0.07425922155380249,"315":-0.09611226618289948,"316":0.22761164605617523,"317":-0.06467099487781525,"318":-0.17074880003929138,"319":0.033973634243011475,"320":0.08180513232946396,"321":0.18646951019763947,"322":-0.10645312070846558,"323":-0.15112057328224182,"324":-0.011825480498373508,"325":-0.1265178769826889,"326":-0.01527524646371603,"327":0.13283149898052216,"328":0.19302910566329956,"329":0.019262857735157013,"330":-0.22651147842407227,"331":0.0877654105424881,"332":0.14692893624305725,"333":0.09806742519140244,"334":0.20650885999202728,"335":-0.14373742043972015,"336":0.07563144713640213,"337":0.04892488569021225,"338":0.24515078961849213,"339":0.11367994546890259,"340":-0.0730435773730278,"341":0.156513974070549,"342":0.03533757105469704,"343":-0.02954564243555069,"344":0.1070544496178627,"345":0.005465541500598192,"346":-0.08907387405633926,"347":0.07194355875253677,"348":-0.006229601800441742,"349":0.12693457305431366,"350":0.0984794944524765,"351":-0.10985147207975388,"352":0.18224912881851196,"353":0.19547201693058014,"354":0.06249835342168808,"355":-0.011871464550495148,"356":0.14307260513305664,"357":0.038172900676727295,"358":0.16140227019786835,"359":0.16162919998168945,"360":0.20049338042736053,"361":-0.07972201704978943,"362":-0.11832288652658463,"363":0.11139827221632004,"364":0.16627025604248047,"365":-0.13467752933502197,"366":0.13465864956378937,"367":0.014895898289978504,"368":-0.13702930510044098,"369":0.108283631503582,"370":-0.11887896060943604,"371":0.12940381467342377,"372":0.06796230375766754,"373":-0.13474830985069275,"374":-0.021262800320982933,"375":-0.04737505689263344,"376":-0.1425492763519287,"377":-0.16412633657455444,"378":-0.20797431468963623,"379":0.08346063643693924,"380":-0.11215397715568542,"381":0.1621389091014862,"382":0.0666995495557785,"383":0.1619078367948532,"384":-0.18216177821159363,"385":0.188095360994339,"386":-0.02196086198091507,"387":-0.22369079291820526,"388":-0.16023945808410645,"389":0.1590963751077652,"390":0.06125722825527191,"391":-0.14447224140167236,"392":-0.03232062980532646,"393":-0.15460596978664398,"394":-0.11974258720874786,"395":-0.061950866132974625,"396":0.1265859454870224,"397":-0.08428631722927094,"398":-0.025449996814131737,"399":-0.07327834516763687,"400":-0.09496598690748215,"401":-0.10737501829862595,"402":-0.0759180560708046,"403":-0.20566120743751526,"404":0.06087764352560043,"405":0.20460456609725952,"406":0.20620815455913544,"407":0.11671102046966553,"408":0.12768657505512238,"409":-0.06683699786663055,"410":0.006197837181389332,"411":-0.0699780136346817,"412":-0.1391742080450058,"413":-0.14451594650745392,"414":-0.023028705269098282,"415":-0.1745387464761734,"416":0.11806022375822067,"417":-0.10926930606365204,"418":0.14439472556114197,"419":0.033669568598270416,"420":0.19287095963954926,"421":0.15445995330810547,"422":-0.0701381266117096,"423":-0.0792279839515686,"424":-0.06165502592921257,"425":-0.0554773174226284,"426":0.18853344023227692,"427":0.0676109790802002,"428":0.06804436445236206,"429":0.24658645689487457,"430":0.21886911988258362,"431":0.19190344214439392,"432":0.03162649646401405,"433":0.06721548736095428,"434":0.17937108874320984,"435":0.14520473778247833,"436":-0.18640848994255066,"437":-0.0327274389564991,"438":0.21068315207958221,"439":0.1335919201374054,"440":0.15278293192386627,"441":-0.07608962804079056,"442":-0.10463716834783554,"443":-0.14257223904132843,"444":0.03346233069896698,"445":0.036878373473882675,"446":0.20238180458545685,"447":-0.11290246248245239,"448":0.1657898873090744,"449":-0.16604861617088318,"450":-0.1004275381565094,"451":-0.11500126868486404,"452":-0.13011085987091064,"453":0.0776745080947876,"454":-0.21145933866500854,"455":-0.08156993240118027,"456":-0.026540085673332214,"457":-0.0028071897104382515,"458":-0.039454393088817596,"459":0.03795718029141426,"460":0.02006382681429386,"461":0.04546406492590904,"462":0.0853201225399971}},"4":{"bias":-0.002067242283374071,"weights":{"0":-0.050099294632673264,"1":-0.13461410999298096,"2":-0.0030226511880755424,"3":0.09323514252901077,"4":0.08505666255950928,"5":0.3041471242904663,"6":0.056728262454271317,"7":-0.03595757856965065,"8":-0.1595245599746704,"9":0.02868306264281273,"10":0.09842659533023834,"11":-0.08964502811431885,"12":0.19537368416786194,"13":0.19628353416919708,"14":-0.13771943747997284,"15":-0.004183922428637743,"16":0.08200230449438095,"17":-0.17343220114707947,"18":-0.15753674507141113,"19":-0.000097030853794422,"20":0.15117715299129486,"21":-0.04345827177166939,"22":0.05054108798503876,"23":0.12031097710132599,"24":0.1045805886387825,"25":-0.1775261014699936,"26":-0.1106920912861824,"27":0.06142181530594826,"28":0.16321542859077454,"29":-0.17148783802986145,"30":0.06619049608707428,"31":-0.06616409868001938,"32":0.12114981561899185,"33":0.19410647451877594,"34":0.0640784353017807,"35":-0.14276215434074402,"36":0.04658188298344612,"37":0.14284047484397888,"38":-0.09430468082427979,"39":0.09444978833198547,"40":-0.08870500326156616,"41":-0.0688459575176239,"42":0.10727283358573914,"43":0.11603286862373352,"44":0.07702866941690445,"45":-0.18184596300125122,"46":0.13697388768196106,"47":-0.16798801720142365,"48":0.07349813729524612,"49":-0.08421014994382858,"50":0.1585714966058731,"51":-0.05935543775558472,"52":-0.11643945425748825,"53":-0.10086239874362946,"54":-0.006642363499850035,"55":0.2040618509054184,"56":0.09847936779260635,"57":0.08801493793725967,"58":-0.12548397481441498,"59":-0.13888967037200928,"60":-0.09214427322149277,"61":-0.09178987890481949,"62":-0.1279263198375702,"63":0.13449199497699738,"64":0.03687027096748352,"65":0.06930019706487656,"66":0.2397173047065735,"67":0.13468250632286072,"68":-0.044411882758140564,"69":0.11885634064674377,"70":-0.12480324506759644,"71":0.07212869077920914,"72":-0.1140848770737648,"73":0.011523311026394367,"74":0.05460158362984657,"75":0.11055849492549896,"76":0.009400441311299801,"77":0.0836920291185379,"78":-0.06324972212314606,"79":0.022884054109454155,"80":-0.04074995592236519,"81":-0.03011484257876873,"82":-0.06714832037687302,"83":-0.205851748585701,"84":-0.06051810830831528,"85":0.05166956037282944,"86":-0.16655617952346802,"87":-0.028772765770554543,"88":-0.1943020522594452,"89":-0.02452905848622322,"90":0.05116402357816696,"91":-0.021625002846121788,"92":-0.1155882477760315,"93":0.15033671259880066,"94":-0.11142344772815704,"95":-0.08786428719758987,"96":0.130886048078537,"97":-0.12329787760972977,"98":0.10150066763162613,"99":-0.14853158593177795,"100":0.012028154917061329,"101":0.012175298295915127,"102":0.06851792335510254,"103":-0.01975661888718605,"104":-0.16043676435947418,"105":0.09319163113832474,"106":-0.015594207681715488,"107":0.2033861130475998,"108":0.1248035803437233,"109":0.08906025439500809,"110":0.1516447365283966,"111":-0.18257972598075867,"112":-0.026236312463879585,"113":0.17297953367233276,"114":0.2202192097902298,"115":-0.10148690640926361,"116":0.047860872000455856,"117":-0.09407316148281097,"118":0.08823776245117188,"119":-0.11254730820655823,"120":0.11106593161821365,"121":-0.04823107644915581,"122":0.13243432343006134,"123":-0.002313526114448905,"124":-0.07604570686817169,"125":-0.10416484624147415,"126":0.028119202703237534,"127":0.14228087663650513,"128":0.12364219129085541,"129":-0.043041523545980453,"130":0.11756304651498795,"131":0.10346697270870209,"132":0.18802306056022644,"133":0.16292065382003784,"134":-0.11085052788257599,"135":0.03926805406808853,"136":0.025381024926900864,"137":-0.17277991771697998,"138":0.10683415085077286,"139":-0.1365506500005722,"140":-0.20789262652397156,"141":0.07279147207736969,"142":0.11984522640705109,"143":-0.10083679109811783,"144":0.1584084928035736,"145":0.21266517043113708,"146":0.05055326223373413,"147":-0.04752315208315849,"148":0.05352434888482094,"149":-0.07243189960718155,"150":-0.09292560070753098,"151":-0.11173955351114273,"152":-0.0989927351474762,"153":-0.059023063629865646,"154":0.20021584630012512,"155":0.021562740206718445,"156":-0.08852392435073853,"157":0.15456274151802063,"158":-0.09411066025495529,"159":0.02844797819852829,"160":0.15341730415821075,"161":-0.06762473285198212,"162":-0.04236086085438728,"163":0.13360203802585602,"164":0.05567461624741554,"165":-0.010442085564136505,"166":-0.0208550076931715,"167":-0.20112964510917664,"168":-0.19797497987747192,"169":0.18910184502601624,"170":-0.10807774215936661,"171":-0.1267072558403015,"172":0.03620707988739014,"173":-0.09887274354696274,"174":-0.16171224415302277,"175":-0.11031336337327957,"176":0.1838950663805008,"177":-0.0768803283572197,"178":0.013627608306705952,"179":0.16987214982509613,"180":0.06356748938560486,"181":0.18776197731494904,"182":0.09719643741846085,"183":-0.10392065346240997,"184":-0.18761461973190308,"185":-0.17402209341526031,"186":-0.028481533750891685,"187":-0.09288527071475983,"188":-0.1962205320596695,"189":0.17504143714904785,"190":-0.02911185286939144,"191":-0.03392079472541809,"192":0.1100691631436348,"193":0.1010943129658699,"194":-0.05731907859444618,"195":0.11494354903697968,"196":-0.011488886550068855,"197":-0.15779022872447968,"198":0.09352824091911316,"199":0.12522165477275848,"200":0.07888904958963394,"201":0.08419225364923477,"202":-0.0710659772157669,"203":-0.10927967727184296,"204":-0.11384576559066772,"205":0.12626633048057556,"206":-0.1703147292137146,"207":0.062092605978250504,"208":0.22562254965305328,"209":0.1341475546360016,"210":-0.07882177084684372,"211":0.24990634620189667,"212":-0.1270083338022232,"213":-0.010476762428879738,"214":-0.09662313759326935,"215":0.07160507887601852,"216":-0.17205572128295898,"217":0.1067027673125267,"218":-0.16063956916332245,"219":0.1892511546611786,"220":-0.1221434623003006,"221":0.16525788605213165,"222":-0.01767639070749283,"223":0.0261734277009964,"224":0.11958900094032288,"225":0.08697053045034409,"226":0.1585884392261505,"227":-0.08597838878631592,"228":0.10412243753671646,"229":0.061973411589860916,"230":-0.1675417721271515,"231":-0.0671253576874733,"232":0.27140650153160095,"233":-0.11731976270675659,"234":0.14488659799098969,"235":-0.08504720032215118,"236":0.21781893074512482,"237":0.10830327123403549,"238":-0.06666450202465057,"239":0.02736089564859867,"240":-0.023938965052366257,"241":0.16963587701320648,"242":-0.0805673822760582,"243":0.09972451627254486,"244":-0.09916005283594131,"245":-0.07197295874357224,"246":-0.08378917723894119,"247":0.061506662517786026,"248":-0.11398225277662277,"249":-0.1769118458032608,"250":-0.028786111623048782,"251":-0.14894306659698486,"252":0.17617078125476837,"253":-0.06327762454748154,"254":0.11989019811153412,"255":0.14623309671878815,"256":-0.10076680034399033,"257":-0.17823849618434906,"258":0.08633209019899368,"259":-0.09619858860969543,"260":0.1482674926519394,"261":0.013905973173677921,"262":0.11264443397521973,"263":-0.09805092960596085,"264":-0.2470822036266327,"265":-0.24220192432403564,"266":0.03430786728858948,"267":0.04848576709628105,"268":0.14422303438186646,"269":0.0002793313760776073,"270":-0.14192135632038116,"271":0.15204279124736786,"272":0.14194300770759583,"273":-0.16121520102024078,"274":-0.0834011659026146,"275":-0.1136951670050621,"276":-0.05709785223007202,"277":-0.04655775800347328,"278":-0.10308319330215454,"279":0.05846502631902695,"280":0.15095214545726776,"281":-0.06974618881940842,"282":-0.0646980032324791,"283":-0.0540306456387043,"284":0.03866913542151451,"285":-0.17940343916416168,"286":-0.08963397890329361,"287":-0.07234834134578705,"288":-0.11276305466890335,"289":-0.1271473616361618,"290":-0.17700429260730743,"291":-0.03436991572380066,"292":-0.09538102149963379,"293":0.15282303094863892,"294":-0.02508138306438923,"295":-0.1551048755645752,"296":-0.03415262699127197,"297":0.056199125945568085,"298":0.007215865422040224,"299":-0.07673995941877365,"300":-0.14158019423484802,"301":-0.143243670463562,"302":-0.1853054314851761,"303":-0.048914406448602676,"304":0.13921551406383514,"305":0.16713948547840118,"306":0.03887642174959183,"307":0.08459897339344025,"308":-0.12917770445346832,"309":-0.08593380451202393,"310":0.17632660269737244,"311":-0.02077743597328663,"312":0.12624813616275787,"313":-0.01928992010653019,"314":-0.20256830751895905,"315":0.16164667904376984,"316":-0.15369346737861633,"317":-0.03874531388282776,"318":0.13152474164962769,"319":-0.1920369267463684,"320":0.021200742572546005,"321":-0.06320236623287201,"322":-0.2019161880016327,"323":0.09411747008562088,"324":0.1701638102531433,"325":0.08255888521671295,"326":0.17705821990966797,"327":-0.17051057517528534,"328":-0.1332084834575653,"329":0.19483456015586853,"330":0.14602907001972198,"331":-0.08804503083229065,"332":0.052375469356775284,"333":-0.14417362213134766,"334":-0.15943659842014313,"335":-0.18091075122356415,"336":-0.17546820640563965,"337":-0.20558544993400574,"338":-0.2359800934791565,"339":-0.08843576908111572,"340":-0.07845916599035263,"341":0.12006086856126785,"342":0.1015995442867279,"343":0.12513363361358643,"344":0.14073844254016876,"345":0.030762730166316032,"346":-0.1377464085817337,"347":0.02844683825969696,"348":0.13919885456562042,"349":-0.14824911952018738,"350":0.06839649379253387,"351":0.11040380597114563,"352":-0.04008248820900917,"353":-0.10441870242357254,"354":0.11935284733772278,"355":0.023461831733584404,"356":-0.22128313779830933,"357":0.07783889025449753,"358":-0.22043123841285706,"359":0.0043848478235304356,"360":0.08939716964960098,"361":-0.09316306561231613,"362":0.1535448133945465,"363":-0.013473544269800186,"364":-0.14388489723205566,"365":0.0514388270676136,"366":-0.02560972236096859,"367":0.012143929488956928,"368":-0.021097548305988312,"369":0.08090464770793915,"370":0.11066560447216034,"371":0.03423928841948509,"372":-0.09505010396242142,"373":-0.15992854535579681,"374":0.0477665551006794,"375":-0.011268004775047302,"376":0.01776266098022461,"377":-0.002869534771889448,"378":0.10405351966619492,"379":-0.22117798030376434,"380":0.11706018447875977,"381":0.013773633167147636,"382":0.10117284208536148,"383":0.0636170357465744,"384":0.08291936665773392,"385":0.029416237026453018,"386":0.1305815577507019,"387":-0.023348432034254074,"388":-0.1615563929080963,"389":0.15199492871761322,"390":-0.14059686660766602,"391":-0.21513712406158447,"392":0.08705484122037888,"393":-0.2270572930574417,"394":0.17985320091247559,"395":-0.20767948031425476,"396":0.06461010873317719,"397":-0.10688050836324692,"398":-0.06270536035299301,"399":0.11523042619228363,"400":-0.013673663139343262,"401":0.14332404732704163,"402":0.11136568337678909,"403":-0.01964283548295498,"404":-0.11259650439023972,"405":-0.09739531576633453,"406":0.1135522648692131,"407":0.0650201216340065,"408":0.16770297288894653,"409":0.1594165563583374,"410":-0.07396417111158371,"411":0.1746469885110855,"412":0.035401422530412674,"413":0.12415454536676407,"414":0.145377978682518,"415":0.11438684910535812,"416":0.06647688895463943,"417":-0.02959716133773327,"418":-0.08572341501712799,"419":-0.08988761901855469,"420":0.10580703616142273,"421":0.14208731055259705,"422":0.054893698543310165,"423":0.1141909509897232,"424":-0.08726557344198227,"425":-0.03865676373243332,"426":-0.061557866632938385,"427":-0.0756862685084343,"428":-0.2215183526277542,"429":-0.11393126845359802,"430":-0.14889667928218842,"431":0.028753390535712242,"432":-0.036869000643491745,"433":-0.08825980126857758,"434":0.08407377451658249,"435":-0.041121769696474075,"436":-0.0450928770005703,"437":-0.0973818302154541,"438":-0.1315176784992218,"439":0.09793076664209366,"440":0.16189277172088623,"441":0.08688178658485413,"442":0.11428070068359375,"443":-0.20034801959991455,"444":-0.12031581252813339,"445":0.11916368454694748,"446":-0.02637920156121254,"447":0.1878744512796402,"448":0.15925301611423492,"449":0.05509769171476364,"450":-0.1775074601173401,"451":0.16738633811473846,"452":0.15396784245967865,"453":0.05406968668103218,"454":0.1253078579902649,"455":-0.06701253354549408,"456":-0.08445735275745392,"457":0.1119437888264656,"458":0.0037580113857984543,"459":0.16302798688411713,"460":0.19637423753738403,"461":0.0932149738073349,"462":0.025202235206961632}},"5":{"bias":-0.2129804939031601,"weights":{"0":-0.05385926365852356,"1":-0.016332020983099937,"2":0.12976913154125214,"3":-0.16734148561954498,"4":0.1777477115392685,"5":-0.2052881419658661,"6":0.08435146510601044,"7":-0.06516947597265244,"8":0.05857595428824425,"9":-0.18889188766479492,"10":0.17195703089237213,"11":-0.17730697989463806,"12":0.09065256267786026,"13":-0.18950675427913666,"14":-0.19529247283935547,"15":0.0010613108752295375,"16":0.14281371235847473,"17":0.10783995687961578,"18":0.033848389983177185,"19":0.0016479769255965948,"20":0.07343846559524536,"21":0.030374862253665924,"22":0.11583738029003143,"23":0.10203947871923447,"24":-0.036032915115356445,"25":0.14727303385734558,"26":-0.08970379829406738,"27":-0.03257051110267639,"28":-0.07528810948133469,"29":0.052104972302913666,"30":0.1491071730852127,"31":0.09767309576272964,"32":-0.002930269343778491,"33":0.17786508798599243,"34":0.08199507743120193,"35":-0.10927639901638031,"36":-0.17415599524974823,"37":-0.15927709639072418,"38":0.013191824778914452,"39":0.18824374675750732,"40":-0.07843144983053207,"41":0.08812469244003296,"42":0.1108442172408104,"43":-0.07672453671693802,"44":0.19811613857746124,"45":0.14244478940963745,"46":0.0017239921726286411,"47":0.036003228276968,"48":-0.15647244453430176,"49":-0.06735886633396149,"50":-0.03498653322458267,"51":0.15689514577388763,"52":0.1616285890340805,"53":-0.11620891094207764,"54":-0.09242422878742218,"55":-0.08809205889701843,"56":0.0030517391860485077,"57":0.03380224481225014,"58":-0.19949372112751007,"59":0.08252885937690735,"60":0.1572641283273697,"61":-0.058284930884838104,"62":-0.127144455909729,"63":0.09833206981420517,"64":-0.06869141012430191,"65":-0.1991126537322998,"66":0.02278970554471016,"67":-0.16283392906188965,"68":0.11237839609384537,"69":-0.14372959733009338,"70":-0.03772556036710739,"71":0.058286476880311966,"72":-0.14432334899902344,"73":0.1160380020737648,"74":-0.0440148189663887,"75":-0.12758520245552063,"76":-0.17868588864803314,"77":0.16570772230625153,"78":0.0972643792629242,"79":-0.08960557729005814,"80":-0.18416641652584076,"81":0.07709749788045883,"82":-0.18533651530742645,"83":0.16759386658668518,"84":0.14264744520187378,"85":-0.05225704610347748,"86":0.11648904532194138,"87":-0.07567688077688217,"88":-0.0076360623352229595,"89":0.037044089287519455,"90":-0.12275981903076172,"91":-0.19326895475387573,"92":0.13070358335971832,"93":-0.028390394523739815,"94":-0.024142185226082802,"95":-0.08682006597518921,"96":-0.11939460039138794,"97":-0.12393693625926971,"98":-0.02105826884508133,"99":0.12262387573719025,"100":-0.1782243251800537,"101":0.0006312167388387024,"102":-0.04368651285767555,"103":-0.1374146193265915,"104":-0.08894329518079758,"105":0.014200788922607899,"106":0.13654965162277222,"107":-0.1535557061433792,"108":-0.013213101774454117,"109":-0.1410159319639206,"110":-0.07129226624965668,"111":0.1784348487854004,"112":0.10233939439058304,"113":-0.19321414828300476,"114":0.10462062060832977,"115":0.15787923336029053,"116":-0.05750105157494545,"117":-0.14194631576538086,"118":-0.16502666473388672,"119":0.04969935119152069,"120":-0.11551615595817566,"121":-0.06611109524965286,"122":0.03315495699644089,"123":-0.07733078300952911,"124":-0.04202552139759064,"125":0.1788894534111023,"126":-0.008824601769447327,"127":-0.07097361981868744,"128":0.16222818195819855,"129":-0.14670075476169586,"130":0.09491992741823196,"131":0.12942922115325928,"132":0.17789530754089355,"133":0.03947217017412186,"134":-0.17401739954948425,"135":-0.04293133318424225,"136":-0.11141426116228104,"137":-0.004801936913281679,"138":-0.1438755840063095,"139":0.02100413292646408,"140":-0.07191616296768188,"141":0.1175878569483757,"142":0.002305316273123026,"143":0.17237822711467743,"144":-0.13874348998069763,"145":0.05791878700256348,"146":-0.0009542172192595899,"147":0.05122038349509239,"148":-0.08060424029827118,"149":-0.06966754049062729,"150":0.09569012373685837,"151":-0.03695613145828247,"152":-0.015088881365954876,"153":0.15120632946491241,"154":-0.005892345681786537,"155":-0.09154243022203445,"156":0.12636502087116241,"157":0.006927665788680315,"158":0.1415817141532898,"159":0.12129715085029602,"160":0.06002227962017059,"161":0.14080925285816193,"162":0.14215804636478424,"163":0.18281158804893494,"164":-0.1704423427581787,"165":-0.033796776086091995,"166":-0.14793899655342102,"167":-0.06175951659679413,"168":0.1284457892179489,"169":-0.19614697992801666,"170":-0.04960288479924202,"171":0.025613024830818176,"172":-0.039652012288570404,"173":0.09994129836559296,"174":0.03521427884697914,"175":0.05451081320643425,"176":-0.10587997734546661,"177":0.06190802901983261,"178":0.1356077343225479,"179":0.17334268987178802,"180":0.18487276136875153,"181":-0.04708513617515564,"182":0.12550711631774902,"183":-0.016663867980241776,"184":0.01878325454890728,"185":0.1410764902830124,"186":-0.14963498711585999,"187":0.010868032462894917,"188":-0.04302522540092468,"189":0.17728963494300842,"190":0.1183609887957573,"191":-0.13277475535869598,"192":-0.04957759380340576,"193":-0.08081015199422836,"194":-0.0027226151432842016,"195":-0.10270176082849503,"196":0.17285361886024475,"197":0.1783844530582428,"198":-0.11197179555892944,"199":0.001918967580422759,"200":0.062405578792095184,"201":-0.04799789935350418,"202":0.11359266936779022,"203":0.00461494131013751,"204":0.059136174619197845,"205":0.14654919505119324,"206":-0.029268167912960052,"207":-0.1635424941778183,"208":-0.18423546850681305,"209":-0.07087738811969757,"210":-0.05321387201547623,"211":-0.010461774654686451,"212":-0.14827799797058105,"213":0.17802996933460236,"214":0.06468705087900162,"215":0.008056933991611004,"216":-0.10022230446338654,"217":-0.05757743865251541,"218":0.2059737890958786,"219":-0.10834958404302597,"220":0.11571583151817322,"221":-0.20446613430976868,"222":-0.13789959251880646,"223":-0.04715768247842789,"224":0.16559068858623505,"225":-0.11490663141012192,"226":0.14265061914920807,"227":0.0021311359014362097,"228":0.0016586993588134646,"229":-0.05296769365668297,"230":0.1082424521446228,"231":-0.0009859579149633646,"232":-0.02268850803375244,"233":0.04375491663813591,"234":-0.018146304413676262,"235":0.19408811628818512,"236":-0.0427461676299572,"237":0.14981380105018616,"238":0.16207949817180634,"239":-0.029219618067145348,"240":-0.17098359763622284,"241":-0.12996293604373932,"242":-0.12631207704544067,"243":0.12488175928592682,"244":-0.06983309239149094,"245":-0.0893239974975586,"246":0.11091906577348709,"247":0.09338913857936859,"248":-0.15585650503635406,"249":-0.052776314318180084,"250":0.0607762448489666,"251":0.05272863060235977,"252":-0.007970745675265789,"253":-0.00948919914662838,"254":0.18887166678905487,"255":0.09148738533258438,"256":-0.18662868440151215,"257":-0.05766105651855469,"258":0.004548658151179552,"259":-0.007163641508668661,"260":0.11657322943210602,"261":-0.008472953923046589,"262":-0.011969461105763912,"263":-0.011423422023653984,"264":-0.1462201327085495,"265":0.0322393923997879,"266":0.07478535175323486,"267":-0.16754257678985596,"268":-0.08170150220394135,"269":-0.06113860383629799,"270":-0.03895188122987747,"271":0.08360328525304794,"272":-0.17026737332344055,"273":0.07710504531860352,"274":0.1352546662092209,"275":-0.10067909210920334,"276":0.020556122064590454,"277":-0.0367281548678875,"278":-0.024274855852127075,"279":-0.1849752813577652,"280":0.19864434003829956,"281":-0.12933331727981567,"282":-0.02449064515531063,"283":0.18409134447574615,"284":-0.1100318655371666,"285":0.13265103101730347,"286":0.18651612102985382,"287":-0.03998876363039017,"288":-0.053277887403964996,"289":-0.02900613099336624,"290":0.19502116739749908,"291":0.039187803864479065,"292":0.00823692511767149,"293":0.16883204877376556,"294":-0.16082996129989624,"295":0.028282221406698227,"296":0.18493516743183136,"297":0.11472927033901215,"298":-0.147899329662323,"299":0.1616685390472412,"300":-0.17855104804039001,"301":0.17862337827682495,"302":0.01595950871706009,"303":0.16837859153747559,"304":-0.10315752774477005,"305":-0.012723526917397976,"306":0.06843527406454086,"307":0.19035832583904266,"308":0.06250879168510437,"309":-0.1302885264158249,"310":0.10003256797790527,"311":-0.1906556338071823,"312":0.16981075704097748,"313":-0.1332637369632721,"314":-0.06152117997407913,"315":0.19474546611309052,"316":-0.026685498654842377,"317":0.13604390621185303,"318":-0.07035967707633972,"319":0.1986452341079712,"320":-0.03751658648252487,"321":-0.12241991609334946,"322":-0.05081797391176224,"323":0.15549533069133759,"324":0.06978624314069748,"325":0.046703435480594635,"326":0.006599352695047855,"327":0.11028550565242767,"328":0.14169842004776,"329":0.060998301953077316,"330":0.16917182505130768,"331":-0.10367938876152039,"332":0.13396088778972626,"333":0.1694851964712143,"334":0.07392018288373947,"335":0.15379899740219116,"336":-0.12174782156944275,"337":-0.0021184906363487244,"338":0.17169129848480225,"339":0.01814039796590805,"340":-0.18612819910049438,"341":-0.17842403054237366,"342":-0.1359335333108902,"343":0.020004354417324066,"344":-0.05060684308409691,"345":0.06896369159221649,"346":0.0756140649318695,"347":0.11725891381502151,"348":0.03614145889878273,"349":0.1265915334224701,"350":-0.17982378602027893,"351":-0.13266298174858093,"352":-0.1324850618839264,"353":-0.09398280829191208,"354":0.05990200862288475,"355":-0.047252021729946136,"356":0.030687619000673294,"357":0.005241140257567167,"358":0.1499609649181366,"359":-0.16363020241260529,"360":-0.11064288020133972,"361":0.1569858342409134,"362":0.1828191578388214,"363":0.08339571207761765,"364":-0.10627483576536179,"365":0.0718529000878334,"366":0.1765948086977005,"367":0.035153549164533615,"368":-0.08429129421710968,"369":-0.18683204054832458,"370":-0.12215154618024826,"371":-0.12594196200370789,"372":-0.09006476402282715,"373":0.0854460671544075,"374":-0.19730232656002045,"375":-0.08348342776298523,"376":-0.025558553636074066,"377":0.20024976134300232,"378":0.017627405002713203,"379":0.02519126422703266,"380":0.08360685408115387,"381":0.11517054587602615,"382":0.14135628938674927,"383":0.08668512105941772,"384":0.18721763789653778,"385":-0.05665188655257225,"386":-0.13670893013477325,"387":0.13778580725193024,"388":0.0066970777697861195,"389":-0.0004017199098598212,"390":-0.12118253111839294,"391":0.11682404577732086,"392":0.039863187819719315,"393":0.050573233515024185,"394":-0.022444000467658043,"395":-0.0011193716200068593,"396":-0.020629342645406723,"397":0.056828778237104416,"398":-0.1736183613538742,"399":0.1419280767440796,"400":-0.016354097053408623,"401":0.09953150898218155,"402":0.012568412348628044,"403":-0.06053348258137703,"404":0.13129404187202454,"405":-0.04361072927713394,"406":-0.13578109443187714,"407":0.09419039636850357,"408":-0.10226568579673767,"409":-0.07817167043685913,"410":-0.06943780928850174,"411":-0.16859067976474762,"412":-0.06460078060626984,"413":-0.15381023287773132,"414":0.13911403715610504,"415":-0.06130164489150047,"416":-0.006069988012313843,"417":-0.05913890153169632,"418":0.013068193569779396,"419":0.15592586994171143,"420":0.18921516835689545,"421":-0.023763997480273247,"422":0.06431019306182861,"423":-0.04141853749752045,"424":-0.1680351048707962,"425":-0.16365638375282288,"426":0.13458268344402313,"427":0.18843835592269897,"428":-0.018838096410036087,"429":0.0447603240609169,"430":0.11615735292434692,"431":0.056056540459394455,"432":0.10086197406053543,"433":0.05401777848601341,"434":0.18027237057685852,"435":-0.1913941204547882,"436":0.08801206946372986,"437":-0.12901055812835693,"438":0.12205848097801208,"439":0.016890307888388634,"440":0.01810598559677601,"441":0.02832728438079357,"442":0.09307251125574112,"443":-0.031985487788915634,"444":-0.07052096724510193,"445":-0.1119384840130806,"446":-0.10921818017959595,"447":-0.013064758852124214,"448":0.04733530431985855,"449":-0.11912289261817932,"450":-0.1579630970954895,"451":0.012303938157856464,"452":0.048876844346523285,"453":0.17319774627685547,"454":-0.10404308885335922,"455":-0.014300655573606491,"456":-0.1372039020061493,"457":0.11715950816869736,"458":-0.13475188612937927,"459":-0.18180032074451447,"460":-0.04203060269355774,"461":-0.08671711385250092,"462":-0.09043531119823456}},"6":{"bias":0.006618207320570946,"weights":{"0":-0.05069642513990402,"1":-0.1067529022693634,"2":-0.04066350683569908,"3":-0.15728071331977844,"4":-0.12507830560207367,"5":-0.18233077228069305,"6":0.09449652582406998,"7":-0.19223040342330933,"8":0.03790079802274704,"9":0.0022846648935228586,"10":-0.21112887561321259,"11":-0.08356973528862,"12":-0.042654167860746384,"13":0.024385593831539154,"14":-0.07925742864608765,"15":0.06511440873146057,"16":0.15104009211063385,"17":0.12723542749881744,"18":-0.09537152200937271,"19":0.12730182707309723,"20":0.06030423194169998,"21":0.10311450064182281,"22":-0.06942640990018845,"23":0.04098557308316231,"24":-0.09555373340845108,"25":-0.10447096824645996,"26":0.05375078693032265,"27":-0.13331083953380585,"28":0.17022347450256348,"29":0.10999107360839844,"30":-0.0660233274102211,"31":0.06201905757188797,"32":-0.07972404360771179,"33":0.017190758138895035,"34":0.16792675852775574,"35":-0.08954574167728424,"36":-0.10632660239934921,"37":-0.015408244915306568,"38":0.00967793632298708,"39":0.1939738392829895,"40":-0.021735185757279396,"41":-0.1812819242477417,"42":0.03754202648997307,"43":-0.20027735829353333,"44":-0.10842720419168472,"45":0.00616627698764205,"46":-0.1289840042591095,"47":0.16971012949943542,"48":-0.0667061135172844,"49":-0.1880394071340561,"50":0.19150100648403168,"51":-0.13259783387184143,"52":-0.11677609384059906,"53":0.016188811510801315,"54":-0.07017551362514496,"55":-0.01846914365887642,"56":0.1404239386320114,"57":-0.17399635910987854,"58":0.13905641436576843,"59":0.05903031304478645,"60":0.042799707502126694,"61":-0.10720904916524887,"62":0.034864023327827454,"63":-0.14548084139823914,"64":-0.08340013772249222,"65":-0.06280774623155594,"66":0.11373797059059143,"67":-0.05409972369670868,"68":-0.025874920189380646,"69":-0.1714746356010437,"70":-0.06387339532375336,"71":-0.00908726453781128,"72":-0.1717083603143692,"73":0.06032735854387283,"74":-0.1737777441740036,"75":0.18219321966171265,"76":-0.04089336097240448,"77":-0.13254661858081818,"78":0.04936240240931511,"79":-0.135152205824852,"80":-0.06518922746181488,"81":0.11683350056409836,"82":0.02174432761967182,"83":0.05906189978122711,"84":-0.10661864280700684,"85":-0.11229319125413895,"86":-0.12029089033603668,"87":0.1703914850950241,"88":-0.02156044729053974,"89":0.1112959086894989,"90":-0.15875135362148285,"91":0.022913653403520584,"92":-0.17641793191432953,"93":0.16276903450489044,"94":-0.12486535310745239,"95":0.10017473995685577,"96":-0.03552908077836037,"97":-0.1517419070005417,"98":0.14488989114761353,"99":-0.14075951278209686,"100":-0.10388356447219849,"101":0.11636283248662949,"102":-0.05572318285703659,"103":-0.11037087440490723,"104":-0.05444317311048508,"105":-0.014406793750822544,"106":0.000037807309126947075,"107":0.07206495851278305,"108":0.1807001829147339,"109":-0.11232474446296692,"110":0.010790765285491943,"111":-0.01913451962172985,"112":-0.10261791944503784,"113":0.04441513866186142,"114":0.06108393892645836,"115":-0.1176707074046135,"116":-0.18573983013629913,"117":-0.08128095418214798,"118":-0.006266885902732611,"119":0.08166613429784775,"120":0.10191047936677933,"121":-0.11604824662208557,"122":-0.06827840209007263,"123":0.03922143206000328,"124":0.17703397572040558,"125":-0.06318847835063934,"126":0.009235907346010208,"127":-0.04834591969847679,"128":0.18814782798290253,"129":0.11488642543554306,"130":0.12108545750379562,"131":-0.030140915885567665,"132":-0.1901220828294754,"133":0.10461324453353882,"134":-0.03728559613227844,"135":-0.1507818102836609,"136":0.1620735228061676,"137":-0.05842698737978935,"138":-0.09217606484889984,"139":-0.05223659798502922,"140":-0.07552848011255264,"141":0.1228770911693573,"142":0.16880181431770325,"143":-0.12830103933811188,"144":-0.1103709414601326,"145":-0.06371709704399109,"146":0.03049900196492672,"147":0.08223187923431396,"148":0.1920088678598404,"149":-0.08024115115404129,"150":-0.00838438794016838,"151":0.09288867563009262,"152":-0.18024024367332458,"153":-0.02181648649275303,"154":-0.14697159826755524,"155":0.09650411456823349,"156":0.008545120246708393,"157":0.12141133099794388,"158":0.13588947057724,"159":-0.15330414474010468,"160":0.08118847757577896,"161":0.05376245081424713,"162":-0.13753613829612732,"163":-0.08562333136796951,"164":-0.055900800973176956,"165":0.06045039743185043,"166":-0.06896408647298813,"167":-0.14403340220451355,"168":0.15026189386844635,"169":0.19458173215389252,"170":0.18314339220523834,"171":-0.0013649058528244495,"172":-0.12326032668352127,"173":-0.18832886219024658,"174":-0.09048810601234436,"175":-0.15593931078910828,"176":-0.007225235924124718,"177":0.19984020292758942,"178":-0.11032655835151672,"179":0.16164560616016388,"180":0.07352529466152191,"181":-0.1801527738571167,"182":0.02998940832912922,"183":0.18138818442821503,"184":0.2032744139432907,"185":0.10505195707082748,"186":-0.15669333934783936,"187":0.13850152492523193,"188":0.08940345793962479,"189":-0.09351682662963867,"190":-0.009844719432294369,"191":0.18654638528823853,"192":0.16747620701789856,"193":0.04905657470226288,"194":0.11754848062992096,"195":0.012758265249431133,"196":-0.12206897884607315,"197":0.09016163647174835,"198":0.1480037271976471,"199":0.12383181601762772,"200":-0.03763671591877937,"201":0.026506349444389343,"202":0.007616718299686909,"203":0.019797533750534058,"204":0.06333723664283752,"205":-0.17481154203414917,"206":0.09582298249006271,"207":0.050541386008262634,"208":-0.0886605754494667,"209":0.02465350739657879,"210":0.16134800016880035,"211":-0.1525745689868927,"212":0.10071519017219543,"213":0.07444071769714355,"214":0.1282840371131897,"215":0.1853008270263672,"216":-0.12946023046970367,"217":0.15460750460624695,"218":-0.042669203132390976,"219":0.021701376885175705,"220":0.02228742279112339,"221":-0.002750842133536935,"222":-0.07411040365695953,"223":-0.12511354684829712,"224":-0.19714507460594177,"225":-0.16331490874290466,"226":-0.11317230761051178,"227":0.1154446005821228,"228":0.19249947369098663,"229":-0.026108648627996445,"230":-0.14075066149234772,"231":-0.03330162167549133,"232":-0.048665620386600494,"233":-0.0016050136182457209,"234":0.14976079761981964,"235":-0.015347251668572426,"236":-0.08673165738582611,"237":-0.0562959685921669,"238":-0.11286060512065887,"239":-0.17700110375881195,"240":0.07841130346059799,"241":0.06647136807441711,"242":0.0703001618385315,"243":-0.05188392475247383,"244":0.10849952697753906,"245":-0.008141492493450642,"246":0.13940584659576416,"247":-0.04136090353131294,"248":0.037159472703933716,"249":0.14954599738121033,"250":-0.14858722686767578,"251":0.004711119458079338,"252":-0.04274849593639374,"253":0.12477941811084747,"254":0.15220803022384644,"255":-0.0470898263156414,"256":0.10903879255056381,"257":0.012579258531332016,"258":-0.039788275957107544,"259":0.0823187455534935,"260":-0.1841922402381897,"261":-0.19605109095573425,"262":-0.08624698221683502,"263":0.06374914199113846,"264":0.18302682042121887,"265":0.019239185377955437,"266":0.183256134390831,"267":-0.0009795516962185502,"268":0.13790147006511688,"269":-0.12995785474777222,"270":0.1628873199224472,"271":-0.03318308666348457,"272":0.10396084934473038,"273":0.1822560429573059,"274":-0.10593486577272415,"275":0.13743780553340912,"276":0.17041754722595215,"277":0.18080130219459534,"278":0.057216085493564606,"279":-0.1591644585132599,"280":0.06994699686765671,"281":0.11476949602365494,"282":0.001096377382054925,"283":-0.03134883567690849,"284":-0.13831289112567902,"285":0.01445793081074953,"286":0.09392588585615158,"287":0.11421359330415726,"288":0.0018799121025949717,"289":0.17815594375133514,"290":-0.026359522715210915,"291":0.040938787162303925,"292":0.10596411675214767,"293":-0.007206506561487913,"294":0.05802852660417557,"295":0.033024489879608154,"296":-0.1263052374124527,"297":0.08805510401725769,"298":0.18575452268123627,"299":0.16168373823165894,"300":0.010773901827633381,"301":-0.02823132462799549,"302":0.1536075472831726,"303":0.14595037698745728,"304":-0.12625935673713684,"305":0.19495874643325806,"306":0.02324719727039337,"307":0.13647203147411346,"308":-0.20158030092716217,"309":0.09706445038318634,"310":0.08870857954025269,"311":0.11554551869630814,"312":0.11285413801670074,"313":-0.10323499143123627,"314":0.08976827561855316,"315":0.1979498267173767,"316":-0.049926821142435074,"317":0.03697948902845383,"318":0.010003137402236462,"319":-0.11385724693536758,"320":-0.10624798387289047,"321":-0.13332374393939972,"322":0.00624729972332716,"323":0.13712894916534424,"324":-0.09382075071334839,"325":-0.03490259498357773,"326":0.18452540040016174,"327":-0.11169812828302383,"328":-0.14687921106815338,"329":0.16058790683746338,"330":-0.09706778079271317,"331":-0.01002955250442028,"332":-0.018594607710838318,"333":0.16157330572605133,"334":0.06072073429822922,"335":-0.15174449980258942,"336":-0.1685074269771576,"337":-0.14257721602916718,"338":-0.10431763529777527,"339":-0.06911235302686691,"340":0.15073823928833008,"341":0.06346312165260315,"342":-0.17527905106544495,"343":0.17052236199378967,"344":-0.13061575591564178,"345":0.12412764132022858,"346":-0.07212027907371521,"347":-0.02839505858719349,"348":0.09997371584177017,"349":-0.12940114736557007,"350":0.011459589004516602,"351":-0.17722827196121216,"352":-0.004468677565455437,"353":0.18732237815856934,"354":0.002191609935835004,"355":-0.14676618576049805,"356":0.17970438301563263,"357":0.12438791990280151,"358":-0.12825225293636322,"359":-0.04367774724960327,"360":-0.09188628941774368,"361":0.07068593800067902,"362":-0.02701922133564949,"363":-0.07037752866744995,"364":0.16135279834270477,"365":-0.11286650598049164,"366":-0.10260679572820663,"367":-0.05570048838853836,"368":0.08565931767225266,"369":-0.08526665717363358,"370":-0.02983892895281315,"371":0.1401509940624237,"372":-0.19331268966197968,"373":-0.09338796883821487,"374":0.05198313295841217,"375":-0.05391073226928711,"376":0.16081516444683075,"377":0.1072462648153305,"378":0.15409447252750397,"379":-0.12314114719629288,"380":-0.028518129140138626,"381":0.01373252272605896,"382":0.07665526121854782,"383":-0.1005670353770256,"384":0.025196440517902374,"385":-0.1388305425643921,"386":0.1662670224905014,"387":-0.1477193981409073,"388":0.1886015087366104,"389":0.15533538162708282,"390":0.11545221507549286,"391":-0.14767573773860931,"392":0.13370196521282196,"393":0.11726582050323486,"394":-0.0182514488697052,"395":-0.11164076626300812,"396":-0.014668327756226063,"397":0.1341635286808014,"398":0.14563018083572388,"399":0.13675940036773682,"400":0.1488495171070099,"401":0.03244310989975929,"402":-0.024960216134786606,"403":-0.08303409069776535,"404":0.11587432771921158,"405":-0.1978941559791565,"406":0.1257503181695938,"407":0.07608870416879654,"408":-0.09550947695970535,"409":0.20028641819953918,"410":-0.041993413120508194,"411":0.05627911165356636,"412":-0.026706373319029808,"413":-0.15105517208576202,"414":0.11743097752332687,"415":-0.009435213170945644,"416":0.051288504153490067,"417":-0.021996719762682915,"418":0.16090063750743866,"419":-0.0031897726003080606,"420":0.13953012228012085,"421":0.08159752190113068,"422":-0.09851856529712677,"423":-0.1781991571187973,"424":-0.0014786794781684875,"425":-0.11941979080438614,"426":-0.037119388580322266,"427":0.1277281939983368,"428":0.05793816223740578,"429":0.061357080936431885,"430":0.1448967009782791,"431":0.1766793429851532,"432":-0.17204512655735016,"433":-0.13095654547214508,"434":-0.004818131681531668,"435":-0.048789091408252716,"436":0.17818352580070496,"437":0.13197457790374756,"438":0.03691115230321884,"439":0.10191215574741364,"440":0.13902392983436584,"441":-0.05427168682217598,"442":0.15443329513072968,"443":-0.1353244036436081,"444":-0.01804225519299507,"445":0.07884883135557175,"446":0.1391143798828125,"447":0.018077291548252106,"448":0.004993187729269266,"449":0.0939655527472496,"450":0.053357064723968506,"451":0.17453806102275848,"452":-0.18828025460243225,"453":0.010867108590900898,"454":-0.18935953080654144,"455":0.10181283950805664,"456":0.17153918743133545,"457":0.10280049592256546,"458":0.012659149244427681,"459":-0.09156165271997452,"460":-0.04891855642199516,"461":-0.08559662848711014,"462":0.16751550137996674}},"7":{"bias":0.07965883612632751,"weights":{"0":-0.06876695901155472,"1":-0.12210975587368011,"2":0.11716152727603912,"3":-0.17300578951835632,"4":-0.035128965973854065,"5":0.19327117502689362,"6":0.13105839490890503,"7":-0.12441854923963547,"8":0.1444881409406662,"9":-0.07553603500127792,"10":0.013100937008857727,"11":0.007565320935100317,"12":0.20684069395065308,"13":-0.050119638442993164,"14":-0.14297790825366974,"15":0.0751090869307518,"16":0.04813235625624657,"17":0.01306941732764244,"18":-0.050163209438323975,"19":0.0259710606187582,"20":0.10033484548330307,"21":-0.1467912197113037,"22":-0.061074282974004745,"23":0.0014894467312842607,"24":0.16423194110393524,"25":-0.20234224200248718,"26":0.1640944480895996,"27":-0.012708490714430809,"28":0.055256813764572144,"29":0.07047918438911438,"30":0.027726007625460625,"31":0.13028933107852936,"32":-0.1687973588705063,"33":0.13861310482025146,"34":-0.07559134066104889,"35":0.18038783967494965,"36":0.15949343144893646,"37":-0.141206756234169,"38":-0.09607111662626266,"39":-0.015708163380622864,"40":0.1794019639492035,"41":-0.07022247463464737,"42":-0.15067440271377563,"43":0.0376686230301857,"44":-0.12491929531097412,"45":-0.12390278279781342,"46":0.09805089235305786,"47":-0.03126336261630058,"48":0.13235187530517578,"49":-0.10333960503339767,"50":-0.015553172677755356,"51":-0.07642677426338196,"52":-0.11043856292963028,"53":0.015364567749202251,"54":-0.10855648666620255,"55":0.07019029557704926,"56":-0.1260243058204651,"57":0.1578325778245926,"58":-0.13139642775058746,"59":0.15128062665462494,"60":-0.1431112438440323,"61":-0.0837567001581192,"62":0.063627228140831,"63":0.05627128854393959,"64":0.10475703328847885,"65":-0.02697634883224964,"66":0.20887885987758636,"67":-0.06223900988698006,"68":-0.09444994479417801,"69":0.021724900230765343,"70":-0.024006672203540802,"71":-0.169250950217247,"72":-0.09008761495351791,"73":-0.0458175353705883,"74":0.12421884387731552,"75":-0.19052138924598694,"76":0.10144151747226715,"77":-0.07373743504285812,"78":0.13498833775520325,"79":0.06467198580503464,"80":-0.20229123532772064,"81":-0.1841038465499878,"82":-0.026808282360434532,"83":0.15233616530895233,"84":-0.14300405979156494,"85":-0.20018450915813446,"86":0.06300394237041473,"87":0.16970324516296387,"88":-0.1291656643152237,"89":0.12411636859178543,"90":-0.11927808076143265,"91":0.15692560374736786,"92":0.18879690766334534,"93":-0.06580369174480438,"94":-0.1579439640045166,"95":0.0974430963397026,"96":0.0789107009768486,"97":-0.17466849088668823,"98":-0.02643910050392151,"99":-0.12668964266777039,"100":0.08144580572843552,"101":0.07137508690357208,"102":0.1330840140581131,"103":-0.19852858781814575,"104":0.13183365762233734,"105":0.14190982282161713,"106":-0.10328330844640732,"107":-0.19381600618362427,"108":0.13141365349292755,"109":0.16394366323947906,"110":-0.15259046852588654,"111":0.12229236960411072,"112":0.2025863230228424,"113":-0.09626731276512146,"114":-0.14747056365013123,"115":-0.08412658423185349,"116":0.13132180273532867,"117":0.14128845930099487,"118":-0.03420966491103172,"119":0.11183949559926987,"120":-0.040831297636032104,"121":-0.1467304229736328,"122":-0.1528998464345932,"123":-0.09668773412704468,"124":-0.16168463230133057,"125":0.06374302506446838,"126":-0.08944676071405411,"127":0.04020512476563454,"128":0.14794178307056427,"129":-0.11616883426904678,"130":0.1601117104291916,"131":0.14167098701000214,"132":0.17428013682365417,"133":-0.1877957284450531,"134":0.05646961182355881,"135":0.08952552080154419,"136":0.1493884176015854,"137":-0.11926378309726715,"138":0.17676745355129242,"139":-0.1555456966161728,"140":0.1449977159500122,"141":-0.0005140660214237869,"142":-0.09452258795499802,"143":0.09771452844142914,"144":0.1468943953514099,"145":-0.04953703656792641,"146":-0.11084356158971786,"147":0.06864704191684723,"148":0.05230410769581795,"149":-0.1737859696149826,"150":0.09603895246982574,"151":-0.15209820866584778,"152":-0.07349880784749985,"153":0.06190693750977516,"154":-0.017018355429172516,"155":-0.08322805166244507,"156":-0.16658605635166168,"157":0.03484271094202995,"158":-0.18025395274162292,"159":0.03240024670958519,"160":-0.08558065444231033,"161":0.03314409404993057,"162":0.10945893824100494,"163":0.12778837978839874,"164":0.009151649661362171,"165":0.06937846541404724,"166":-0.1408730447292328,"167":-0.04057864844799042,"168":0.11948665976524353,"169":0.13313627243041992,"170":-0.1739252507686615,"171":0.1363217532634735,"172":0.16231931746006012,"173":0.14620542526245117,"174":0.016540206968784332,"175":0.10313932597637177,"176":0.12947183847427368,"177":0.07140383124351501,"178":0.017433231696486473,"179":0.10697317868471146,"180":-0.09887479990720749,"181":-0.023526396602392197,"182":0.11832797527313232,"183":0.03573651984333992,"184":-0.018516959622502327,"185":0.12605664134025574,"186":-0.11796320229768753,"187":-0.11348981410264969,"188":0.08435064554214478,"189":0.19020232558250427,"190":-0.056792691349983215,"191":-0.19968143105506897,"192":0.09411364048719406,"193":0.15883159637451172,"194":-0.11879059672355652,"195":0.08239568024873734,"196":0.09176547080278397,"197":-0.1803939789533615,"198":0.1671425700187683,"199":0.02878500521183014,"200":0.16050668060779572,"201":0.15187884867191315,"202":-0.0017679472221061587,"203":-0.09269830584526062,"204":-0.12312168627977371,"205":-0.17598381638526917,"206":0.18017785251140594,"207":0.028212757781147957,"208":0.10357765108346939,"209":-0.18026728928089142,"210":-0.09192666411399841,"211":0.17332135140895844,"212":0.17125587165355682,"213":-0.2088758796453476,"214":0.10400870442390442,"215":0.16554337739944458,"216":-0.05437888577580452,"217":0.13966308534145355,"218":-0.032937563955783844,"219":0.10651658475399017,"220":-0.008521431125700474,"221":-0.042993150651454926,"222":0.07870964705944061,"223":-0.06519147008657455,"224":0.18604756891727448,"225":0.16162265837192535,"226":-0.1321185976266861,"227":-0.1534722000360489,"228":0.1300162672996521,"229":-0.1545100063085556,"230":-0.11464468389749527,"231":-0.11042780429124832,"232":0.1747673600912094,"233":-0.07613921910524368,"234":-0.08040983974933624,"235":0.1728411167860031,"236":0.10343200713396072,"237":0.00406418414786458,"238":0.03886552155017853,"239":-0.10353536903858185,"240":0.13647682964801788,"241":-0.18757319450378418,"242":0.16501538455486298,"243":-0.19647113978862762,"244":-0.10189095139503479,"245":0.08514893054962158,"246":0.1508079320192337,"247":-0.1910727173089981,"248":-0.200267493724823,"249":0.10287147015333176,"250":0.05749088525772095,"251":-0.03283531963825226,"252":-0.06301336735486984,"253":0.03147358447313309,"254":0.15773987770080566,"255":0.06751314550638199,"256":0.13299795985221863,"257":-0.028820667415857315,"258":-0.016817443072795868,"259":0.11565946787595749,"260":0.07430354505777359,"261":0.1016530767083168,"262":-0.0853787511587143,"263":0.1720058172941208,"264":0.15549331903457642,"265":-0.020199215039610863,"266":0.08684092015028,"267":0.05543694272637367,"268":0.08745898306369781,"269":0.12289614975452423,"270":0.12497778981924057,"271":-0.02001781202852726,"272":0.07185208052396774,"273":-0.20748691260814667,"274":-0.11635910719633102,"275":-0.11842010170221329,"276":0.14295357465744019,"277":-0.018562594428658485,"278":-0.15905365347862244,"279":0.16291777789592743,"280":0.07737372070550919,"281":-0.07082914561033249,"282":-0.07044024765491486,"283":-0.10511964559555054,"284":0.09377168864011765,"285":-0.028893114998936653,"286":-0.12257552146911621,"287":-0.09578771889209747,"288":0.05072847008705139,"289":0.1622026413679123,"290":-0.01348589826375246,"291":0.072638139128685,"292":0.03816928341984749,"293":-0.028986645862460136,"294":0.14665846526622772,"295":-0.16525018215179443,"296":-0.17561252415180206,"297":-0.20109203457832336,"298":0.1701882928609848,"299":-0.1759604960680008,"300":-0.11113299429416656,"301":-0.1410115510225296,"302":-0.19483676552772522,"303":0.11811722069978714,"304":0.018750812858343124,"305":-0.00003703658876474947,"306":-0.034209005534648895,"307":0.1124160960316658,"308":0.005742098670452833,"309":0.017110662534832954,"310":0.09209533780813217,"311":-0.011405273340642452,"312":0.13453838229179382,"313":-0.11495115607976913,"314":0.0842883437871933,"315":0.1811317354440689,"316":-0.2119177281856537,"317":-0.14632272720336914,"318":-0.10153741389513016,"319":0.17985038459300995,"320":-0.013133061118423939,"321":0.019276823848485947,"322":-0.09169883280992508,"323":-0.19620992243289948,"324":-0.08904929459095001,"325":0.19720807671546936,"326":-0.010514357127249241,"327":-0.029351573437452316,"328":-0.0619543120265007,"329":-0.16697917878627777,"330":0.10862691700458527,"331":0.12590140104293823,"332":-0.11955969780683517,"333":0.02394145354628563,"334":0.007690055761486292,"335":0.04349452629685402,"336":-0.1726696640253067,"337":0.06763283163309097,"338":0.11447146534919739,"339":-0.15354061126708984,"340":0.03268922120332718,"341":-0.13665373623371124,"342":-0.03743749111890793,"343":0.11172772943973541,"344":0.18371137976646423,"345":-0.02952374704182148,"346":0.009879502467811108,"347":-0.1232369914650917,"348":0.06394246965646744,"349":0.11572027206420898,"350":-0.16374827921390533,"351":-0.0696059986948967,"352":0.05968863517045975,"353":-0.013362310826778412,"354":-0.20129354298114777,"355":0.03981122747063637,"356":-0.03345576673746109,"357":0.17022772133350372,"358":0.08274636417627335,"359":0.1527637243270874,"360":0.03310493007302284,"361":-0.06869468092918396,"362":0.11822325736284256,"363":-0.1736912876367569,"364":-0.012048926204442978,"365":-0.0841856375336647,"366":-0.16223309934139252,"367":0.19916996359825134,"368":-0.05095751956105232,"369":-0.15961970388889313,"370":0.12507294118404388,"371":0.14587964117527008,"372":0.09223078936338425,"373":-0.0755176693201065,"374":-0.0233721062541008,"375":-0.13393370807170868,"376":0.08731164038181305,"377":0.03566957265138626,"378":0.176666721701622,"379":0.08422908931970596,"380":-0.15018704533576965,"381":-0.19252054393291473,"382":-0.18396641314029694,"383":0.20193713903427124,"384":-0.14419834315776825,"385":0.08892994374036789,"386":-0.13977797329425812,"387":0.019819166511297226,"388":-0.1519295573234558,"389":0.09654227644205093,"390":-0.15223833918571472,"391":0.10356511175632477,"392":-0.10412962734699249,"393":0.12747511267662048,"394":0.10016889125108719,